{"learner":{"attributes":{"best_iteration":"5","best_score":"2.1577131810582384"},"feature_names":[],"feature_types":[],"gradient_booster":{"model":{"gbtree_model_param":{"num_parallel_tree":"1","num_trees":"128"},"iteration_indptr":[0,8,16,24,32,40,48,56,64,72,80,88,96,104,112,120,128],"tree_info":[0,1,2,3,4,5,6,7,0,1,2,3,4,5,6,7,0,1,2,3,4,5,6,7,0,1,2,3,4,5,6,7,0,1,2,3,4,5,6,7,0,1,2,3,4,5,6,7,0,1,2,3,4,5,6,7,0,1,2,3,4,5,6,7,0,1,2,3,4,5,6,7,0,1,2,3,4,5,6,7,0,1,2,3,4,5,6,7,0,1,2,3,4,5,6,7,0,1,2,3,4,5,6,7,0,1,2,3,4,5,6,7,0,1,2,3,4,5,6,7,0,1,2,3,4,5,6,7],"trees":[{"base_weights":[-3.7066815E0,-3.7330773E0,-8.605764E-1,-8.7130845E-1,1.7068673E-2],"categories":[],"categories_nodes":[],"categories_segments":[],"categories_sizes":[],"default_left":[0,0,0,0,0],"id":0,"left_children":[1,-1,3,-1,-1],"loss_changes":[6.164452E2,0E0,3.222849E1,0E0,0E0],"parents":[2147483647,0,0,2,2],"right_children":[2,-1,4,-1,-1],"split_conditions":[3.095817E0,-3.7330773E0,4.3980155E0,-8.7130845E-1,1.7068673E-2],"split_indices":[1,0,1,0,0],"split_type":[0,0,0,0,0],"sum_hessian":[3.8E1,1.2E1,2.6E1,1E1,1.6E1],"tree_param":{"num_deleted":"0","num_feature":"2","num_nodes":"5","size_leaf_vector":"1"}},{"base_weights":[5.7444916E0,4.5520034E0,3.1241095E0,2.327927E0,1.0771633E0],"categories":[],"categories_nodes":[],"categories_segments":[],"categories_sizes":[],"default_left":[0,0,0,0,0],"id":1,"left_children":[1,-1,3,-1,-1],"loss_changes":[5.403688E2,0E0,1.6874786E1,0E0,0E0],"parents":[2147483647,0,0,2,2],"right_children":[2,-1,4,-1,-1],"split_conditions":[2.7275937E0,4.5520034E0,2.3886375E-1,2.327927E0,1.0771633E0],"split_indices":[1,0,0,0,0],"split_type":[0,0,0,0,0],"sum_hessian":[3.8E1,1.1E1,2.7E1,2E0,2.5E1],"tree_param":{"num_deleted":"0","num_feature":"2","num_nodes":"5","size_leaf_vector":"1"}},{"base_weights":[1.6166246E0,1.0166223E0,8.7787974E-1,9.649593E-1,2.1851945E-1],"categories":[],"categories_nodes":[],"categories_segments":[],"categories_sizes":[],"default_left":[0,0,0,0,0],"id":2,"left_children":[1,3,-1,-1,-1],"loss_changes":[1.1295822E1,1.2467909E1,0E0,0E0,0E0],"parents":[2147483647,0,0,1,1],"right_children":[2,4,-1,-1,-1],"split_conditions":[4.5787373E0,5.127927E-1,8.7787974E-1,9.649593E-1,2.1851945E-1],"split_indices":[0,0,0,0,0],"split_type":[0,0,0,0,0],"sum_hessian":[3.8E1,2E1,1.8E1,4E0,1.6E1],"tree_param":{"num_deleted":"0","num_feature":"2","num_nodes":"5","size_leaf_vector":"1"}},{"base_weights":[-2.16845E0,1.992982E0,-3.8744764E0,1.0315913E0,7.049816E-2,1.4422752E-1,-1.6856469E0],"categories":[],"categories_nodes":[],"categories_segments":[],"categories_sizes":[],"default_left":[0,0,0,0,0,0,0],"id":3,"left_children":[1,3,5,-1,-1,-1,-1],"loss_changes":[2.8460272E2,1.2320671E1,4.1794495E1,0E0,0E0,0E0,0E0],"parents":[2147483647,0,0,1,1,2,2],"right_children":[2,4,6,-1,-1,-1,-1],"split_conditions":[2.7275937E0,1.9833014E0,2.3886375E-1,1.0315913E0,7.049816E-2,1.4422752E-1,-1.6856469E0],"split_indices":[1,1,0,0,0,0,0],"split_type":[0,0,0,0,0,0,0],"sum_hessian":[3.8E1,1.1E1,2.7E1,8E0,3E0,2E0,2.5E1],"tree_param":{"num_deleted":"0","num_feature":"2","num_nodes":"7","size_leaf_vector":"1"}},{"base_weights":[-4.7075456E-1,-5.3330716E-2,-4.8539048E-1,-1.1640731E-1,-2.1159013E-1],"categories":[],"categories_nodes":[],"categories_segments":[],"categories_sizes":[],"default_left":[0,0,0,0,0],"id":4,"left_children":[1,-1,3,-1,-1],"loss_changes":[1.2788868E-1,0E0,1.5951061E-1,0E0,0E0],"parents":[2147483647,0,0,2,2],"right_children":[2,-1,4,-1,-1],"split_conditions":[2.3886375E-1,-5.3330716E-2,1.9833014E0,-1.1640731E-1,-2.1159013E-1],"split_indices":[0,0,1,0,0],"split_type":[0,0,0,0,0],"sum_hessian":[3.8E1,2E0,3.6E1,8E0,2.8E1],"tree_param":{"num_deleted":"0","num_feature":"2","num_nodes":"5","size_leaf_vector":"1"}},{"base_weights":[-3.2788172E-1,1.7671032E-1,-4.6379936E-1,9.134225E-2,2.2025926E-2,-4.0351022E-2,-1.9963244E-1],"categories":[],"categories_nodes":[],"categories_segments":[],"categories_sizes":[],"default_left":[0,0,0,0,0,0,0],"id":5,"left_children":[1,3,5,-1,-1,-1,-1],"loss_changes":[2.7566938E0,4.3967396E-2,3.465929E-1,0E0,0E0,0E0,0E0],"parents":[2147483647,0,0,1,1,2,2],"right_children":[2,4,6,-1,-1,-1,-1],"split_conditions":[1.9833014E0,9.1202664E-1,1.2220036E0,9.134225E-2,2.2025926E-2,-4.0351022E-2,-1.9963244E-1],"split_indices":[1,1,0,0,0,0,0],"split_type":[0,0,0,0,0,0,0],"sum_hessian":[3.8E1,8E0,3E1,5E0,3E0,3E0,2.7E1],"tree_param":{"num_deleted":"0","num_feature":"2","num_nodes":"7","size_leaf_vector":"1"}},{"base_weights":[-2.3575827E-1,2.4603702E-1,-4.3382204E-1,1.0214207E-1,2.8707445E-2,-2.0576796E-2,-1.8450294E-1],"categories":[],"categories_nodes":[],"categories_segments":[],"categories_sizes":[],"default_left":[0,0,0,0,0,0,0],"id":6,"left_children":[1,3,5,-1,-1,-1,-1],"loss_changes":[3.828357E0,1.1598468E-3,2.7001286E-1,0E0,0E0,0E0,0E0],"parents":[2147483647,0,0,1,1,2,2],"right_children":[2,4,6,-1,-1,-1,-1],"split_conditions":[2.7275937E0,6.9151716E0,2.3886375E-1,1.0214207E-1,2.8707445E-2,-2.0576796E-2,-1.8450294E-1],"split_indices":[1,0,0,0,0,0,0],"split_type":[0,0,0,0,0,0,0],"sum_hessian":[3.8E1,1.1E1,2.7E1,1E1,1E0,2E0,2.5E1],"tree_param":{"num_deleted":"0","num_feature":"2","num_nodes":"7","size_leaf_vector":"1"}},{"base_weights":[-4.5159072E-1,-7.160465E-2,-5.161592E-1,-8.285679E-2,-2.1213114E-1],"categories":[],"categories_nodes":[],"categories_segments":[],"categories_sizes":[],"default_left":[0,0,0,0,0],"id":7,"left_children":[1,-1,3,-1,-1],"loss_changes":[5.940013E-1,0E0,2.5876045E-2,0E0,0E0],"parents":[2147483647,0,0,2,2],"right_children":[2,-1,4,-1,-1],"split_conditions":[1.9833014E0,-7.160465E-2,2.3886375E-1,-8.285679E-2,-2.1213114E-1],"split_indices":[1,0,0,0,0],"split_type":[0,0,0,0,0],"sum_hessian":[3.8E1,8E0,3E1,2E0,2.8E1],"tree_param":{"num_deleted":"0","num_feature":"2","num_nodes":"5","size_leaf_vector":"1"}},{"base_weights":[-2.3416324E0,-6.2090397E0,-6.005424E-1,-1.2951163E0,-3.1475275E0,-5.7558364E-1,1.0642813E-2],"categories":[],"categories_nodes":[],"categories_segments":[],"categories_sizes":[],"default_left":[0,0,0,0,0,0,0],"id":8,"left_children":[1,3,5,-1,-1,-1,-1],"loss_changes":[2.5887787E2,3.3701782E1,1.4761037E1,0E0,0E0,0E0,0E0],"parents":[2147483647,0,0,1,1,2,2],"right_children":[2,4,6,-1,-1,-1,-1],"split_conditions":[2.7275937E0,9.1202664E-1,4.3980155E0,-1.2951163E0,-3.1475275E0,-5.7558364E-1,1.0642813E-2],"split_indices":[1,1,1,0,0,0,0],"split_type":[0,0,0,0,0,0,0],"sum_hessian":[3.8E1,1.1E1,2.7E1,5E0,6E0,1.1E1,1.6E1],"tree_param":{"num_deleted":"0","num_feature":"2","num_nodes":"7","size_leaf_vector":"1"}},{"base_weights":[3.650723E0,2.8829358E0,1.996076E0,1.7071466E0,6.6286963E-1],"categories":[],"categories_nodes":[],"categories_segments":[],"categories_sizes":[],"default_left":[0,0,0,0,0],"id":9,"left_children":[1,-1,3,-1,-1],"loss_changes":[2.151264E2,0E0,1.4484993E1,0E0,0E0],"parents":[2147483647,0,0,2,2],"right_children":[2,-1,4,-1,-1],"split_conditions":[2.7275937E0,2.8829358E0,2.3886375E-1,1.7071466E0,6.6286963E-1],"split_indices":[1,0,0,0,0],"split_type":[0,0,0,0,0],"sum_hessian":[3.8E1,1.1E1,2.7E1,2E0,2.5E1],"tree_param":{"num_deleted":"0","num_feature":"2","num_nodes":"5","size_leaf_vector":"1"}},{"base_weights":[1.02283E0,8.7642384E-1,7.8658867E-1,-2.2258592E-1,4.3770382E-1],"categories":[],"categories_nodes":[],"categories_segments":[],"categories_sizes":[],"default_left":[0,0,0,0,0],"id":10,"left_children":[1,-1,3,-1,-1],"loss_changes":[9.039925E0,0E0,1.4658342E1,0E0,0E0],"parents":[2147483647,0,0,2,2],"right_children":[2,-1,4,-1,-1],"split_conditions":[9.1202664E-1,8.7642384E-1,2.7275937E0,-2.2258592E-1,4.3770382E-1],"split_indices":[1,0,1,0,0],"split_type":[0,0,0,0,0],"sum_hessian":[3.8E1,5E0,3.3E1,6E0,2.7E1],"tree_param":{"num_deleted":"0","num_feature":"2","num_nodes":"5","size_leaf_vector":"1"}},{"base_weights":[-1.3123349E0,1.2876298E0,-2.3797364E0,5.979007E-1,-1.9814196E-1,-1.1379923E0,-2.310311E-1],"categories":[],"categories_nodes":[],"categories_segments":[],"categories_sizes":[],"default_left":[0,0,0,0,0,0,0],"id":11,"left_children":[1,3,5,-1,-1,-1,-1],"loss_changes":[1.1129728E2,5.171974E0,2.1833237E1,0E0,0E0,0E0,0E0],"parents":[2147483647,0,0,1,1,2,2],"right_children":[2,4,6,-1,-1,-1,-1],"split_conditions":[2.7275937E0,6.9151716E0,6.4155374E0,5.979007E-1,-1.9814196E-1,-1.1379923E0,-2.310311E-1],"split_indices":[1,0,1,0,0,0,0],"split_type":[0,0,0,0,0,0,0],"sum_hessian":[3.8E1,1.1E1,2.7E1,1E1,1E0,2.1E1,6E0],"tree_param":{"num_deleted":"0","num_feature":"2","num_nodes":"7","size_leaf_vector":"1"}},{"base_weights":[-2.922304E-1,-5.7795305E-2,-3.0970752E-1,-3.9109193E-2,-1.279592E-1],"categories":[],"categories_nodes":[],"categories_segments":[],"categories_sizes":[],"default_left":[0,0,0,0,0],"id":12,"left_children":[1,-1,3,-1,-1],"loss_changes":[5.5953264E-2,0E0,4.215312E-2,0E0,0E0],"parents":[2147483647,0,0,2,2],"right_children":[2,-1,4,-1,-1],"split_conditions":[9.1202664E-1,-5.7795305E-2,2.3886375E-1,-3.9109193E-2,-1.279592E-1],"split_indices":[1,0,0,0,0],"split_type":[0,0,0,0,0],"sum_hessian":[3.8E1,5E0,3.3E1,2E0,3.1E1],"tree_param":{"num_deleted":"0","num_feature":"2","num_nodes":"5","size_leaf_vector":"1"}},{"base_weights":[-1.9997558E-1,9.021468E-2,-3.0315202E-1,6.0894825E-2,5.2626072E-3,-2.8245712E-2,-1.3090695E-1],"categories":[],"categories_nodes":[],"categories_segments":[],"categories_sizes":[],"default_left":[0,0,0,0,0,0,0],"id":13,"left_children":[1,3,5,-1,-1,-1,-1],"loss_changes":[1.1950399E0,5.056972E-2,1.3951445E-1,0E0,0E0,0E0,0E0],"parents":[2147483647,0,0,1,1,2,2],"right_children":[2,4,6,-1,-1,-1,-1],"split_conditions":[2.6465857E0,9.1202664E-1,1.2220036E0,6.0894825E-2,5.2626072E-3,-2.8245712E-2,-1.3090695E-1],"split_indices":[1,1,0,0,0,0,0],"split_type":[0,0,0,0,0,0,0],"sum_hessian":[3.8E1,1E1,2.8E1,5E0,5E0,3E0,2.5E1],"tree_param":{"num_deleted":"0","num_feature":"2","num_nodes":"7","size_leaf_vector":"1"}},{"base_weights":[-1.433583E-1,6.341053E-2,-2.676175E-1,-3.0922815E-2,-1.1844591E-1],"categories":[],"categories_nodes":[],"categories_segments":[],"categories_sizes":[],"default_left":[0,0,0,0,0],"id":14,"left_children":[1,-1,3,-1,-1],"loss_changes":[1.5053899E0,0E0,1.2896156E-1,0E0,0E0],"parents":[2147483647,0,0,2,2],"right_children":[2,-1,4,-1,-1],"split_conditions":[2.7275937E0,6.341053E-2,3.733499E0,-3.0922815E-2,-1.1844591E-1],"split_indices":[1,0,1,0,0],"split_type":[0,0,0,0,0],"sum_hessian":[3.8E1,1.1E1,2.7E1,4E0,2.3E1],"tree_param":{"num_deleted":"0","num_feature":"2","num_nodes":"5","size_leaf_vector":"1"}},{"base_weights":[-2.8035423E-1,-2.5872743E-2,-1.24067344E-1],"categories":[],"categories_nodes":[],"categories_segments":[],"categories_sizes":[],"default_left":[0,0,0],"id":15,"left_children":[1,-1,-1],"loss_changes":[2.3071074E-1,0E0,0E0],"parents":[2147483647,0,0],"right_children":[2,-1,-1],"split_conditions":[9.1202664E-1,-2.5872743E-2,-1.24067344E-1],"split_indices":[1,0,0],"split_type":[0,0,0],"sum_hessian":[3.8E1,5E0,3.3E1],"tree_param":{"num_deleted":"0","num_feature":"2","num_nodes":"3","size_leaf_vector":"1"}},{"base_weights":[-1.5333791E0,-4.095644E0,-3.8050193E-1,-8.634109E-1,-2.0683753E0,-5.929348E-1,-3.060926E-2],"categories":[],"categories_nodes":[],"categories_segments":[],"categories_sizes":[],"default_left":[0,0,0,0,0,0,0],"id":16,"left_children":[1,3,5,-1,-1,-1,-1],"loss_changes":[1.13646706E2,1.3834015E1,9.264732E0,0E0,0E0,0E0,0E0],"parents":[2147483647,0,0,1,1,2,2],"right_children":[2,4,6,-1,-1,-1,-1],"split_conditions":[2.7275937E0,9.1202664E-1,3.7555442E0,-8.634109E-1,-2.0683753E0,-5.929348E-1,-3.060926E-2],"split_indices":[1,1,1,0,0,0,0],"split_type":[0,0,0,0,0,0,0],"sum_hessian":[3.8E1,1.1E1,2.7E1,5E0,6E0,5E0,2.2E1],"tree_param":{"num_deleted":"0","num_feature":"2","num_nodes":"7","size_leaf_vector":"1"}},{"base_weights":[2.3251247E0,4.1821885E0,9.902019E-1,1.7397302E0,3.350273E-1,6.9438905E-1,2.3240149E-1],"categories":[],"categories_nodes":[],"categories_segments":[],"categories_sizes":[],"default_left":[0,0,0,0,0,0,0],"id":17,"left_children":[1,3,5,-1,-1,-1,-1],"loss_changes":[9.2541214E1,5.3013E0,6.315428E0,0E0,0E0,0E0,0E0],"parents":[2147483647,0,0,1,1,2,2],"right_children":[2,4,6,-1,-1,-1,-1],"split_conditions":[3.733499E0,6.9151716E0,4.3980155E0,1.7397302E0,3.350273E-1,6.9438905E-1,2.3240149E-1],"split_indices":[1,0,1,0,0,0,0],"split_type":[0,0,0,0,0,0,0],"sum_hessian":[3.8E1,1.5E1,2.3E1,1.4E1,1E0,7E0,1.6E1],"tree_param":{"num_deleted":"0","num_feature":"2","num_nodes":"7","size_leaf_vector":"1"}},{"base_weights":[6.4168626E-1,7.7472836E-1,5.1933247E-1,5.842826E-1,1.306383E-1],"categories":[],"categories_nodes":[],"categories_segments":[],"categories_sizes":[],"default_left":[0,0,0,0,0],"id":18,"left_children":[1,-1,3,-1,-1],"loss_changes":[5.174267E0,0E0,6.236121E0,0E0,0E0],"parents":[2147483647,0,0,2,2],"right_children":[2,-1,4,-1,-1],"split_conditions":[2.3886375E-1,7.7472836E-1,9.1202664E-1,5.842826E-1,1.306383E-1],"split_indices":[0,0,1,0,0],"split_type":[0,0,0,0,0],"sum_hessian":[3.8E1,2E0,3.6E1,5E0,3.1E1],"tree_param":{"num_deleted":"0","num_feature":"2","num_nodes":"5","size_leaf_vector":"1"}},{"base_weights":[-8.122539E-1,8.058912E-1,-1.4767356E0,4.522163E-1,-5.0417233E-2,-7.830142E-1,-1.2017575E-2],"categories":[],"categories_nodes":[],"categories_segments":[],"categories_sizes":[],"default_left":[0,0,0,0,0,0,0],"id":19,"left_children":[1,3,5,-1,-1,-1,-1],"loss_changes":[4.312397E1,3.7731209E0,1.9417118E1,0E0,0E0,0E0,0E0],"parents":[2147483647,0,0,1,1,2,2],"right_children":[2,4,6,-1,-1,-1,-1],"split_conditions":[2.7275937E0,1.9833014E0,5.914202E0,4.522163E-1,-5.0417233E-2,-7.830142E-1,-1.2017575E-2],"split_indices":[1,1,0,0,0,0,0],"split_type":[0,0,0,0,0,0,0],"sum_hessian":[3.8E1,1.1E1,2.7E1,8E0,3E0,2E1,7E0],"tree_param":{"num_deleted":"0","num_feature":"2","num_nodes":"7","size_leaf_vector":"1"}},{"base_weights":[-1.8110397E-1,-4.4106953E-2,-2.0499453E-1,-2.8680077E-2,-8.49961E-2],"categories":[],"categories_nodes":[],"categories_segments":[],"categories_sizes":[],"default_left":[0,0,0,0,0],"id":20,"left_children":[1,-1,3,-1,-1],"loss_changes":[4.3396354E-2,0E0,1.2740254E-2,0E0,0E0],"parents":[2147483647,0,0,2,2],"right_children":[2,-1,4,-1,-1],"split_conditions":[2.7275937E0,-4.4106953E-2,2.3886375E-1,-2.8680077E-2,-8.49961E-2],"split_indices":[1,0,0,0,0],"split_type":[0,0,0,0,0],"sum_hessian":[3.8E1,1.1E1,2.7E1,2E0,2.5E1],"tree_param":{"num_deleted":"0","num_feature":"2","num_nodes":"5","size_leaf_vector":"1"}},{"base_weights":[-1.2236983E-1,6.0143106E-2,-1.8737923E-1,3.3215187E-2,-1.1435672E-2,-1.9772006E-2,-8.0558114E-2],"categories":[],"categories_nodes":[],"categories_segments":[],"categories_sizes":[],"default_left":[0,0,0,0,0,0,0],"id":21,"left_children":[1,3,5,-1,-1,-1,-1],"loss_changes":[4.740067E-1,2.4720632E-2,4.611671E-2,0E0,0E0,0E0,0E0],"parents":[2147483647,0,0,1,1,2,2],"right_children":[2,4,6,-1,-1,-1,-1],"split_conditions":[2.6465857E0,1.9833014E0,1.2220036E0,3.3215187E-2,-1.1435672E-2,-1.9772006E-2,-8.0558114E-2],"split_indices":[1,1,0,0,0,0,0],"split_type":[0,0,0,0,0,0,0],"sum_hessian":[3.8E1,1E1,2.8E1,8E0,2E0,3E0,2.5E1],"tree_param":{"num_deleted":"0","num_feature":"2","num_nodes":"7","size_leaf_vector":"1"}},{"base_weights":[-8.821904E-2,1.0040001E-1,-1.6590509E-1,4.194112E-2,1.0283852E-2,4.82618E-3,-7.202368E-2],"categories":[],"categories_nodes":[],"categories_segments":[],"categories_sizes":[],"default_left":[0,0,0,0,0,0,0],"id":22,"left_children":[1,3,5,-1,-1,-1,-1],"loss_changes":[5.8812654E-1,1.2952462E-3,7.270485E-2,0E0,0E0,0E0,0E0],"parents":[2147483647,0,0,1,1,2,2],"right_children":[2,4,6,-1,-1,-1,-1],"split_conditions":[2.7275937E0,6.9151716E0,2.3886375E-1,4.194112E-2,1.0283852E-2,4.82618E-3,-7.202368E-2],"split_indices":[1,0,0,0,0,0,0],"split_type":[0,0,0,0,0,0,0],"sum_hessian":[3.8E1,1.1E1,2.7E1,1E1,1E0,2E0,2.5E1],"tree_param":{"num_deleted":"0","num_feature":"2","num_nodes":"7","size_leaf_vector":"1"}},{"base_weights":[-1.7205717E-1,-5.963348E-2,-1.9914606E-1,-3.1110555E-2,1.710195E-2,-2.7677024E-2,-8.228897E-2],"categories":[],"categories_nodes":[],"categories_segments":[],"categories_sizes":[],"default_left":[0,0,0,0,0,0,0],"id":23,"left_children":[1,3,5,-1,-1,-1,-1],"loss_changes":[1.0689616E-1,2.004392E-2,1.2258649E-2,0E0,0E0,0E0,0E0],"parents":[2147483647,0,0,1,1,2,2],"right_children":[2,4,6,-1,-1,-1,-1],"split_conditions":[1.9833014E0,1.5323595E0,2.3886375E-1,-3.1110555E-2,1.710195E-2,-2.7677024E-2,-8.228897E-2],"split_indices":[1,1,0,0,0,0,0],"split_type":[0,0,0,0,0,0,0],"sum_hessian":[3.8E1,8E0,3E1,7E0,1E0,2E0,2.8E1],"tree_param":{"num_deleted":"0","num_feature":"2","num_nodes":"7","size_leaf_vector":"1"}},{"base_weights":[-1.0111897E0,-2.7017016E0,-2.5057057E-1,-5.756072E-1,-1.359218E0,-2.4825656E-1,1.9104843E-1],"categories":[],"categories_nodes":[],"categories_segments":[],"categories_sizes":[],"default_left":[0,0,0,0,0,0,0],"id":24,"left_children":[1,3,5,-1,-1,-1,-1],"loss_changes":[4.947062E1,5.661293E0,7.8419414E0,0E0,0E0,0E0,0E0],"parents":[2147483647,0,0,1,1,2,2],"right_children":[2,4,6,-1,-1,-1,-1],"split_conditions":[2.7275937E0,9.1202664E-1,5.547069E0,-5.756072E-1,-1.359218E0,-2.4825656E-1,1.9104843E-1],"split_indices":[1,1,0,0,0,0,0],"split_type":[0,0,0,0,0,0,0],"sum_hessian":[3.8E1,1.1E1,2.7E1,5E0,6E0,1.8E1,9E0],"tree_param":{"num_deleted":"0","num_feature":"2","num_nodes":"7","size_leaf_vector":"1"}},{"base_weights":[1.4720377E0,3.0869539E0,7.273579E-1,1.2983031E0,2.680218E-1,9.889566E-1,1.9921303E-1],"categories":[],"categories_nodes":[],"categories_segments":[],"categories_sizes":[],"default_left":[0,0,0,0,0,0,0],"id":25,"left_children":[1,3,5,-1,-1,-1,-1],"loss_changes":[4.46559E1,2.430931E0,9.973721E0,0E0,0E0,0E0,0E0],"parents":[2147483647,0,0,1,1,2,2],"right_children":[2,4,6,-1,-1,-1,-1],"split_conditions":[2.7275937E0,6.9151716E0,2.3886375E-1,1.2983031E0,2.680218E-1,9.889566E-1,1.9921303E-1],"split_indices":[1,0,0,0,0,0,0],"split_type":[0,0,0,0,0,0,0],"sum_hessian":[3.8E1,1.1E1,2.7E1,1E1,1E0,2E0,2.5E1],"tree_param":{"num_deleted":"0","num_feature":"2","num_nodes":"7","size_leaf_vector":"1"}},{"base_weights":[4.2320785E-1,1.3593417E-1,7.1844673E-1,5.681341E-1,-2.9608175E-2,3.1335127E-2,4.7074357E-1],"categories":[],"categories_nodes":[],"categories_segments":[],"categories_sizes":[],"default_left":[0,0,0,0,0,0,0],"id":26,"left_children":[1,3,5,-1,-1,-1,-1],"loss_changes":[3.2100983E0,5.768119E0,5.4830484E0,0E0,0E0,0E0,0E0],"parents":[2147483647,0,0,1,1,2,2],"right_children":[2,4,6,-1,-1,-1,-1],"split_conditions":[4.5787373E0,2.3886375E-1,3.798999E0,5.681341E-1,-2.9608175E-2,3.1335127E-2,4.7074357E-1],"split_indices":[0,0,1,0,0,0,0],"split_type":[0,0,0,0,0,0,0],"sum_hessian":[3.8E1,2E1,1.8E1,2E0,1.8E1,8E0,1E1],"tree_param":{"num_deleted":"0","num_feature":"2","num_nodes":"7","size_leaf_vector":"1"}},{"base_weights":[-4.9743518E-1,4.6033877E-1,-1.1152247E0,3.6297908E-1,6.984489E-2,-7.320027E-1,-4.164722E-2],"categories":[],"categories_nodes":[],"categories_segments":[],"categories_sizes":[],"default_left":[0,0,0,0,0,0,0],"id":27,"left_children":[1,3,5,-1,-1,-1,-1],"loss_changes":[2.3589785E1,1.8855627E0,1.7154766E1,0E0,0E0,0E0,0E0],"parents":[2147483647,0,0,1,1,2,2],"right_children":[2,4,6,-1,-1,-1,-1],"split_conditions":[3.733499E0,2.2907903E0,5.5364437E0,3.6297908E-1,6.984489E-2,-7.320027E-1,-4.164722E-2],"split_indices":[1,0,1,0,0,0,0],"split_type":[0,0,0,0,0,0,0],"sum_hessian":[3.8E1,1.5E1,2.3E1,5E0,1E1,1.3E1,1E1],"tree_param":{"num_deleted":"0","num_feature":"2","num_nodes":"7","size_leaf_vector":"1"}},{"base_weights":[-1.127081E-1,-7.100062E-2,-1.286151E-1,-4.2636834E-2,-2.1935701E-2,-2.1032056E-2,-5.3037878E-2],"categories":[],"categories_nodes":[],"categories_segments":[],"categories_sizes":[],"default_left":[0,0,0,0,0,0,0],"id":28,"left_children":[1,3,5,-1,-1,-1,-1],"loss_changes":[1.6742468E-2,1.6322583E-3,1.1980534E-3,0E0,0E0,0E0,0E0],"parents":[2147483647,0,0,1,1,2,2],"right_children":[2,4,6,-1,-1,-1,-1],"split_conditions":[3.095817E0,2.4941075E-1,2.3886375E-1,-4.2636834E-2,-2.1935701E-2,-2.1032056E-2,-5.3037878E-2],"split_indices":[1,1,0,0,0,0,0],"split_type":[0,0,0,0,0,0,0],"sum_hessian":[3.8E1,1.2E1,2.6E1,2E0,1E1,2E0,2.4E1],"tree_param":{"num_deleted":"0","num_feature":"2","num_nodes":"7","size_leaf_vector":"1"}},{"base_weights":[-7.543601E-2,3.8065832E-2,-1.15887195E-1,2.9524818E-2,-1.6098758E-3,-1.8536082E-2,-5.280604E-2],"categories":[],"categories_nodes":[],"categories_segments":[],"categories_sizes":[],"default_left":[0,0,0,0,0,0,0],"id":29,"left_children":[1,3,5,-1,-1,-1,-1],"loss_changes":[1.8347141E-1,1.6847417E-2,2.6410133E-2,0E0,0E0,0E0,0E0],"parents":[2147483647,0,0,1,1,2,2],"right_children":[2,4,6,-1,-1,-1,-1],"split_conditions":[2.6465857E0,9.1202664E-1,3.7555442E0,2.9524818E-2,-1.6098758E-3,-1.8536082E-2,-5.280604E-2],"split_indices":[1,1,1,0,0,0,0],"split_type":[0,0,0,0,0,0,0],"sum_hessian":[3.8E1,1E1,2.8E1,5E0,5E0,6E0,2.2E1],"tree_param":{"num_deleted":"0","num_feature":"2","num_nodes":"7","size_leaf_vector":"1"}},{"base_weights":[-5.331532E-2,4.521914E-2,-1.16783485E-1,2.6333261E-2,-5.3193285E-3,6.8388702E-3,-4.9339097E-2],"categories":[],"categories_nodes":[],"categories_segments":[],"categories_sizes":[],"default_left":[0,0,0,0,0,0,0],"id":30,"left_children":[1,3,5,-1,-1,-1,-1],"loss_changes":[2.4917912E-1,2.0175945E-2,2.320069E-2,0E0,0E0,0E0,0E0],"parents":[2147483647,0,0,1,1,2,2],"right_children":[2,4,6,-1,-1,-1,-1],"split_conditions":[3.733499E0,5.547069E0,2.3886375E-1,2.6333261E-2,-5.3193285E-3,6.8388702E-3,-4.9339097E-2],"split_indices":[1,0,0,0,0,0,0],"split_type":[0,0,0,0,0,0,0],"sum_hessian":[3.8E1,1.5E1,2.3E1,1.1E1,4E0,1E0,2.2E1],"tree_param":{"num_deleted":"0","num_feature":"2","num_nodes":"7","size_leaf_vector":"1"}},{"base_weights":[-1.0641312E-1,-4.683802E-2,-1.311562E-1,-3.2897354E-3,-2.5234336E-2,-2.0296482E-2,-5.4223903E-2],"categories":[],"categories_nodes":[],"categories_segments":[],"categories_sizes":[],"default_left":[0,0,0,0,0,0,0],"id":31,"left_children":[1,3,5,-1,-1,-1,-1],"loss_changes":[5.1345676E-2,7.637212E-3,2.6825964E-3,0E0,0E0,0E0,0E0],"parents":[2147483647,0,0,1,1,2,2],"right_children":[2,4,6,-1,-1,-1,-1],"split_conditions":[3.095817E0,5.7852167E-1,2.3886375E-1,-3.2897354E-3,-2.5234336E-2,-2.0296482E-2,-5.4223903E-2],"split_indices":[1,1,0,0,0,0,0],"split_type":[0,0,0,0,0,0,0],"sum_hessian":[3.8E1,1.2E1,2.6E1,4E0,8E0,2E0,2.4E1],"tree_param":{"num_deleted":"0","num_feature":"2","num_nodes":"7","size_leaf_vector":"1"}},{"base_weights":[-6.577916E-1,-1.620312E0,1.1296611E-2,-8.103847E-1,-1.2907611E-1,-8.979679E-2,3.0243108E-1],"categories":[],"categories_nodes":[],"categories_segments":[],"categories_sizes":[],"default_left":[0,0,0,0,0,0,0],"id":32,"left_children":[1,3,5,-1,-1,-1,-1],"loss_changes":[2.5134735E1,7.768318E0,4.384394E0,0E0,0E0,0E0,0E0],"parents":[2147483647,0,0,1,1,2,2],"right_children":[2,4,6,-1,-1,-1,-1],"split_conditions":[3.733499E0,5.547069E0,6.4629135E0,-8.103847E-1,-1.2907611E-1,-8.979679E-2,3.0243108E-1],"split_indices":[1,0,1,0,0,0,0],"split_type":[0,0,0,0,0,0,0],"sum_hessian":[3.8E1,1.5E1,2.3E1,1.1E1,4E0,1.8E1,5E0],"tree_param":{"num_deleted":"0","num_feature":"2","num_nodes":"7","size_leaf_vector":"1"}},{"base_weights":[9.538508E-1,1.5225519E0,1.2832272E-1,8.6254233E-1,4.1630647E-1,6.6824335E-1,-2.8993258E-2],"categories":[],"categories_nodes":[],"categories_segments":[],"categories_sizes":[],"default_left":[0,0,0,0,0,0,0],"id":33,"left_children":[1,3,5,-1,-1,-1,-1],"loss_changes":[1.8114292E1,4.778969E0,5.38599E0,0E0,0E0,0E0,0E0],"parents":[2147483647,0,0,1,1,2,2],"right_children":[2,4,6,-1,-1,-1,-1],"split_conditions":[4.3980155E0,1.9833014E0,2.3886375E-1,8.6254233E-1,4.1630647E-1,6.6824335E-1,-2.8993258E-2],"split_indices":[1,1,0,0,0,0,0],"split_type":[0,0,0,0,0,0,0],"sum_hessian":[3.8E1,2.2E1,1.6E1,8E0,1.4E1,1E0,1.5E1],"tree_param":{"num_deleted":"0","num_feature":"2","num_nodes":"7","size_leaf_vector":"1"}},{"base_weights":[2.8060687E-1,3.8720244E-1,1.5104796E-1,-1.8439214E-1,1.1946418E-1],"categories":[],"categories_nodes":[],"categories_segments":[],"categories_sizes":[],"default_left":[0,0,0,0,0],"id":34,"left_children":[1,-1,3,-1,-1],"loss_changes":[3.3270736E0,0E0,3.2093394E0,0E0,0E0],"parents":[2147483647,0,0,2,2],"right_children":[2,-1,4,-1,-1],"split_conditions":[9.1202664E-1,3.8720244E-1,2.7275937E0,-1.8439214E-1,1.1946418E-1],"split_indices":[1,0,1,0,0],"split_type":[0,0,0,0,0],"sum_hessian":[3.8E1,5E0,3.3E1,6E0,2.7E1],"tree_param":{"num_deleted":"0","num_feature":"2","num_nodes":"5","size_leaf_vector":"1"}},{"base_weights":[-3.0720025E-1,3.0325472E-1,-7.0137024E-1,2.2750993E-1,-1.3344896E-2,-7.220362E-1,-1.4676781E-2],"categories":[],"categories_nodes":[],"categories_segments":[],"categories_sizes":[],"default_left":[0,0,0,0,0,0,0],"id":35,"left_children":[1,3,5,-1,-1,-1,-1],"loss_changes":[9.596992E0,1.4490327E0,1.7540623E1,0E0,0E0,0E0,0E0],"parents":[2147483647,0,0,1,1,2,2],"right_children":[2,4,6,-1,-1,-1,-1],"split_conditions":[3.733499E0,1.9833014E0,3.15265E0,2.2750993E-1,-1.3344896E-2,-7.220362E-1,-1.4676781E-2],"split_indices":[1,1,0,0,0,0,0],"split_type":[0,0,0,0,0,0,0],"sum_hessian":[3.8E1,1.5E1,2.3E1,8E0,7E0,8E0,1.5E1],"tree_param":{"num_deleted":"0","num_feature":"2","num_nodes":"7","size_leaf_vector":"1"}},{"base_weights":[-7.117979E-2,-2.5367504E-2,-3.0276278E-2,-3.126701E-2,1.4355338E-2],"categories":[],"categories_nodes":[],"categories_segments":[],"categories_sizes":[],"default_left":[0,0,0,0,0],"id":36,"left_children":[1,3,-1,-1,-1],"loss_changes":[6.1394423E-3,1.897685E-2,0E0,0E0,0E0],"parents":[2147483647,0,0,1,1],"right_children":[2,4,-1,-1,-1],"split_conditions":[5.7852167E-1,2.4941075E-1,-3.0276278E-2,-3.126701E-2,1.4355338E-2],"split_indices":[1,1,0,0,0],"split_type":[0,0,0,0,0],"sum_hessian":[3.8E1,4E0,3.4E1,2E0,2E0],"tree_param":{"num_deleted":"0","num_feature":"2","num_nodes":"5","size_leaf_vector":"1"}},{"base_weights":[-4.637513E-2,3.7647326E-2,-6.927277E-2,-1.55916335E-2,2.0839205E-2,3.8929542E-3,-3.00228E-2],"categories":[],"categories_nodes":[],"categories_segments":[],"categories_sizes":[],"default_left":[0,0,0,0,0,0,0],"id":37,"left_children":[1,3,5,-1,-1,-1,-1],"loss_changes":[7.764067E-2,1.1996471E-2,1.4896989E-2,0E0,0E0,0E0,0E0],"parents":[2147483647,0,0,1,1,2,2],"right_children":[2,4,6,-1,-1,-1,-1],"split_conditions":[1.9833014E0,3.0750948E-1,2.3886375E-1,-1.55916335E-2,2.0839205E-2,3.8929542E-3,-3.00228E-2],"split_indices":[1,0,0,0,0,0,0],"split_type":[0,0,0,0,0,0,0],"sum_hessian":[3.8E1,8E0,3E1,1E0,7E0,2E0,2.8E1],"tree_param":{"num_deleted":"0","num_feature":"2","num_nodes":"7","size_leaf_vector":"1"}},{"base_weights":[-3.254012E-2,4.5102634E-2,-6.871848E-2,-9.398461E-5,1.956014E-2,-1.32472515E-2,-3.3871505E-2],"categories":[],"categories_nodes":[],"categories_segments":[],"categories_sizes":[],"default_left":[0,0,0,0,0,0,0],"id":38,"left_children":[1,3,5,-1,-1,-1,-1],"loss_changes":[1.12649895E-1,2.2498202E-3,1.2536779E-2,0E0,0E0,0E0,0E0],"parents":[2147483647,0,0,1,1,2,2],"right_children":[2,4,6,-1,-1,-1,-1],"split_conditions":[3.095817E0,2.282765E-1,4.2044344E0,-9.398461E-5,1.956014E-2,-1.32472515E-2,-3.3871505E-2],"split_indices":[1,1,1,0,0,0,0],"split_type":[0,0,0,0,0,0,0],"sum_hessian":[3.8E1,1.2E1,2.6E1,1E0,1.1E1,9E0,1.7E1],"tree_param":{"num_deleted":"0","num_feature":"2","num_nodes":"7","size_leaf_vector":"1"}},{"base_weights":[-6.649004E-2,-3.029696E-2,-8.145374E-2,-2.2370124E-3,-1.6262127E-2,-3.3130273E-2,-9.156677E-3],"categories":[],"categories_nodes":[],"categories_segments":[],"categories_sizes":[],"default_left":[0,0,0,0,0,0,0],"id":39,"left_children":[1,3,5,-1,-1,-1,-1],"loss_changes":[1.8653914E-2,3.099298E-3,2.732575E-4,0E0,0E0,0E0,0E0],"parents":[2147483647,0,0,1,1,2,2],"right_children":[2,4,6,-1,-1,-1,-1],"split_conditions":[3.095817E0,5.7852167E-1,7.107651E0,-2.2370124E-3,-1.6262127E-2,-3.3130273E-2,-9.156677E-3],"split_indices":[1,1,0,0,0,0,0],"split_type":[0,0,0,0,0,0,0],"sum_hessian":[3.8E1,1.2E1,2.6E1,4E0,8E0,2.5E1,1E0],"tree_param":{"num_deleted":"0","num_feature":"2","num_nodes":"7","size_leaf_vector":"1"}},{"base_weights":[-4.133115E-1,-1.0954655E0,1.2513357E-2,-5.576304E-1,-8.777178E-2,-3.5487252E-1,5.172831E-2],"categories":[],"categories_nodes":[],"categories_segments":[],"categories_sizes":[],"default_left":[0,0,0,0,0,0,0],"id":40,"left_children":[1,3,5,-1,-1,-1,-1],"loss_changes":[1.1342356E1,3.618002E0,2.742006E0,0E0,0E0,0E0,0E0],"parents":[2147483647,0,0,1,1,2,2],"right_children":[2,4,6,-1,-1,-1,-1],"split_conditions":[3.6981447E0,5.547069E0,2.3886375E-1,-5.576304E-1,-8.777178E-2,-3.5487252E-1,5.172831E-2],"split_indices":[1,0,0,0,0,0,0],"split_type":[0,0,0,0,0,0,0],"sum_hessian":[3.8E1,1.4E1,2.4E1,1E1,4E0,2E0,2.2E1],"tree_param":{"num_deleted":"0","num_feature":"2","num_nodes":"7","size_leaf_vector":"1"}},{"base_weights":[6.2149256E-1,6.8548834E-1,4.104672E-1,5.17788E-1,6.992278E-2],"categories":[],"categories_nodes":[],"categories_segments":[],"categories_sizes":[],"default_left":[0,0,0,0,0],"id":41,"left_children":[1,-1,3,-1,-1],"loss_changes":[8.285602E0,0E0,6.856744E0,0E0,0E0],"parents":[2147483647,0,0,2,2],"right_children":[2,-1,4,-1,-1],"split_conditions":[1.2220036E0,6.8548834E-1,1.9833014E0,5.17788E-1,6.992278E-2],"split_indices":[0,0,1,0,0],"split_type":[0,0,0,0,0],"sum_hessian":[3.8E1,5E0,3.3E1,6E0,2.7E1],"tree_param":{"num_deleted":"0","num_feature":"2","num_nodes":"5","size_leaf_vector":"1"}},{"base_weights":[1.7662758E-1,3.847746E-1,1.0818016E-1,-2.203228E-1,9.134384E-2],"categories":[],"categories_nodes":[],"categories_segments":[],"categories_sizes":[],"default_left":[0,0,0,0,0],"id":42,"left_children":[1,-1,3,-1,-1],"loss_changes":[1.9922796E0,0E0,3.0560608E0,0E0,0E0],"parents":[2147483647,0,0,2,2],"right_children":[2,-1,4,-1,-1],"split_conditions":[2.3886375E-1,3.847746E-1,1.8071067E0,-2.203228E-1,9.134384E-2],"split_indices":[0,0,0,0,0],"split_type":[0,0,0,0,0],"sum_hessian":[3.8E1,2E0,3.6E1,5E0,3.1E1],"tree_param":{"num_deleted":"0","num_feature":"2","num_nodes":"5","size_leaf_vector":"1"}},{"base_weights":[-1.977188E-1,5.523137E-1,-3.2036176E-1,-3.7866458E-1,2.3331251E-2],"categories":[],"categories_nodes":[],"categories_segments":[],"categories_sizes":[],"default_left":[0,0,0,0,0],"id":43,"left_children":[1,-1,3,-1,-1],"loss_changes":[7.9924498E0,0E0,8.83063E0,0E0,0E0],"parents":[2147483647,0,0,2,2],"right_children":[2,-1,4,-1,-1],"split_conditions":[2.3886375E-1,5.523137E-1,3.2232854E0,-3.7866458E-1,2.3331251E-2],"split_indices":[0,0,0,0,0],"split_type":[0,0,0,0,0],"sum_hessian":[3.8E1,2E0,3.6E1,1.3E1,2.3E1],"tree_param":{"num_deleted":"0","num_feature":"2","num_nodes":"5","size_leaf_vector":"1"}},{"base_weights":[-4.391782E-2,-2.6334135E-2,-5.0757453E-2,-1.686178E-2,-3.405432E-4,-7.349841E-3,-2.1045238E-2],"categories":[],"categories_nodes":[],"categories_segments":[],"categories_sizes":[],"default_left":[0,0,0,0,0,0,0],"id":44,"left_children":[1,3,5,-1,-1,-1,-1],"loss_changes":[3.3537224E-3,5.2050045E-3,6.557107E-4,0E0,0E0,0E0,0E0],"parents":[2147483647,0,0,1,1,2,2],"right_children":[2,4,6,-1,-1,-1,-1],"split_conditions":[3.095817E0,1.5323595E0,2.3886375E-1,-1.686178E-2,-3.405432E-4,-7.349841E-3,-2.1045238E-2],"split_indices":[1,1,0,0,0,0,0],"split_type":[0,0,0,0,0,0,0],"sum_hessian":[3.8E1,1.2E1,2.6E1,7E0,5E0,2E0,2.4E1],"tree_param":{"num_deleted":"0","num_feature":"2","num_nodes":"7","size_leaf_vector":"1"}},{"base_weights":[-2.8360523E-2,8.351074E-3,-5.4262117E-2,1.0326654E-2,-5.8099045E-3,1.9810796E-3,-2.287153E-2],"categories":[],"categories_nodes":[],"categories_segments":[],"categories_sizes":[],"default_left":[0,0,0,0,0,0,0],"id":45,"left_children":[1,3,5,-1,-1,-1,-1],"loss_changes":[3.753781E-2,7.1671484E-3,4.2555705E-3,0E0,0E0,0E0,0E0],"parents":[2147483647,0,0,1,1,2,2],"right_children":[2,4,6,-1,-1,-1,-1],"split_conditions":[3.7555442E0,3.9013348E0,2.3886375E-1,1.0326654E-2,-5.8099045E-3,1.9810796E-3,-2.287153E-2],"split_indices":[1,0,0,0,0,0,0],"split_type":[0,0,0,0,0,0,0],"sum_hessian":[3.8E1,1.6E1,2.2E1,9E0,7E0,1E0,2.1E1],"tree_param":{"num_deleted":"0","num_feature":"2","num_nodes":"7","size_leaf_vector":"1"}},{"base_weights":[-2.0233119E-2,3.2074124E-2,-4.1927896E-2,2.2127808E-3,1.6122742E-2,5.3987503E-3,-1.868418E-2],"categories":[],"categories_nodes":[],"categories_segments":[],"categories_sizes":[],"default_left":[0,0,0,0,0,0,0],"id":46,"left_children":[1,3,5,-1,-1,-1,-1],"loss_changes":[4.560177E-2,2.3991987E-3,8.052457E-3,0E0,0E0,0E0,0E0],"parents":[2147483647,0,0,1,1,2,2],"right_children":[2,4,6,-1,-1,-1,-1],"split_conditions":[2.7275937E0,4.596062E-1,2.3886375E-1,2.2127808E-3,1.6122742E-2,5.3987503E-3,-1.868418E-2],"split_indices":[1,1,0,0,0,0,0],"split_type":[0,0,0,0,0,0,0],"sum_hessian":[3.8E1,1.1E1,2.7E1,3E0,8E0,2E0,2.5E1],"tree_param":{"num_deleted":"0","num_feature":"2","num_nodes":"7","size_leaf_vector":"1"}},{"base_weights":[-4.1452643E-2,-1.9601187E-2,-5.043843E-2,-1.4160849E-3,-1.5099582E-2,-6.0493513E-3,-2.106348E-2],"categories":[],"categories_nodes":[],"categories_segments":[],"categories_sizes":[],"default_left":[0,0,0,0,0,0,0],"id":47,"left_children":[1,3,5,-1,-1,-1,-1],"loss_changes":[6.6690966E-3,3.655482E-3,1.3206601E-3,0E0,0E0,0E0,0E0],"parents":[2147483647,0,0,1,1,2,2],"right_children":[2,4,6,-1,-1,-1,-1],"split_conditions":[3.095817E0,3.9013348E0,2.3886375E-1,-1.4160849E-3,-1.5099582E-2,-6.0493513E-3,-2.106348E-2],"split_indices":[1,0,0,0,0,0,0],"split_type":[0,0,0,0,0,0,0],"sum_hessian":[3.8E1,1.2E1,2.6E1,7E0,5E0,2E0,2.4E1],"tree_param":{"num_deleted":"0","num_feature":"2","num_nodes":"7","size_leaf_vector":"1"}},{"base_weights":[-2.723086E-1,-8.160344E-1,-2.9557938E-2,-8.122196E-2,-4.8994762E-1,3.4333465E-1,-5.2348185E-2],"categories":[],"categories_nodes":[],"categories_segments":[],"categories_sizes":[],"default_left":[0,0,0,0,0,0,0],"id":48,"left_children":[1,3,5,-1,-1,-1,-1],"loss_changes":[5.1234818E0,2.7585716E0,2.6310668E0,0E0,0E0,0E0,0E0],"parents":[2147483647,0,0,1,1,2,2],"right_children":[2,4,6,-1,-1,-1,-1],"split_conditions":[2.7275937E0,9.1202664E-1,3.4339232E0,-8.122196E-2,-4.8994762E-1,3.4333465E-1,-5.2348185E-2],"split_indices":[1,1,1,0,0,0,0],"split_type":[0,0,0,0,0,0,0],"sum_hessian":[3.8E1,1.1E1,2.7E1,5E0,6E0,2E0,2.5E1],"tree_param":{"num_deleted":"0","num_feature":"2","num_nodes":"7","size_leaf_vector":"1"}},{"base_weights":[4.0554172E-1,6.7836136E-1,1.2577345E-2,1.8742457E-1,5.359716E-1,3.97497E-1,-4.4341754E-2],"categories":[],"categories_nodes":[],"categories_segments":[],"categories_sizes":[],"default_left":[0,0,0,0,0,0,0],"id":49,"left_children":[1,3,5,-1,-1,-1,-1],"loss_changes":[4.172596E0,2.5644894E0,2.1689782E0,0E0,0E0,0E0,0E0],"parents":[2147483647,0,0,1,1,2,2],"right_children":[2,4,6,-1,-1,-1,-1],"split_conditions":[4.3980155E0,3.798999E0,2.3886375E-1,1.8742457E-1,5.359716E-1,3.97497E-1,-4.4341754E-2],"split_indices":[1,1,0,0,0,0,0],"split_type":[0,0,0,0,0,0,0],"sum_hessian":[3.8E1,2.2E1,1.6E1,1.8E1,4E0,1E0,1.5E1],"tree_param":{"num_deleted":"0","num_feature":"2","num_nodes":"7","size_leaf_vector":"1"}},{"base_weights":[1.1253538E-1,2.4846475E-1,1.9467898E-2,2.82168E-1,-1.8179394E-2],"categories":[],"categories_nodes":[],"categories_segments":[],"categories_sizes":[],"default_left":[0,0,0,0,0],"id":50,"left_children":[1,-1,3,-1,-1],"loss_changes":[1.8340346E0,0E0,1.5460644E0,0E0,0E0],"parents":[2147483647,0,0,2,2],"right_children":[2,-1,4,-1,-1],"split_conditions":[9.1202664E-1,2.4846475E-1,2.3886375E-1,2.82168E-1,-1.8179394E-2],"split_indices":[1,0,0,0,0],"split_type":[0,0,0,0,0],"sum_hessian":[3.8E1,5E0,3.3E1,2E0,3.1E1],"tree_param":{"num_deleted":"0","num_feature":"2","num_nodes":"5","size_leaf_vector":"1"}},{"base_weights":[-1.1358048E-1,8.262126E-1,-2.7608573E-1,1.2759466E-1,4.0003157E-1,-4.2925963E-1,4.175802E-3],"categories":[],"categories_nodes":[],"categories_segments":[],"categories_sizes":[],"default_left":[0,0,0,0,0,0,0],"id":51,"left_children":[1,3,5,-1,-1,-1,-1],"loss_changes":[6.1842365E0,2.1012497E-1,7.776081E0,0E0,0E0,0E0,0E0],"parents":[2147483647,0,0,1,1,2,2],"right_children":[2,4,6,-1,-1,-1,-1],"split_conditions":[1.2220036E0,1.2800276E0,3.0038962E0,1.2759466E-1,4.0003157E-1,-4.2925963E-1,4.175802E-3],"split_indices":[0,1,0,0,0,0,0],"split_type":[0,0,0,0,0,0,0],"sum_hessian":[3.8E1,5E0,3.3E1,2E0,3E0,8E0,2.5E1],"tree_param":{"num_deleted":"0","num_feature":"2","num_nodes":"7","size_leaf_vector":"1"}},{"base_weights":[-2.7519858E-2,-5.113417E-3,-2.9934498E-2,-1.8432666E-2,1.502372E-2,-1.2503425E-2,-2.156651E-3],"categories":[],"categories_nodes":[],"categories_segments":[],"categories_sizes":[],"default_left":[0,0,0,0,0,0,0],"id":52,"left_children":[1,3,5,-1,-1,-1,-1],"loss_changes":[1.9569676E-3,1.0471927E-2,9.6883625E-4,0E0,0E0,0E0,0E0],"parents":[2147483647,0,0,1,1,2,2],"right_children":[2,4,6,-1,-1,-1,-1],"split_conditions":[5.7852167E-1,2.4941075E-1,7.107651E0,-1.8432666E-2,1.502372E-2,-1.2503425E-2,-2.156651E-3],"split_indices":[1,1,0,0,0,0,0],"split_type":[0,0,0,0,0,0,0],"sum_hessian":[3.8E1,4E0,3.4E1,2E0,2E0,3.2E1,2E0],"tree_param":{"num_deleted":"0","num_feature":"2","num_nodes":"7","size_leaf_vector":"1"}},{"base_weights":[-1.7436152E-2,1.5384111E-2,-2.4923181E-2,-4.052327E-3,-1.4738684E-2],"categories":[],"categories_nodes":[],"categories_segments":[],"categories_sizes":[],"default_left":[0,0,0,0,0],"id":53,"left_children":[1,-1,3,-1,-1],"loss_changes":[1.7279983E-2,0E0,5.7999156E-3,0E0,0E0],"parents":[2147483647,0,0,2,2],"right_children":[2,-1,4,-1,-1],"split_conditions":[5.7852167E-1,1.5384111E-2,3.9013348E0,-4.052327E-3,-1.4738684E-2],"split_indices":[1,0,0,0,0],"split_type":[0,0,0,0,0],"sum_hessian":[3.8E1,4E0,3.4E1,1.6E1,1.8E1],"tree_param":{"num_deleted":"0","num_feature":"2","num_nodes":"5","size_leaf_vector":"1"}},{"base_weights":[-1.2010384E-2,8.474954E-3,-3.638078E-2,7.1863458E-3,-5.7717045E-3,1.1165655E-2,-1.6721936E-2],"categories":[],"categories_nodes":[],"categories_segments":[],"categories_sizes":[],"default_left":[0,0,0,0,0,0,0],"id":54,"left_children":[1,3,5,-1,-1,-1,-1],"loss_changes":[1.977852E-2,5.041634E-3,7.4442606E-3,0E0,0E0,0E0,0E0],"parents":[2147483647,0,0,1,1,2,2],"right_children":[2,4,6,-1,-1,-1,-1],"split_conditions":[4.2044344E0,5.547069E0,2.3886375E-1,7.1863458E-3,-5.7717045E-3,1.1165655E-2,-1.6721936E-2],"split_indices":[1,0,0,0,0,0,0],"split_type":[0,0,0,0,0,0,0],"sum_hessian":[3.8E1,2.1E1,1.7E1,1.5E1,6E0,1E0,1.6E1],"tree_param":{"num_deleted":"0","num_feature":"2","num_nodes":"7","size_leaf_vector":"1"}},{"base_weights":[-2.5990264E-2,5.540055E-3,-2.9752016E-2,-8.524963E-3,1.2218333E-2,-2.2089422E-2,-1.0255329E-2],"categories":[],"categories_nodes":[],"categories_segments":[],"categories_sizes":[],"default_left":[0,0,0,0,0,0,0],"id":55,"left_children":[1,3,5,-1,-1,-1,-1],"loss_changes":[4.790589E-3,4.0083383E-3,2.251532E-3,0E0,0E0,0E0,0E0],"parents":[2147483647,0,0,1,1,2,2],"right_children":[2,4,6,-1,-1,-1,-1],"split_conditions":[5.7852167E-1,2.4941075E-1,1.5323595E0,-8.524963E-3,1.2218333E-2,-2.2089422E-2,-1.0255329E-2],"split_indices":[1,1,1,0,0,0,0],"split_type":[0,0,0,0,0,0,0],"sum_hessian":[3.8E1,4E0,3.4E1,2E0,2E0,3E0,3.1E1],"tree_param":{"num_deleted":"0","num_feature":"2","num_nodes":"7","size_leaf_vector":"1"}},{"base_weights":[-1.7056936E-1,-9.2309564E-1,-3.2753862E-2,1.4057569E-1,-4.9931622E-1,-1.03964865E-1,2.5084823E-1],"categories":[],"categories_nodes":[],"categories_segments":[],"categories_sizes":[],"default_left":[0,0,0,0,0,0,0],"id":56,"left_children":[1,3,5,-1,-1,-1,-1],"loss_changes":[4.014447E0,2.9255314E0,5.259459E0,0E0,0E0,0E0,0E0],"parents":[2147483647,0,0,1,1,2,2],"right_children":[2,4,6,-1,-1,-1,-1],"split_conditions":[1.2220036E0,9.1202664E-1,5.8828917E0,1.4057569E-1,-4.9931622E-1,-1.03964865E-1,2.5084823E-1],"split_indices":[0,1,1,0,0,0,0],"split_type":[0,0,0,0,0,0,0],"sum_hessian":[3.8E1,5E0,3.3E1,1E0,4E0,2.5E1,8E0],"tree_param":{"num_deleted":"0","num_feature":"2","num_nodes":"7","size_leaf_vector":"1"}},{"base_weights":[2.709289E-1,9.512811E-1,1.4289825E-1,1.1070404E-1,4.123333E-1,-8.02049E-2,1.5732448E-1],"categories":[],"categories_nodes":[],"categories_segments":[],"categories_sizes":[],"default_left":[0,0,0,0,0,0,0],"id":57,"left_children":[1,3,5,-1,-1,-1,-1],"loss_changes":[3.2611942E0,3.6664963E-2,3.002674E0,0E0,0E0,0E0,0E0],"parents":[2147483647,0,0,1,1,2,2],"right_children":[2,4,6,-1,-1,-1,-1],"split_conditions":[1.2220036E0,9.1202664E-1,4.2548957E0,1.1070404E-1,4.123333E-1,-8.02049E-2,1.5732448E-1],"split_indices":[0,1,0,0,0,0,0],"split_type":[0,0,0,0,0,0,0],"sum_hessian":[3.8E1,5E0,3.3E1,1E0,4E0,1.4E1,1.9E1],"tree_param":{"num_deleted":"0","num_feature":"2","num_nodes":"7","size_leaf_vector":"1"}},{"base_weights":[8.066106E-2,-2.2997234E-2,3.8356984E-1,6.785651E-2,-1.304367E-1,-2.3619743E-2,2.7539635E-1],"categories":[],"categories_nodes":[],"categories_segments":[],"categories_sizes":[],"default_left":[0,0,0,0,0,0,0],"id":58,"left_children":[1,3,5,-1,-1,-1,-1],"loss_changes":[1.2333823E0,1.8069488E0,1.390294E0,0E0,0E0,0E0,0E0],"parents":[2147483647,0,0,1,1,2,2],"right_children":[2,4,6,-1,-1,-1,-1],"split_conditions":[6.0677824E0,4.854014E0,3.798999E0,6.785651E-2,-1.304367E-1,-2.3619743E-2,2.7539635E-1],"split_indices":[0,1,1,0,0,0,0],"split_type":[0,0,0,0,0,0,0],"sum_hessian":[3.8E1,2.9E1,9E0,1.8E1,1.1E1,4E0,5E0],"tree_param":{"num_deleted":"0","num_feature":"2","num_nodes":"7","size_leaf_vector":"1"}},{"base_weights":[-6.5519035E-2,2.3077826E-1,-2.4992754E-1,-6.861141E-1,-1.2665895E-2],"categories":[],"categories_nodes":[],"categories_segments":[],"categories_sizes":[],"default_left":[0,0,0,0,0],"id":59,"left_children":[1,-1,3,-1,-1],"loss_changes":[4.7647567E0,0E0,9.860511E0,0E0,0E0],"parents":[2147483647,0,0,2,2],"right_children":[2,-1,4,-1,-1],"split_conditions":[2.2907903E0,2.3077826E-1,2.6443474E0,-6.861141E-1,-1.2665895E-2],"split_indices":[0,0,0,0,0],"split_type":[0,0,0,0,0],"sum_hessian":[3.8E1,8E0,3E1,3E0,2.7E1],"tree_param":{"num_deleted":"0","num_feature":"2","num_nodes":"5","size_leaf_vector":"1"}},{"base_weights":[-1.697522E-2,-1.9818787E-2,-6.7469953E-3,-1.2361444E-2,-6.5462715E-3,6.130329E-3,-7.3584714E-3],"categories":[],"categories_nodes":[],"categories_segments":[],"categories_sizes":[],"default_left":[0,0,0,0,0,0,0],"id":60,"left_children":[1,3,5,-1,-1,-1,-1],"loss_changes":[1.0005832E-3,6.4255483E-4,2.8532394E-3,0E0,0E0,0E0,0E0],"parents":[2147483647,0,0,1,1,2,2],"right_children":[2,4,6,-1,-1,-1,-1],"split_conditions":[6.0677824E0,1.5323595E0,6.5225515E0,-1.2361444E-2,-6.5462715E-3,6.130329E-3,-7.3584714E-3],"split_indices":[0,1,0,0,0,0,0],"split_type":[0,0,0,0,0,0,0],"sum_hessian":[3.8E1,2.9E1,9E0,5E0,2.4E1,3E0,6E0],"tree_param":{"num_deleted":"0","num_feature":"2","num_nodes":"7","size_leaf_vector":"1"}},{"base_weights":[-1.0549051E-2,1.54980635E-2,-2.006523E-2,-9.906739E-4,1.9029219E-2,-8.746519E-3,6.0729175E-3],"categories":[],"categories_nodes":[],"categories_segments":[],"categories_sizes":[],"default_left":[0,0,0,0,0,0,0],"id":61,"left_children":[1,3,5,-1,-1,-1,-1],"loss_changes":[9.977864E-3,6.4597605E-3,2.1729888E-3,0E0,0E0,0E0,0E0],"parents":[2147483647,0,0,1,1,2,2],"right_children":[2,4,6,-1,-1,-1,-1],"split_conditions":[2.6465857E0,1.5323595E0,7.107651E0,-9.906739E-4,1.9029219E-2,-8.746519E-3,6.0729175E-3],"split_indices":[1,1,0,0,0,0,0],"split_type":[0,0,0,0,0,0,0],"sum_hessian":[3.8E1,1E1,2.8E1,7E0,3E0,2.7E1,1E0],"tree_param":{"num_deleted":"0","num_feature":"2","num_nodes":"7","size_leaf_vector":"1"}},{"base_weights":[-7.3124296E-3,1.9989567E-2,-1.7416207E-2,6.888509E-4,1.0649837E-2,-2.2429343E-2,-4.3196394E-3],"categories":[],"categories_nodes":[],"categories_segments":[],"categories_sizes":[],"default_left":[0,0,0,0,0,0,0],"id":62,"left_children":[1,3,5,-1,-1,-1,-1],"loss_changes":[1.110642E-2,1.2874026E-3,6.8126163E-3,0E0,0E0,0E0,0E0],"parents":[2147483647,0,0,1,1,2,2],"right_children":[2,4,6,-1,-1,-1,-1],"split_conditions":[2.6465857E0,4.596062E-1,3.4339232E0,6.888509E-4,1.0649837E-2,-2.2429343E-2,-4.3196394E-3],"split_indices":[1,1,1,0,0,0,0],"split_type":[0,0,0,0,0,0,0],"sum_hessian":[3.8E1,1E1,2.8E1,3E0,7E0,3E0,2.5E1],"tree_param":{"num_deleted":"0","num_feature":"2","num_nodes":"7","size_leaf_vector":"1"}},{"base_weights":[-1.6328815E-2,3.8771231E-3,-1.941431E-2,-6.2516415E-3,7.0150048E-3,-2.101003E-2,-6.2813917E-3],"categories":[],"categories_nodes":[],"categories_segments":[],"categories_sizes":[],"default_left":[0,0,0,0,0,0,0],"id":63,"left_children":[1,3,5,-1,-1,-1,-1],"loss_changes":[2.5067385E-3,1.8728713E-3,3.3527017E-3,0E0,0E0,0E0,0E0],"parents":[2147483647,0,0,1,1,2,2],"right_children":[2,4,6,-1,-1,-1,-1],"split_conditions":[9.1202664E-1,2.4941075E-1,1.5323595E0,-6.2516415E-3,7.0150048E-3,-2.101003E-2,-6.2813917E-3],"split_indices":[1,1,1,0,0,0,0],"split_type":[0,0,0,0,0,0,0],"sum_hessian":[3.8E1,5E0,3.3E1,2E0,3E0,2E0,3.1E1],"tree_param":{"num_deleted":"0","num_feature":"2","num_nodes":"7","size_leaf_vector":"1"}},{"base_weights":[-1.07773885E-1,-3.8609657E-1,6.353068E-2,-7.601639E-2,-6.2617505E-1,3.3670145E-1,-4.9914304E-2],"categories":[],"categories_nodes":[],"categories_segments":[],"categories_sizes":[],"default_left":[0,0,0,0,0,0,0],"id":64,"left_children":[1,3,5,-1,-1,-1,-1],"loss_changes":[1.8839688E0,3.1707492E0,3.768843E0,0E0,0E0,0E0,0E0],"parents":[2147483647,0,0,1,1,2,2],"right_children":[2,4,6,-1,-1,-1,-1],"split_conditions":[3.6981447E0,3.4339232E0,3.798999E0,-7.601639E-2,-6.2617505E-1,3.3670145E-1,-4.9914304E-2],"split_indices":[1,1,1,0,0,0,0],"split_type":[0,0,0,0,0,0,0],"sum_hessian":[3.8E1,1.4E1,2.4E1,1.3E1,1E0,4E0,2E1],"tree_param":{"num_deleted":"0","num_feature":"2","num_nodes":"7","size_leaf_vector":"1"}},{"base_weights":[1.7794594E-1,5.6642085E-1,5.101472E-3,2.5660527E-1,1.0234318E-1,-1.8153146E-1,7.1875624E-2],"categories":[],"categories_nodes":[],"categories_segments":[],"categories_sizes":[],"default_left":[0,0,0,0,0,0,0],"id":65,"left_children":[1,3,5,-1,-1,-1,-1],"loss_changes":[2.6157942E0,1.1571455E-1,2.325006E0,0E0,0E0,0E0,0E0],"parents":[2147483647,0,0,1,1,2,2],"right_children":[2,4,6,-1,-1,-1,-1],"split_conditions":[2.7275937E0,4.848809E0,3.798999E0,2.5660527E-1,1.0234318E-1,-1.8153146E-1,7.1875624E-2],"split_indices":[1,0,1,0,0,0,0],"split_type":[0,0,0,0,0,0,0],"sum_hessian":[3.8E1,1.1E1,2.7E1,8E0,3E0,7E0,2E1],"tree_param":{"num_deleted":"0","num_feature":"2","num_nodes":"7","size_leaf_vector":"1"}},{"base_weights":[5.3247802E-2,1.5522113E-1,-7.401547E-3,-9.3475E-2,5.752328E-2],"categories":[],"categories_nodes":[],"categories_segments":[],"categories_sizes":[],"default_left":[0,0,0,0,0],"id":66,"left_children":[1,-1,3,-1,-1],"loss_changes":[7.9479474E-1,0E0,1.1969719E0,0E0,0E0],"parents":[2147483647,0,0,2,2],"right_children":[2,-1,4,-1,-1],"split_conditions":[9.1202664E-1,1.5522113E-1,3.798999E0,-9.3475E-2,5.752328E-2],"split_indices":[1,0,1,0,0],"split_type":[0,0,0,0,0],"sum_hessian":[3.8E1,5E0,3.3E1,1.3E1,2E1],"tree_param":{"num_deleted":"0","num_feature":"2","num_nodes":"5","size_leaf_vector":"1"}},{"base_weights":[-5.1311392E-2,2.3369472E-1,-1.619578E-1,-1.9739254E-1,7.9437636E-2],"categories":[],"categories_nodes":[],"categories_segments":[],"categories_sizes":[],"default_left":[0,0,0,0,0],"id":67,"left_children":[1,-1,3,-1,-1],"loss_changes":[2.8371456E0,0E0,4.162071E0,0E0,0E0],"parents":[2147483647,0,0,2,2],"right_children":[2,-1,4,-1,-1],"split_conditions":[9.1202664E-1,2.3369472E-1,4.3980155E0,-1.9739254E-1,7.9437636E-2],"split_indices":[1,0,1,0,0],"split_type":[0,0,0,0,0],"sum_hessian":[3.8E1,5E0,3.3E1,1.7E1,1.6E1],"tree_param":{"num_deleted":"0","num_feature":"2","num_nodes":"5","size_leaf_vector":"1"}},{"base_weights":[-1.0701437E-2,-2.1346926E-3,-1.5413425E-2,-1.4706838E-2,1.1861086E-3,-7.529825E-3,-1.5810818E-3],"categories":[],"categories_nodes":[],"categories_segments":[],"categories_sizes":[],"default_left":[0,0,0,0,0,0,0],"id":68,"left_children":[1,3,5,-1,-1,-1,-1],"loss_changes":[1.5413864E-3,2.7583844E-3,9.029452E-4,0E0,0E0,0E0,0E0],"parents":[2147483647,0,0,1,1,2,2],"right_children":[2,4,6,-1,-1,-1,-1],"split_conditions":[3.6981447E0,3.0750948E-1,6.4155374E0,-1.4706838E-2,1.1861086E-3,-7.529825E-3,-1.5810818E-3],"split_indices":[1,0,1,0,0,0,0],"split_type":[0,0,0,0,0,0,0],"sum_hessian":[3.8E1,1.4E1,2.4E1,1E0,1.3E1,1.8E1,6E0],"tree_param":{"num_deleted":"0","num_feature":"2","num_nodes":"7","size_leaf_vector":"1"}},{"base_weights":[-5.935455E-3,2.694552E-2,-1.0463153E-2,1.2259758E-2,2.4260045E-3,-1.4760626E-2,-2.7325512E-3],"categories":[],"categories_nodes":[],"categories_segments":[],"categories_sizes":[],"default_left":[0,0,0,0,0,0,0],"id":69,"left_children":[1,3,5,-1,-1,-1,-1],"loss_changes":[6.0880645E-3,2.0080479E-4,3.108554E-3,0E0,0E0,0E0,0E0],"parents":[2147483647,0,0,1,1,2,2],"right_children":[2,4,6,-1,-1,-1,-1],"split_conditions":[5.7852167E-1,4.596062E-1,1.5323595E0,1.2259758E-2,2.4260045E-3,-1.4760626E-2,-2.7325512E-3],"split_indices":[1,1,1,0,0,0,0],"split_type":[0,0,0,0,0,0,0],"sum_hessian":[3.8E1,4E0,3.4E1,3E0,1E0,3E0,3.1E1],"tree_param":{"num_deleted":"0","num_feature":"2","num_nodes":"7","size_leaf_vector":"1"}},{"base_weights":[-4.782597E-3,1.34778E-2,-1.3397506E-2,2.766329E-3,1.0605318E-2,-3.7789427E-2,-2.6582393E-3],"categories":[],"categories_nodes":[],"categories_segments":[],"categories_sizes":[],"default_left":[0,0,0,0,0,0,0],"id":70,"left_children":[1,3,5,-1,-1,-1,-1],"loss_changes":[6.315724E-3,9.286406E-4,1.4152456E-2,0E0,0E0,0E0,0E0],"parents":[2147483647,0,0,1,1,2,2],"right_children":[2,4,6,-1,-1,-1,-1],"split_conditions":[3.095817E0,4.848809E0,3.4339232E0,2.766329E-3,1.0605318E-2,-3.7789427E-2,-2.6582393E-3],"split_indices":[1,0,1,0,0,0,0],"split_type":[0,0,0,0,0,0,0],"sum_hessian":[3.8E1,1.2E1,2.6E1,9E0,3E0,1E0,2.5E1],"tree_param":{"num_deleted":"0","num_feature":"2","num_nodes":"7","size_leaf_vector":"1"}},{"base_weights":[-1.0477494E-2,1.2965724E-3,-1.5149326E-2,-5.041705E-3,9.311438E-3,-7.428021E-3,-1.7105028E-3],"categories":[],"categories_nodes":[],"categories_segments":[],"categories_sizes":[],"default_left":[0,0,0,0,0,0,0],"id":71,"left_children":[1,3,5,-1,-1,-1,-1],"loss_changes":[2.1648947E-3,3.960231E-3,9.6201524E-4,0E0,0E0,0E0,0E0],"parents":[2147483647,0,0,1,1,2,2],"right_children":[2,4,6,-1,-1,-1,-1],"split_conditions":[2.7275937E0,1.5323595E0,5.914202E0,-5.041705E-3,9.311438E-3,-7.428021E-3,-1.7105028E-3],"split_indices":[1,1,0,0,0,0,0],"split_type":[0,0,0,0,0,0,0],"sum_hessian":[3.8E1,1.1E1,2.7E1,7E0,4E0,2E1,7E0],"tree_param":{"num_deleted":"0","num_feature":"2","num_nodes":"7","size_leaf_vector":"1"}},{"base_weights":[-7.531571E-2,-6.2343717E-1,2.3626775E-2,1.276638E-1,-3.5031536E-1,-5.6657072E-2,1.7377508E-1],"categories":[],"categories_nodes":[],"categories_segments":[],"categories_sizes":[],"default_left":[0,0,0,0,0,0,0],"id":72,"left_children":[1,3,5,-1,-1,-1,-1],"loss_changes":[2.1297972E0,1.7067087E0,2.3699477E0,0E0,0E0,0E0,0E0],"parents":[2147483647,0,0,1,1,2,2],"right_children":[2,4,6,-1,-1,-1,-1],"split_conditions":[1.2220036E0,9.1202664E-1,5.5364437E0,1.276638E-1,-3.5031536E-1,-5.6657072E-2,1.7377508E-1],"split_indices":[0,1,1,0,0,0,0],"split_type":[0,0,0,0,0,0,0],"sum_hessian":[3.8E1,5E0,3.3E1,1E0,4E0,2.4E1,9E0],"tree_param":{"num_deleted":"0","num_feature":"2","num_nodes":"7","size_leaf_vector":"1"}},{"base_weights":[1.13159716E-1,5.479148E-1,3.3109996E-2,3.7242126E-2,2.4810226E-1,1.7885813E-1,-2.8632535E-2],"categories":[],"categories_nodes":[],"categories_segments":[],"categories_sizes":[],"default_left":[0,0,0,0,0,0,0],"id":73,"left_children":[1,3,5,-1,-1,-1,-1],"loss_changes":[1.3391376E0,1.3965881E-1,1.5057682E0,0E0,0E0,0E0,0E0],"parents":[2147483647,0,0,1,1,2,2],"right_children":[2,4,6,-1,-1,-1,-1],"split_conditions":[1.2220036E0,9.1202664E-1,1.9833014E0,3.7242126E-2,2.4810226E-1,1.7885813E-1,-2.8632535E-2],"split_indices":[0,1,1,0,0,0,0],"split_type":[0,0,0,0,0,0,0],"sum_hessian":[3.8E1,5E0,3.3E1,1E0,4E0,6E0,2.7E1],"tree_param":{"num_deleted":"0","num_feature":"2","num_nodes":"7","size_leaf_vector":"1"}},{"base_weights":[3.5006884E-2,1.7948745E-1,-1.435253E-1,-1.0615553E-2,4.452963E-1,-1.0660318E-1,2.2408961E-1],"categories":[],"categories_nodes":[],"categories_segments":[],"categories_sizes":[],"default_left":[0,0,0,0,0,0,0],"id":74,"left_children":[1,3,5,-1,-1,-1,-1],"loss_changes":[1.0317439E0,4.2618546E0,1.7071855E0,0E0,0E0,0E0,0E0],"parents":[2147483647,0,0,1,1,2,2],"right_children":[2,4,6,-1,-1,-1,-1],"split_conditions":[4.2044344E0,3.798999E0,6.557988E0,-1.0615553E-2,4.452963E-1,-1.0660318E-1,2.2408961E-1],"split_indices":[1,1,0,0,0,0,0],"split_type":[0,0,0,0,0,0,0],"sum_hessian":[3.8E1,2.1E1,1.7E1,1.8E1,3E0,1.5E1,2E0],"tree_param":{"num_deleted":"0","num_feature":"2","num_nodes":"7","size_leaf_vector":"1"}},{"base_weights":[-2.781921E-2,2.6264608E-1,-2.2030361E-1,1.5917695E-1,-4.583768E-2,-3.6961913E-1,4.9531676E-2],"categories":[],"categories_nodes":[],"categories_segments":[],"categories_sizes":[],"default_left":[0,0,0,0,0,0,0],"id":75,"left_children":[1,3,5,-1,-1,-1,-1],"loss_changes":[2.2383533E0,8.622292E-1,5.926779E0,0E0,0E0,0E0,0E0],"parents":[2147483647,0,0,1,1,2,2],"right_children":[2,4,6,-1,-1,-1,-1],"split_conditions":[3.733499E0,5.547069E0,4.3980155E0,1.5917695E-1,-4.583768E-2,-3.6961913E-1,4.9531676E-2],"split_indices":[1,0,1,0,0,0,0],"split_type":[0,0,0,0,0,0,0],"sum_hessian":[3.8E1,1.5E1,2.3E1,1.1E1,4E0,7E0,1.6E1],"tree_param":{"num_deleted":"0","num_feature":"2","num_nodes":"7","size_leaf_vector":"1"}},{"base_weights":[-7.0011583E-3,-1.1204259E-2,-5.1084654E-3,1.1531917E-2,-3.1486012E-3],"categories":[],"categories_nodes":[],"categories_segments":[],"categories_sizes":[],"default_left":[0,0,0,0,0],"id":76,"left_children":[1,-1,3,-1,-1],"loss_changes":[1.4077242E-3,0E0,3.696523E-3,0E0,0E0],"parents":[2147483647,0,0,2,2],"right_children":[2,-1,4,-1,-1],"split_conditions":[2.4941075E-1,-1.1204259E-2,5.7852167E-1,1.1531917E-2,-3.1486012E-3],"split_indices":[1,0,1,0,0],"split_type":[0,0,0,0,0],"sum_hessian":[3.8E1,2E0,3.6E1,2E0,3.4E1],"tree_param":{"num_deleted":"0","num_feature":"2","num_nodes":"5","size_leaf_vector":"1"}},{"base_weights":[-3.6332633E-3,1.6838888E-2,-9.459589E-3,-3.9010943E-4,3.1870436E-2,5.355509E-3,-4.598808E-3],"categories":[],"categories_nodes":[],"categories_segments":[],"categories_sizes":[],"default_left":[0,0,0,0,0,0,0],"id":77,"left_children":[1,3,5,-1,-1,-1,-1],"loss_changes":[4.8111086E-3,1.0152235E-2,1.5970415E-3,0E0,0E0,0E0,0E0],"parents":[2147483647,0,0,1,1,2,2],"right_children":[2,4,6,-1,-1,-1,-1],"split_conditions":[1.9833014E0,1.5323595E0,2.3886375E-1,-3.9010943E-4,3.1870436E-2,5.355509E-3,-4.598808E-3],"split_indices":[1,1,0,0,0,0,0],"split_type":[0,0,0,0,0,0,0],"sum_hessian":[3.8E1,8E0,3E1,7E0,1E0,2E0,2.8E1],"tree_param":{"num_deleted":"0","num_feature":"2","num_nodes":"7","size_leaf_vector":"1"}},{"base_weights":[-3.5638155E-3,-1.2421619E-2,1.1436778E-2,5.4155192E-3,-7.8354655E-3,2.95901E-2,-1.5499716E-3],"categories":[],"categories_nodes":[],"categories_segments":[],"categories_sizes":[],"default_left":[0,0,0,0,0,0,0],"id":78,"left_children":[1,3,5,-1,-1,-1,-1],"loss_changes":[5.3240834E-3,4.9166935E-3,1.4650211E-2,0E0,0E0,0E0,0E0],"parents":[2147483647,0,0,1,1,2,2],"right_children":[2,4,6,-1,-1,-1,-1],"split_conditions":[4.880914E0,1.2220036E0,5.547069E0,5.4155192E-3,-7.8354655E-3,2.95901E-2,-1.5499716E-3],"split_indices":[0,0,0,0,0,0,0],"split_type":[0,0,0,0,0,0,0],"sum_hessian":[3.8E1,2.4E1,1.4E1,5E0,1.9E1,2E0,1.2E1],"tree_param":{"num_deleted":"0","num_feature":"2","num_nodes":"7","size_leaf_vector":"1"}},{"base_weights":[-6.411335E-3,5.8892868E-3,-9.775666E-3,-3.2771036E-3,2.3709131E-2,1.9544165E-3,-4.382121E-3],"categories":[],"categories_nodes":[],"categories_segments":[],"categories_sizes":[],"default_left":[0,0,0,0,0,0,0],"id":79,"left_children":[1,3,5,-1,-1,-1,-1],"loss_changes":[1.6715227E-3,7.251353E-3,5.896881E-4,0E0,0E0,0E0,0E0],"parents":[2147483647,0,0,1,1,2,2],"right_children":[2,4,6,-1,-1,-1,-1],"split_conditions":[1.9833014E0,1.5323595E0,2.3886375E-1,-3.2771036E-3,2.3709131E-2,1.9544165E-3,-4.382121E-3],"split_indices":[1,1,0,0,0,0,0],"split_type":[0,0,0,0,0,0,0],"sum_hessian":[3.8E1,8E0,3E1,7E0,1E0,2E0,2.8E1],"tree_param":{"num_deleted":"0","num_feature":"2","num_nodes":"7","size_leaf_vector":"1"}},{"base_weights":[-4.7895472E-2,-8.948076E-2,3.0646905E-1,-7.045705E-2,1.2778829E-1],"categories":[],"categories_nodes":[],"categories_segments":[],"categories_sizes":[],"default_left":[0,0,0,0,0],"id":80,"left_children":[1,3,-1,-1,-1],"loss_changes":[1.3888346E0,1.4030114E0,0E0,0E0,0E0],"parents":[2147483647,0,0,1,1],"right_children":[2,4,-1,-1,-1],"split_conditions":[6.8753114E0,6.5225515E0,3.0646905E-1,-7.045705E-2,1.2778829E-1],"split_indices":[1,0,0,0,0],"split_type":[0,0,0,0,0],"sum_hessian":[3.8E1,3.7E1,1E0,3.1E1,6E0],"tree_param":{"num_deleted":"0","num_feature":"2","num_nodes":"5","size_leaf_vector":"1"}},{"base_weights":[7.906441E-2,1.7669138E-1,-1.297812E-1,1.3742355E-1,-5.6535687E-2,-1.17258444E-1,2.0499353E-1],"categories":[],"categories_nodes":[],"categories_segments":[],"categories_sizes":[],"default_left":[0,0,0,0,0,0,0],"id":81,"left_children":[1,3,5,-1,-1,-1,-1],"loss_changes":[8.181009E-1,1.4814203E0,1.514239E0,0E0,0E0,0E0,0E0],"parents":[2147483647,0,0,1,1,2,2],"right_children":[2,4,6,-1,-1,-1,-1],"split_conditions":[5.424653E0,5.547069E0,6.0677824E0,1.3742355E-1,-5.6535687E-2,-1.17258444E-1,2.0499353E-1],"split_indices":[1,0,0,0,0,0,0],"split_type":[0,0,0,0,0,0,0],"sum_hessian":[3.8E1,2.6E1,1.2E1,1.7E1,9E0,1E1,2E0],"tree_param":{"num_deleted":"0","num_feature":"2","num_nodes":"7","size_leaf_vector":"1"}},{"base_weights":[3.5162244E-2,2.3568992E-1,-1.0712079E-2,-1.4399575E-1,2.2044865E-2],"categories":[],"categories_nodes":[],"categories_segments":[],"categories_sizes":[],"default_left":[0,0,0,0,0],"id":82,"left_children":[1,-1,3,-1,-1],"loss_changes":[9.9758446E-1,0E0,8.705035E-1,0E0,0E0],"parents":[2147483647,0,0,2,2],"right_children":[2,-1,4,-1,-1],"split_conditions":[2.3886375E-1,2.3568992E-1,1.8071067E0,-1.4399575E-1,2.2044865E-2],"split_indices":[0,0,0,0,0],"split_type":[0,0,0,0,0],"sum_hessian":[3.8E1,2E0,3.6E1,5E0,3.1E1],"tree_param":{"num_deleted":"0","num_feature":"2","num_nodes":"5","size_leaf_vector":"1"}},{"base_weights":[-2.199273E-2,-1.624408E-1,3.502788E-1,9.9202E-2,-1.4381666E-1,1.6987579E-1,4.114914E-3],"categories":[],"categories_nodes":[],"categories_segments":[],"categories_sizes":[],"default_left":[0,0,0,0,0,0,0],"id":83,"left_children":[1,3,5,-1,-1,-1,-1],"loss_changes":[2.0960076E0,2.4352455E0,2.7391994E-1,0E0,0E0,0E0,0E0],"parents":[2147483647,0,0,1,1,2,2],"right_children":[2,4,6,-1,-1,-1,-1],"split_conditions":[5.914202E0,2.3809597E0,7.107651E0,9.9202E-2,-1.4381666E-1,1.6987579E-1,4.114914E-3],"split_indices":[0,0,0,0,0,0,0],"split_type":[0,0,0,0,0,0,0],"sum_hessian":[3.8E1,2.8E1,1E1,9E0,1.9E1,8E0,2E0],"tree_param":{"num_deleted":"0","num_feature":"2","num_nodes":"7","size_leaf_vector":"1"}},{"base_weights":[-4.2730244E-3,-8.216453E-3,-2.8385017E-3,8.45674E-3,-1.925144E-3],"categories":[],"categories_nodes":[],"categories_segments":[],"categories_sizes":[],"default_left":[0,0,0,0,0],"id":84,"left_children":[1,-1,3,-1,-1],"loss_changes":[8.5183576E-4,0E0,1.8535475E-3,0E0,0E0],"parents":[2147483647,0,0,2,2],"right_children":[2,-1,4,-1,-1],"split_conditions":[2.4941075E-1,-8.216453E-3,5.7852167E-1,8.45674E-3,-1.925144E-3],"split_indices":[1,0,1,0,0],"split_type":[0,0,0,0,0],"sum_hessian":[3.8E1,2E0,3.6E1,2E0,3.4E1],"tree_param":{"num_deleted":"0","num_feature":"2","num_nodes":"5","size_leaf_vector":"1"}},{"base_weights":[-1.3533669E-3,8.778046E-3,-8.7829605E-3,6.81047E-3,-5.769079E-3,-6.092778E-3,2.0851512E-3],"categories":[],"categories_nodes":[],"categories_segments":[],"categories_sizes":[],"default_left":[0,0,0,0,0,0,0],"id":85,"left_children":[1,3,5,-1,-1,-1,-1],"loss_changes":[3.0127163E-3,3.4987293E-3,2.155358E-3,0E0,0E0,0E0,0E0],"parents":[2147483647,0,0,1,1,2,2],"right_children":[2,4,6,-1,-1,-1,-1],"split_conditions":[3.7555442E0,5.547069E0,5.914202E0,6.81047E-3,-5.769079E-3,-6.092778E-3,2.0851512E-3],"split_indices":[1,0,0,0,0,0,0],"split_type":[0,0,0,0,0,0,0],"sum_hessian":[3.8E1,1.6E1,2.2E1,1.2E1,4E0,1.5E1,7E0],"tree_param":{"num_deleted":"0","num_feature":"2","num_nodes":"7","size_leaf_vector":"1"}},{"base_weights":[-1.4813626E-3,-6.611539E-3,1.635384E-2,-3.8516588E-4,-1.4316722E-2,1.9990187E-2,-1.5667592E-4],"categories":[],"categories_nodes":[],"categories_segments":[],"categories_sizes":[],"default_left":[0,0,0,0,0,0,0],"id":86,"left_children":[1,3,5,-1,-1,-1,-1],"loss_changes":[3.676536E-3,5.075214E-3,5.086682E-3,0E0,0E0,0E0,0E0],"parents":[2147483647,0,0,1,1,2,2],"right_children":[2,4,6,-1,-1,-1,-1],"split_conditions":[6.2822447E0,5.547069E0,6.5225515E0,-3.8516588E-4,-1.4316722E-2,1.9990187E-2,-1.5667592E-4],"split_indices":[0,0,0,0,0,0,0],"split_type":[0,0,0,0,0,0,0],"sum_hessian":[3.8E1,3E1,8E0,2.6E1,4E0,2E0,6E0],"tree_param":{"num_deleted":"0","num_feature":"2","num_nodes":"7","size_leaf_vector":"1"}},{"base_weights":[-3.3851527E-3,9.385859E-3,-5.5392976E-3,-2.3661891E-3,7.4061574E-3,-1.3189002E-2,-1.1177325E-3],"categories":[],"categories_nodes":[],"categories_segments":[],"categories_sizes":[],"default_left":[0,0,0,0,0,0,0],"id":87,"left_children":[1,3,5,-1,-1,-1,-1],"loss_changes":[1.1249047E-3,9.476915E-4,2.4681734E-3,0E0,0E0,0E0,0E0],"parents":[2147483647,0,0,1,1,2,2],"right_children":[2,4,6,-1,-1,-1,-1],"split_conditions":[9.1202664E-1,2.4941075E-1,1.5323595E0,-2.3661891E-3,7.4061574E-3,-1.3189002E-2,-1.1177325E-3],"split_indices":[1,1,1,0,0,0,0],"split_type":[0,0,0,0,0,0,0],"sum_hessian":[3.8E1,5E0,3.3E1,2E0,3E0,2E0,3.1E1],"tree_param":{"num_deleted":"0","num_feature":"2","num_nodes":"7","size_leaf_vector":"1"}},{"base_weights":[-1.9409021E-2,-5.2179687E-2,2.4517524E-1,-1.4098264E-1,1.5989281E-3],"categories":[],"categories_nodes":[],"categories_segments":[],"categories_sizes":[],"default_left":[0,0,0,0,0],"id":88,"left_children":[1,3,-1,-1,-1],"loss_changes":[8.4015787E-1,6.424179E-1,0E0,0E0,0E0],"parents":[2147483647,0,0,1,1],"right_children":[2,4,-1,-1,-1],"split_conditions":[6.8753114E0,1.2220036E0,2.4517524E-1,-1.4098264E-1,1.5989281E-3],"split_indices":[1,0,0,0,0],"split_type":[0,0,0,0,0],"sum_hessian":[3.8E1,3.7E1,1E0,5E0,3.2E1],"tree_param":{"num_deleted":"0","num_feature":"2","num_nodes":"5","size_leaf_vector":"1"}},{"base_weights":[5.1762346E-2,-1.967007E-2,2.6088336E-1,3.16165E-2,-2.7242157E-1,2.5111052E-1,5.5844854E-3],"categories":[],"categories_nodes":[],"categories_segments":[],"categories_sizes":[],"default_left":[0,0,0,0,0,0,0],"id":89,"left_children":[1,3,5,-1,-1,-1,-1],"loss_changes":[5.877143E-1,2.0124135E0,8.971753E-1,0E0,0E0,0E0,0E0],"parents":[2147483647,0,0,1,1,2,2],"right_children":[2,4,6,-1,-1,-1,-1],"split_conditions":[6.0677824E0,5.547069E0,6.5225515E0,3.16165E-2,-2.7242157E-1,2.5111052E-1,5.5844854E-3],"split_indices":[0,0,0,0,0,0,0],"split_type":[0,0,0,0,0,0,0],"sum_hessian":[3.8E1,2.9E1,9E0,2.6E1,3E0,3E0,6E0],"tree_param":{"num_deleted":"0","num_feature":"2","num_nodes":"7","size_leaf_vector":"1"}},{"base_weights":[2.4013706E-2,2.7229676E-1,-4.8843104E-2,4.9364828E-2,2.9267487E-1,-2.217036E-1,1.0041426E-2],"categories":[],"categories_nodes":[],"categories_segments":[],"categories_sizes":[],"default_left":[0,0,0,0,0,0,0],"id":90,"left_children":[1,3,5,-1,-1,-1,-1],"loss_changes":[7.1877515E-1,5.252667E-1,1.1725024E0,0E0,0E0,0E0,0E0],"parents":[2147483647,0,0,1,1,2,2],"right_children":[2,4,6,-1,-1,-1,-1],"split_conditions":[1.9833014E0,1.5323595E0,2.7275937E0,4.9364828E-2,2.9267487E-1,-2.217036E-1,1.0041426E-2],"split_indices":[1,1,1,0,0,0,0],"split_type":[0,0,0,0,0,0,0],"sum_hessian":[3.8E1,8E0,3E1,7E0,1E0,3E0,2.7E1],"tree_param":{"num_deleted":"0","num_feature":"2","num_nodes":"7","size_leaf_vector":"1"}},{"base_weights":[-9.878348E-3,-2.6589254E-1,1.441253E-1,6.348927E-2,-3.71708E-1,-1.8230319E-3,1.4704214E-1],"categories":[],"categories_nodes":[],"categories_segments":[],"categories_sizes":[],"default_left":[0,0,0,0,0,0,0],"id":91,"left_children":[1,3,5,-1,-1,-1,-1],"loss_changes":[1.5759795E0,4.372704E0,8.323669E-1,0E0,0E0,0E0,0E0],"parents":[2147483647,0,0,1,1,2,2],"right_children":[2,4,6,-1,-1,-1,-1],"split_conditions":[3.15265E0,2.3809597E0,4.3980155E0,6.348927E-2,-3.71708E-1,-1.8230319E-3,1.4704214E-1],"split_indices":[0,0,1,0,0,0,0],"split_type":[0,0,0,0,0,0,0],"sum_hessian":[3.8E1,1.4E1,2.4E1,9E0,5E0,1.5E1,9E0],"tree_param":{"num_deleted":"0","num_feature":"2","num_nodes":"7","size_leaf_vector":"1"}},{"base_weights":[-2.6070196E-3,-1.1270516E-2,-3.596763E-4,-1.5251637E-4,-1.1716851E-2,1.0546192E-2,-1.6134008E-3],"categories":[],"categories_nodes":[],"categories_segments":[],"categories_sizes":[],"default_left":[0,0,0,0,0,0,0],"id":92,"left_children":[1,3,5,-1,-1,-1,-1],"loss_changes":[7.552704E-4,1.5587619E-3,3.248219E-3,0E0,0E0,0E0,0E0],"parents":[2147483647,0,0,1,1,2,2],"right_children":[2,4,6,-1,-1,-1,-1],"split_conditions":[1.5323595E0,9.1202664E-1,2.6465857E0,-1.5251637E-4,-1.1716851E-2,1.0546192E-2,-1.6134008E-3],"split_indices":[1,1,1,0,0,0,0],"split_type":[0,0,0,0,0,0,0],"sum_hessian":[3.8E1,7E0,3.1E1,5E0,2E0,3E0,2.8E1],"tree_param":{"num_deleted":"0","num_feature":"2","num_nodes":"7","size_leaf_vector":"1"}},{"base_weights":[-8.880813E-4,1.7318398E-2,-4.074869E-3,1.7821074E-3,7.599988E-3,-1.7532809E-2,-8.811858E-5],"categories":[],"categories_nodes":[],"categories_segments":[],"categories_sizes":[],"default_left":[0,0,0,0,0,0,0],"id":93,"left_children":[1,3,5,-1,-1,-1,-1],"loss_changes":[2.3333577E-3,4.5131543E-5,5.2007367E-3,0E0,0E0,0E0,0E0],"parents":[2147483647,0,0,1,1,2,2],"right_children":[2,4,6,-1,-1,-1,-1],"split_conditions":[9.1202664E-1,5.127927E-1,1.5323595E0,1.7821074E-3,7.599988E-3,-1.7532809E-2,-8.811858E-5],"split_indices":[1,0,1,0,0,0,0],"split_type":[0,0,0,0,0,0,0],"sum_hessian":[3.8E1,5E0,3.3E1,1E0,4E0,2E0,3.1E1],"tree_param":{"num_deleted":"0","num_feature":"2","num_nodes":"7","size_leaf_vector":"1"}},{"base_weights":[-7.57238E-4,1.0451863E-2,-7.452409E-3,6.895193E-5,3.0872924E-2,-1.2681129E-2,-5.294494E-4],"categories":[],"categories_nodes":[],"categories_segments":[],"categories_sizes":[],"default_left":[0,0,0,0,0,0,0],"id":94,"left_children":[1,3,5,-1,-1,-1,-1],"loss_changes":[3.004718E-3,1.0276012E-2,3.6736773E-3,0E0,0E0,0E0,0E0],"parents":[2147483647,0,0,1,1,2,2],"right_children":[2,4,6,-1,-1,-1,-1],"split_conditions":[3.6981447E0,3.4339232E0,3.798999E0,6.895193E-5,3.0872924E-2,-1.2681129E-2,-5.294494E-4],"split_indices":[1,1,1,0,0,0,0],"split_type":[0,0,0,0,0,0,0],"sum_hessian":[3.8E1,1.4E1,2.4E1,1.3E1,1E0,4E0,2E1],"tree_param":{"num_deleted":"0","num_feature":"2","num_nodes":"7","size_leaf_vector":"1"}},{"base_weights":[-2.2686997E-3,6.9159735E-3,-4.8620338E-3,-1.6855255E-3,1.9190853E-2,-3.1895842E-3,2.4067898E-5],"categories":[],"categories_nodes":[],"categories_segments":[],"categories_sizes":[],"default_left":[0,0,0,0,0,0,0],"id":95,"left_children":[1,3,5,-1,-1,-1,-1],"loss_changes":[9.6256385E-4,4.3151844E-3,4.7532347E-4,0E0,0E0,0E0,0E0],"parents":[2147483647,0,0,1,1,2,2],"right_children":[2,4,6,-1,-1,-1,-1],"split_conditions":[1.9833014E0,1.5323595E0,4.880914E0,-1.6855255E-3,1.9190853E-2,-3.1895842E-3,2.4067898E-5],"split_indices":[1,1,0,0,0,0,0],"split_type":[0,0,0,0,0,0,0],"sum_hessian":[3.8E1,8E0,3E1,7E0,1E0,1.8E1,1.2E1],"tree_param":{"num_deleted":"0","num_feature":"2","num_nodes":"7","size_leaf_vector":"1"}},{"base_weights":[-8.932847E-3,2.1382375E-1,-3.7302624E-2,-1.9831562E-1,1.2487594E-2],"categories":[],"categories_nodes":[],"categories_segments":[],"categories_sizes":[],"default_left":[0,0,0,0,0],"id":96,"left_children":[1,-1,3,-1,-1],"loss_changes":[6.212719E-1,0E0,1.2092947E0,0E0,0E0],"parents":[2147483647,0,0,2,2],"right_children":[2,-1,4,-1,-1],"split_conditions":[2.3588207E-1,2.1382375E-1,1.2220036E0,-1.9831562E-1,1.2487594E-2],"split_indices":[0,0,0,0,0],"split_type":[0,0,0,0,0],"sum_hessian":[3.8E1,1E0,3.7E1,4E0,3.3E1],"tree_param":{"num_deleted":"0","num_feature":"2","num_nodes":"5","size_leaf_vector":"1"}},{"base_weights":[3.1464893E-2,-5.8698267E-2,1.7963916E-1,1.5888387E-2,-4.84152E-1,3.7060586E-1,-2.6140434E-3],"categories":[],"categories_nodes":[],"categories_segments":[],"categories_sizes":[],"default_left":[0,0,0,0,0,0,0],"id":97,"left_children":[1,3,5,-1,-1,-1,-1],"loss_changes":[5.315791E-1,2.8817682E0,2.09179E0,0E0,0E0,0E0,0E0],"parents":[2147483647,0,0,1,1,2,2],"right_children":[2,4,6,-1,-1,-1,-1],"split_conditions":[4.880914E0,4.874444E0,5.547069E0,1.5888387E-2,-4.84152E-1,3.7060586E-1,-2.6140434E-3],"split_indices":[0,0,0,0,0,0,0],"split_type":[0,0,0,0,0,0,0],"sum_hessian":[3.8E1,2.4E1,1.4E1,2.3E1,1E0,2E0,1.2E1],"tree_param":{"num_deleted":"0","num_feature":"2","num_nodes":"7","size_leaf_vector":"1"}},{"base_weights":[1.7751215E-2,1.7016158E-1,-1.5781468E-2,3.7555136E-2,-6.01308E-2],"categories":[],"categories_nodes":[],"categories_segments":[],"categories_sizes":[],"default_left":[0,0,0,0,0],"id":98,"left_children":[1,-1,3,-1,-1],"loss_changes":[5.3983134E-1,0E0,5.6006795E-1,0E0,0E0],"parents":[2147483647,0,0,2,2],"right_children":[2,-1,4,-1,-1],"split_conditions":[2.3886375E-1,1.7016158E-1,4.2044344E0,3.7555136E-2,-6.01308E-2],"split_indices":[0,0,1,0,0],"split_type":[0,0,0,0,0],"sum_hessian":[3.8E1,2E0,3.6E1,2E1,1.6E1],"tree_param":{"num_deleted":"0","num_feature":"2","num_nodes":"5","size_leaf_vector":"1"}},{"base_weights":[-1.0106506E-2,1.795157E-1,-1.361002E-1,1.15154326E-1,-4.6590276E-2,-4.3138573E-1,-1.9295242E-2],"categories":[],"categories_nodes":[],"categories_segments":[],"categories_sizes":[],"default_left":[0,0,0,0,0,0,0],"id":99,"left_children":[1,3,5,-1,-1,-1,-1],"loss_changes":[9.561891E-1,5.467575E-1,1.9351311E0,0E0,0E0,0E0,0E0],"parents":[2147483647,0,0,1,1,2,2],"right_children":[2,4,6,-1,-1,-1,-1],"split_conditions":[3.733499E0,5.547069E0,3.7555442E0,1.15154326E-1,-4.6590276E-2,-4.3138573E-1,-1.9295242E-2],"split_indices":[1,0,1,0,0,0,0],"split_type":[0,0,0,0,0,0,0],"sum_hessian":[3.8E1,1.5E1,2.3E1,1.1E1,4E0,1E0,2.2E1],"tree_param":{"num_deleted":"0","num_feature":"2","num_nodes":"7","size_leaf_vector":"1"}},{"base_weights":[-1.6395074E-3,-5.9847278E-3,-5.150089E-4,6.242283E-3,-7.52828E-4],"categories":[],"categories_nodes":[],"categories_segments":[],"categories_sizes":[],"default_left":[0,0,0,0,0],"id":100,"left_children":[1,-1,3,-1,-1],"loss_changes":[5.765504E-4,0E0,8.4477727E-4,0E0,0E0],"parents":[2147483647,0,0,2,2],"right_children":[2,-1,4,-1,-1],"split_conditions":[2.4941075E-1,-5.9847278E-3,5.7852167E-1,6.242283E-3,-7.52828E-4],"split_indices":[1,0,1,0,0],"split_type":[0,0,0,0,0],"sum_hessian":[3.8E1,2E0,3.6E1,2E0,3.4E1],"tree_param":{"num_deleted":"0","num_feature":"2","num_nodes":"5","size_leaf_vector":"1"}},{"base_weights":[-7.4410153E-4,1.067302E-2,-4.0347464E-3,-1.2351096E-3,2.4151875E-2,-5.9696427E-3,-5.466538E-4],"categories":[],"categories_nodes":[],"categories_segments":[],"categories_sizes":[],"default_left":[0,0,0,0,0,0,0],"id":101,"left_children":[1,3,5,-1,-1,-1,-1],"loss_changes":[1.5082809E-3,6.342467E-3,8.802792E-4,0E0,0E0,0E0,0E0],"parents":[2147483647,0,0,1,1,2,2],"right_children":[2,4,6,-1,-1,-1,-1],"split_conditions":[1.9833014E0,1.5323595E0,3.4339232E0,-1.2351096E-3,2.4151875E-2,-5.9696427E-3,-5.466538E-4],"split_indices":[1,1,1,0,0,0,0],"split_type":[0,0,0,0,0,0,0],"sum_hessian":[3.8E1,8E0,3E1,7E0,1E0,5E0,2.5E1],"tree_param":{"num_deleted":"0","num_feature":"2","num_nodes":"7","size_leaf_vector":"1"}},{"base_weights":[3.045186E-7,-5.058987E-3,1.3338408E-2,-3.7802813E-5,-1.9221192E-2,1.0751414E-2,7.0456095E-4],"categories":[],"categories_nodes":[],"categories_segments":[],"categories_sizes":[],"default_left":[0,0,0,0,0,0,0],"id":102,"left_children":[1,3,5,-1,-1,-1,-1],"loss_changes":[2.6992518E-3,6.1852993E-3,1.6769515E-3,0E0,0E0,0E0,0E0],"parents":[2147483647,0,0,1,1,2,2],"right_children":[2,4,6,-1,-1,-1,-1],"split_conditions":[5.914202E0,5.547069E0,6.5225515E0,-3.7802813E-5,-1.9221192E-2,1.0751414E-2,7.0456095E-4],"split_indices":[0,0,0,0,0,0,0],"split_type":[0,0,0,0,0,0,0],"sum_hessian":[3.8E1,2.8E1,1E1,2.6E1,2E0,4E0,6E0],"tree_param":{"num_deleted":"0","num_feature":"2","num_nodes":"7","size_leaf_vector":"1"}},{"base_weights":[-9.935314E-4,9.744829E-3,-2.4991964E-3,-1.2857318E-3,7.782284E-3,-7.0636007E-3,-2.1044836E-4],"categories":[],"categories_nodes":[],"categories_segments":[],"categories_sizes":[],"default_left":[0,0,0,0,0,0,0],"id":103,"left_children":[1,3,5,-1,-1,-1,-1],"loss_changes":[6.5492076E-4,6.917613E-4,1.0376096E-3,0E0,0E0,0E0,0E0],"parents":[2147483647,0,0,1,1,2,2],"right_children":[2,4,6,-1,-1,-1,-1],"split_conditions":[5.7852167E-1,2.4941075E-1,1.5323595E0,-1.2857318E-3,7.782284E-3,-7.0636007E-3,-2.1044836E-4],"split_indices":[1,1,1,0,0,0,0],"split_type":[0,0,0,0,0,0,0],"sum_hessian":[3.8E1,4E0,3.4E1,2E0,2E0,3E0,3.1E1],"tree_param":{"num_deleted":"0","num_feature":"2","num_nodes":"7","size_leaf_vector":"1"}},{"base_weights":[-4.641841E-3,9.235892E-2,-1.6600032E-1,4.7571114E-3,4.0470925E-1,-4.5748472E-1,2.8957868E-2],"categories":[],"categories_nodes":[],"categories_segments":[],"categories_sizes":[],"default_left":[0,0,0,0,0,0,0],"id":104,"left_children":[1,3,5,-1,-1,-1,-1],"loss_changes":[6.257555E-1,1.8375101E0,3.5790212E0,0E0,0E0,0E0,0E0],"parents":[2147483647,0,0,1,1,2,2],"right_children":[2,4,6,-1,-1,-1,-1],"split_conditions":[4.880914E0,4.874444E0,5.547069E0,4.7571114E-3,4.0470925E-1,-4.5748472E-1,2.8957868E-2],"split_indices":[0,0,0,0,0,0,0],"split_type":[0,0,0,0,0,0,0],"sum_hessian":[3.8E1,2.4E1,1.4E1,2.3E1,1E0,2E0,1.2E1],"tree_param":{"num_deleted":"0","num_feature":"2","num_nodes":"7","size_leaf_vector":"1"}},{"base_weights":[1.6307889E-2,-9.581154E-2,1.2761192E-1,1.05858676E-1,-9.344296E-2,-9.532007E-2,1.7946328E-1],"categories":[],"categories_nodes":[],"categories_segments":[],"categories_sizes":[],"default_left":[0,0,0,0,0,0,0],"id":105,"left_children":[1,3,5,-1,-1,-1,-1],"loss_changes":[4.9892113E-1,1.0552163E0,2.4564095E0,0E0,0E0,0E0,0E0],"parents":[2147483647,0,0,1,1,2,2],"right_children":[2,4,6,-1,-1,-1,-1],"split_conditions":[4.2548957E0,1.2220036E0,3.798999E0,1.05858676E-1,-9.344296E-2,-9.532007E-2,1.7946328E-1],"split_indices":[0,0,1,0,0,0,0],"split_type":[0,0,0,0,0,0,0],"sum_hessian":[3.8E1,1.9E1,1.9E1,5E0,1.4E1,9E0,1E1],"tree_param":{"num_deleted":"0","num_feature":"2","num_nodes":"7","size_leaf_vector":"1"}},{"base_weights":[1.443496E-2,-1.8554008E-2,2.4247074E-1,3.6088675E-2,-7.526478E-2,-1.0163721E-2,1.7181088E-1],"categories":[],"categories_nodes":[],"categories_segments":[],"categories_sizes":[],"default_left":[0,0,0,0,0,0,0],"id":106,"left_children":[1,3,5,-1,-1,-1,-1],"loss_changes":[2.9788274E-1,6.626991E-1,2.6145747E-1,0E0,0E0,0E0,0E0],"parents":[2147483647,0,0,1,1,2,2],"right_children":[2,4,6,-1,-1,-1,-1],"split_conditions":[6.586892E0,4.874444E0,3.9039829E0,3.6088675E-2,-7.526478E-2,-1.0163721E-2,1.7181088E-1],"split_indices":[1,0,0,0,0,0,0],"split_type":[0,0,0,0,0,0,0],"sum_hessian":[3.8E1,3.4E1,4E0,2.1E1,1.3E1,2E0,2E0],"tree_param":{"num_deleted":"0","num_feature":"2","num_nodes":"7","size_leaf_vector":"1"}},{"base_weights":[-1.5861768E-2,-2.0502858E-1,8.660735E-2,2.0689527E-2,-2.7101108E-1,1.02987304E-1,-2.2342078E-2],"categories":[],"categories_nodes":[],"categories_segments":[],"categories_sizes":[],"default_left":[0,0,0,0,0,0,0],"id":107,"left_children":[1,3,5,-1,-1,-1,-1],"loss_changes":[7.737235E-1,1.733458E0,6.472542E-1,0E0,0E0,0E0,0E0],"parents":[2147483647,0,0,1,1,2,2],"right_children":[2,4,6,-1,-1,-1,-1],"split_conditions":[3.0038962E0,2.3809597E0,3.798999E0,2.0689527E-2,-2.7101108E-1,1.02987304E-1,-2.2342078E-2],"split_indices":[0,0,1,0,0,0,0],"split_type":[0,0,0,0,0,0,0],"sum_hessian":[3.8E1,1.3E1,2.5E1,9E0,4E0,1.1E1,1.4E1],"tree_param":{"num_deleted":"0","num_feature":"2","num_nodes":"7","size_leaf_vector":"1"}},{"base_weights":[-9.964022E-4,-8.028049E-3,7.92647E-4,-8.582473E-5,-8.391603E-3,1.2068075E-2,-4.5129898E-4],"categories":[],"categories_nodes":[],"categories_segments":[],"categories_sizes":[],"default_left":[0,0,0,0,0,0,0],"id":108,"left_children":[1,3,5,-1,-1,-1,-1],"loss_changes":[4.96982E-4,8.050358E-4,1.8398364E-3,0E0,0E0,0E0,0E0],"parents":[2147483647,0,0,1,1,2,2],"right_children":[2,4,6,-1,-1,-1,-1],"split_conditions":[1.5323595E0,9.1202664E-1,1.9833014E0,-8.582473E-5,-8.391603E-3,1.2068075E-2,-4.5129898E-4],"split_indices":[1,1,1,0,0,0,0],"split_type":[0,0,0,0,0,0,0],"sum_hessian":[3.8E1,7E0,3.1E1,5E0,2E0,1E0,3E1],"tree_param":{"num_deleted":"0","num_feature":"2","num_nodes":"7","size_leaf_vector":"1"}},{"base_weights":[-2.5934898E-5,-1.1252788E-2,2.7815888E-3,4.000934E-3,-8.001954E-3,6.37478E-3,-1.5690111E-3],"categories":[],"categories_nodes":[],"categories_segments":[],"categories_sizes":[],"default_left":[0,0,0,0,0,0,0],"id":109,"left_children":[1,3,5,-1,-1,-1,-1],"loss_changes":[1.2605672E-3,1.6883106E-3,2.8847554E-3,0E0,0E0,0E0,0E0],"parents":[2147483647,0,0,1,1,2,2],"right_children":[2,4,6,-1,-1,-1,-1],"split_conditions":[1.8071067E0,2.3886375E-1,3.9013348E0,4.000934E-3,-8.001954E-3,6.37478E-3,-1.5690111E-3],"split_indices":[0,0,0,0,0,0,0],"split_type":[0,0,0,0,0,0,0],"sum_hessian":[3.8E1,7E0,3.1E1,2E0,5E0,1E1,2.1E1],"tree_param":{"num_deleted":"0","num_feature":"2","num_nodes":"7","size_leaf_vector":"1"}},{"base_weights":[-1.9989946E-4,6.415384E-3,-9.13823E-3,5.0665706E-4,9.87901E-3,-5.637454E-3,7.473948E-3],"categories":[],"categories_nodes":[],"categories_segments":[],"categories_sizes":[],"default_left":[0,0,0,0,0,0,0],"id":110,"left_children":[1,3,5,-1,-1,-1,-1],"loss_changes":[2.3646795E-3,2.1337075E-3,2.6072073E-3,0E0,0E0,0E0,0E0],"parents":[2147483647,0,0,1,1,2,2],"right_children":[2,4,6,-1,-1,-1,-1],"split_conditions":[4.3980155E0,3.798999E0,6.557988E0,5.0665706E-4,9.87901E-3,-5.637454E-3,7.473948E-3],"split_indices":[1,1,0,0,0,0,0],"split_type":[0,0,0,0,0,0,0],"sum_hessian":[3.8E1,2.2E1,1.6E1,1.8E1,4E0,1.4E1,2E0],"tree_param":{"num_deleted":"0","num_feature":"2","num_nodes":"7","size_leaf_vector":"1"}},{"base_weights":[-6.160553E-4,7.0288545E-3,-2.8156724E-3,-6.8570825E-4,1.53947715E-2,2.6379784E-3,-1.4768371E-3],"categories":[],"categories_nodes":[],"categories_segments":[],"categories_sizes":[],"default_left":[0,0,0,0,0,0,0],"id":111,"left_children":[1,3,5,-1,-1,-1,-1],"loss_changes":[6.7561003E-4,2.541354E-3,2.8002646E-4,0E0,0E0,0E0,0E0],"parents":[2147483647,0,0,1,1,2,2],"right_children":[2,4,6,-1,-1,-1,-1],"split_conditions":[1.9833014E0,1.5323595E0,2.3886375E-1,-6.8570825E-4,1.53947715E-2,2.6379784E-3,-1.4768371E-3],"split_indices":[1,1,0,0,0,0,0],"split_type":[0,0,0,0,0,0,0],"sum_hessian":[3.8E1,8E0,3E1,7E0,1E0,2E0,2.8E1],"tree_param":{"num_deleted":"0","num_feature":"2","num_nodes":"7","size_leaf_vector":"1"}},{"base_weights":[-3.2738156E-3,7.210777E-2,-2.290912E-1,-1.0686145E-2,2.884548E-1,-3.5022107E-1,6.921706E-2],"categories":[],"categories_nodes":[],"categories_segments":[],"categories_sizes":[],"default_left":[0,0,0,0,0,0,0],"id":112,"left_children":[1,3,5,-1,-1,-1,-1],"loss_changes":[6.803956E-1,1.9434384E0,2.7511482E0,0E0,0E0,0E0,0E0],"parents":[2147483647,0,0,1,1,2,2],"right_children":[2,4,6,-1,-1,-1,-1],"split_conditions":[6.0677824E0,5.547069E0,6.5225515E0,-1.0686145E-2,2.884548E-1,-3.5022107E-1,6.921706E-2],"split_indices":[0,0,0,0,0,0,0],"split_type":[0,0,0,0,0,0,0],"sum_hessian":[3.8E1,2.9E1,9E0,2.6E1,3E0,3E0,6E0],"tree_param":{"num_deleted":"0","num_feature":"2","num_nodes":"7","size_leaf_vector":"1"}},{"base_weights":[1.2260507E-2,1.581712E-1,-5.8446888E-2,-2.6136127E-3,1.2011223E-1,-3.512807E-1,2.7436533E-3],"categories":[],"categories_nodes":[],"categories_segments":[],"categories_sizes":[],"default_left":[0,0,0,0,0,0,0],"id":113,"left_children":[1,3,5,-1,-1,-1,-1],"loss_changes":[4.116063E-1,3.0624205E-1,1.4514667E0,0E0,0E0,0E0,0E0],"parents":[2147483647,0,0,1,1,2,2],"right_children":[2,4,6,-1,-1,-1,-1],"split_conditions":[3.095817E0,3.2232854E0,3.4339232E0,-2.6136127E-3,1.2011223E-1,-3.512807E-1,2.7436533E-3],"split_indices":[1,0,1,0,0,0,0],"split_type":[0,0,0,0,0,0,0],"sum_hessian":[3.8E1,1.2E1,2.6E1,6E0,6E0,1E0,2.5E1],"tree_param":{"num_deleted":"0","num_feature":"2","num_nodes":"7","size_leaf_vector":"1"}},{"base_weights":[1.180124E-2,-3.8144376E-2,1.6045797E-1,1.951858E-2,-1.3231121E-1,1.955639E-1,-2.006053E-2],"categories":[],"categories_nodes":[],"categories_segments":[],"categories_sizes":[],"default_left":[0,0,0,0,0,0,0],"id":114,"left_children":[1,3,5,-1,-1,-1,-1],"loss_changes":[2.9568586E-1,7.793951E-1,7.162694E-1,0E0,0E0,0E0,0E0],"parents":[2147483647,0,0,1,1,2,2],"right_children":[2,4,6,-1,-1,-1,-1],"split_conditions":[6.0677824E0,4.874444E0,6.5225515E0,1.951858E-2,-1.3231121E-1,1.955639E-1,-2.006053E-2],"split_indices":[0,0,0,0,0,0,0],"split_type":[0,0,0,0,0,0,0],"sum_hessian":[3.8E1,2.9E1,9E0,2.3E1,6E0,3E0,6E0],"tree_param":{"num_deleted":"0","num_feature":"2","num_nodes":"7","size_leaf_vector":"1"}},{"base_weights":[-1.3867745E-2,-8.361329E-2,1.9675566E-1,2.1274716E-2,-1.1729826E-1,9.5987365E-2,2.8777784E-2],"categories":[],"categories_nodes":[],"categories_segments":[],"categories_sizes":[],"default_left":[0,0,0,0,0,0,0],"id":115,"left_children":[1,3,5,-1,-1,-1,-1],"loss_changes":[5.8936316E-1,8.7592846E-1,3.666994E-2,0E0,0E0,0E0,0E0],"parents":[2147483647,0,0,1,1,2,2],"right_children":[2,4,6,-1,-1,-1,-1],"split_conditions":[5.8828917E0,3.798999E0,6.6733494E0,2.1274716E-2,-1.1729826E-1,9.5987365E-2,2.8777784E-2],"split_indices":[1,1,1,0,0,0,0],"split_type":[0,0,0,0,0,0,0],"sum_hessian":[3.8E1,2.9E1,9E0,1.8E1,1.1E1,6E0,3E0],"tree_param":{"num_deleted":"0","num_feature":"2","num_nodes":"7","size_leaf_vector":"1"}},{"base_weights":[-5.173464E-4,-4.357013E-3,1.8071475E-3,-3.0487266E-3,4.4971216E-3,6.1235735E-3,-2.9194626E-4],"categories":[],"categories_nodes":[],"categories_segments":[],"categories_sizes":[],"default_left":[0,0,0,0,0,0,0],"id":116,"left_children":[1,3,5,-1,-1,-1,-1],"loss_changes":[3.5595978E-4,8.4964564E-4,8.6752867E-4,0E0,0E0,0E0,0E0],"parents":[2147483647,0,0,1,1,2,2],"right_children":[2,4,6,-1,-1,-1,-1],"split_conditions":[3.15265E0,6.4155374E0,3.9013348E0,-3.0487266E-3,4.4971216E-3,6.1235735E-3,-2.9194626E-4],"split_indices":[0,1,0,0,0,0,0],"split_type":[0,0,0,0,0,0,0],"sum_hessian":[3.8E1,1.4E1,2.4E1,1.2E1,2E0,3E0,2.1E1],"tree_param":{"num_deleted":"0","num_feature":"2","num_nodes":"7","size_leaf_vector":"1"}},{"base_weights":[5.077666E-6,5.6158784E-3,-2.471769E-3,-1.1251887E-2,4.3625946E-6],"categories":[],"categories_nodes":[],"categories_segments":[],"categories_sizes":[],"default_left":[0,0,0,0,0],"id":117,"left_children":[1,-1,3,-1,-1],"loss_changes":[1.390405E-3,0E0,2.1661187E-3,0E0,0E0],"parents":[2147483647,0,0,2,2],"right_children":[2,-1,4,-1,-1],"split_conditions":[9.1202664E-1,5.6158784E-3,1.5323595E0,-1.1251887E-2,4.3625946E-6],"split_indices":[1,0,1,0,0],"split_type":[0,0,0,0,0],"sum_hessian":[3.8E1,5E0,3.3E1,2E0,3.1E1],"tree_param":{"num_deleted":"0","num_feature":"2","num_nodes":"5","size_leaf_vector":"1"}},{"base_weights":[1.9345414E-4,2.0748436E-2,-2.0958064E-3,-3.8323284E-3,1.3620718E-2,2.6767037E-3,-3.196826E-3],"categories":[],"categories_nodes":[],"categories_segments":[],"categories_sizes":[],"default_left":[0,0,0,0,0,0,0],"id":118,"left_children":[1,3,5,-1,-1,-1,-1],"loss_changes":[1.8786575E-3,1.9401681E-3,1.9187761E-3,0E0,0E0,0E0,0E0],"parents":[2147483647,0,0,1,1,2,2],"right_children":[2,4,6,-1,-1,-1,-1],"split_conditions":[3.0750948E-1,2.3588207E-1,3.7555442E0,-3.8323284E-3,1.3620718E-2,2.6767037E-3,-3.196826E-3],"split_indices":[0,0,1,0,0,0,0],"split_type":[0,0,0,0,0,0,0],"sum_hessian":[3.8E1,3E0,3.5E1,1E0,2E0,1.4E1,2.1E1],"tree_param":{"num_deleted":"0","num_feature":"2","num_nodes":"7","size_leaf_vector":"1"}},{"base_weights":[3.729799E-5,5.8516595E-3,-1.6519456E-3,-4.4570863E-4,1.2315822E-2,-1.7286892E-3,4.4843127E-4],"categories":[],"categories_nodes":[],"categories_segments":[],"categories_sizes":[],"default_left":[0,0,0,0,0,0,0],"id":119,"left_children":[1,3,5,-1,-1,-1,-1],"loss_changes":[3.927197E-4,1.5977487E-3,2.3434902E-4,0E0,0E0,0E0,0E0],"parents":[2147483647,0,0,1,1,2,2],"right_children":[2,4,6,-1,-1,-1,-1],"split_conditions":[1.9833014E0,1.5323595E0,4.2548957E0,-4.4570863E-4,1.2315822E-2,-1.7286892E-3,4.4843127E-4],"split_indices":[1,1,0,0,0,0,0],"split_type":[0,0,0,0,0,0,0],"sum_hessian":[3.8E1,8E0,3E1,7E0,1E0,1.5E1,1.5E1],"tree_param":{"num_deleted":"0","num_feature":"2","num_nodes":"7","size_leaf_vector":"1"}},{"base_weights":[-2.0472903E-3,-2.773649E-2,1.9482847E-1,7.7129127E-3,-1.7288665E-1],"categories":[],"categories_nodes":[],"categories_segments":[],"categories_sizes":[],"default_left":[0,0,0,0,0],"id":120,"left_children":[1,3,-1,-1,-1],"loss_changes":[5.035471E-1,7.310242E-1,0E0,0E0,0E0],"parents":[2147483647,0,0,1,1],"right_children":[2,4,-1,-1,-1],"split_conditions":[6.8753114E0,6.586892E0,1.9482847E-1,7.7129127E-3,-1.7288665E-1],"split_indices":[1,1,0,0,0],"split_type":[0,0,0,0,0],"sum_hessian":[3.8E1,3.7E1,1E0,3.4E1,3E0],"tree_param":{"num_deleted":"0","num_feature":"2","num_nodes":"5","size_leaf_vector":"1"}},{"base_weights":[1.4322201E-3,2.8507295E-1,-2.1604387E-2,7.278252E-3,1.6376553E-1,3.0420695E-2,-5.6387033E-2],"categories":[],"categories_nodes":[],"categories_segments":[],"categories_sizes":[],"default_left":[0,0,0,0,0,0,0],"id":121,"left_children":[1,3,5,-1,-1,-1,-1],"loss_changes":[2.6098955E-1,9.210171E-2,4.4201303E-1,0E0,0E0,0E0,0E0],"parents":[2147483647,0,0,1,1,2,2],"right_children":[2,4,6,-1,-1,-1,-1],"split_conditions":[2.3886375E-1,2.3588207E-1,4.2044344E0,7.278252E-3,1.6376553E-1,3.0420695E-2,-5.6387033E-2],"split_indices":[0,0,1,0,0,0,0],"split_type":[0,0,0,0,0,0,0],"sum_hessian":[3.8E1,2E0,3.6E1,1E0,1E0,2E1,1.6E1],"tree_param":{"num_deleted":"0","num_feature":"2","num_nodes":"7","size_leaf_vector":"1"}},{"base_weights":[8.688705E-3,-1.3225287E-1,6.878193E-2,6.925405E-2,-1.22635506E-1,2.9294646E-1,6.832026E-3],"categories":[],"categories_nodes":[],"categories_segments":[],"categories_sizes":[],"default_left":[0,0,0,0,0,0,0],"id":122,"left_children":[1,3,5,-1,-1,-1,-1],"loss_changes":[3.3941233E-1,6.9196224E-1,9.4813025E-1,0E0,0E0,0E0,0E0],"parents":[2147483647,0,0,1,1,2,2],"right_children":[2,4,6,-1,-1,-1,-1],"split_conditions":[2.6443474E0,5.127927E-1,2.7693567E0,6.925405E-2,-1.22635506E-1,2.9294646E-1,6.832026E-3],"split_indices":[0,0,0,0,0,0,0],"split_type":[0,0,0,0,0,0,0],"sum_hessian":[3.8E1,1.1E1,2.7E1,4E0,7E0,1E0,2.6E1],"tree_param":{"num_deleted":"0","num_feature":"2","num_nodes":"7","size_leaf_vector":"1"}},{"base_weights":[-7.5836917E-3,-1.9153652E-1,7.1524076E-2,1.0691218E-2,-3.4209582E-1,-1.4897144E-2,8.78601E-2],"categories":[],"categories_nodes":[],"categories_segments":[],"categories_sizes":[],"default_left":[0,0,0,0,0,0,0],"id":123,"left_children":[1,3,5,-1,-1,-1,-1],"loss_changes":[5.812313E-1,1.7612131E0,4.5929486E-1,0E0,0E0,0E0,0E0],"parents":[2147483647,0,0,1,1,2,2],"right_children":[2,4,6,-1,-1,-1,-1],"split_conditions":[2.6443474E0,2.3809597E0,4.3980155E0,1.0691218E-2,-3.4209582E-1,-1.4897144E-2,8.78601E-2],"split_indices":[0,0,1,0,0,0,0],"split_type":[0,0,0,0,0,0,0],"sum_hessian":[3.8E1,1.1E1,2.7E1,9E0,2E0,1.6E1,1.1E1],"tree_param":{"num_deleted":"0","num_feature":"2","num_nodes":"7","size_leaf_vector":"1"}},{"base_weights":[-1.2374192E-4,-1.0720153E-2,7.38771E-4,-9.921015E-4,-5.4399907E-3,-4.8909336E-4,3.2008265E-3],"categories":[],"categories_nodes":[],"categories_segments":[],"categories_sizes":[],"default_left":[0,0,0,0,0,0,0],"id":124,"left_children":[1,3,5,-1,-1,-1,-1],"loss_changes":[3.6436188E-4,3.745695E-5,5.3692283E-4,0E0,0E0,0E0,0E0],"parents":[2147483647,0,0,1,1,2,2],"right_children":[2,4,6,-1,-1,-1,-1],"split_conditions":[2.4941075E-1,4.848809E0,6.2822447E0,-9.921015E-4,-5.4399907E-3,-4.8909336E-4,3.2008265E-3],"split_indices":[1,0,0,0,0,0,0],"split_type":[0,0,0,0,0,0,0],"sum_hessian":[3.8E1,2E0,3.6E1,1E0,1E0,2.9E1,7E0],"tree_param":{"num_deleted":"0","num_feature":"2","num_nodes":"7","size_leaf_vector":"1"}},{"base_weights":[-1.4135757E-4,6.102081E-3,-4.7499267E-3,4.8723444E-3,-4.369266E-3,-3.793781E-3,2.1251459E-3],"categories":[],"categories_nodes":[],"categories_segments":[],"categories_sizes":[],"default_left":[0,0,0,0,0,0,0],"id":125,"left_children":[1,3,5,-1,-1,-1,-1],"loss_changes":[1.1511438E-3,1.89243E-3,1.146168E-3,0E0,0E0,0E0,0E0],"parents":[2147483647,0,0,1,1,2,2],"right_children":[2,4,6,-1,-1,-1,-1],"split_conditions":[3.7555442E0,5.547069E0,5.914202E0,4.8723444E-3,-4.369266E-3,-3.793781E-3,2.1251459E-3],"split_indices":[1,0,0,0,0,0,0],"split_type":[0,0,0,0,0,0,0],"sum_hessian":[3.8E1,1.6E1,2.2E1,1.2E1,4E0,1.5E1,7E0],"tree_param":{"num_deleted":"0","num_feature":"2","num_nodes":"7","size_leaf_vector":"1"}},{"base_weights":[3.5371192E-4,-3.3514707E-3,8.969662E-3,3.774961E-4,-2.3864433E-2,5.633434E-3,-1.9116312E-3],"categories":[],"categories_nodes":[],"categories_segments":[],"categories_sizes":[],"default_left":[0,0,0,0,0,0,0],"id":126,"left_children":[1,3,5,-1,-1,-1,-1],"loss_changes":[1.2750847E-3,6.828431E-3,9.110263E-4,0E0,0E0,0E0,0E0],"parents":[2147483647,0,0,1,1,2,2],"right_children":[2,4,6,-1,-1,-1,-1],"split_conditions":[5.8322783E0,5.547069E0,7.0160017E0,3.774961E-4,-2.3864433E-2,5.633434E-3,-1.9116312E-3],"split_indices":[0,0,0,0,0,0,0],"split_type":[0,0,0,0,0,0,0],"sum_hessian":[3.8E1,2.7E1,1.1E1,2.6E1,1E0,8E0,3E0],"tree_param":{"num_deleted":"0","num_feature":"2","num_nodes":"7","size_leaf_vector":"1"}},{"base_weights":[2.9391336E-4,7.830699E-3,-1.0447522E-3,-6.411592E-4,5.1792893E-3,-7.037127E-3,2.1571098E-4],"categories":[],"categories_nodes":[],"categories_segments":[],"categories_sizes":[],"default_left":[0,0,0,0,0,0,0],"id":127,"left_children":[1,3,5,-1,-1,-1,-1],"loss_changes":[4.0166132E-4,3.1041465E-4,9.007167E-4,0E0,0E0,0E0,0E0],"parents":[2147483647,0,0,1,1,2,2],"right_children":[2,4,6,-1,-1,-1,-1],"split_conditions":[9.1202664E-1,2.4941075E-1,1.5323595E0,-6.411592E-4,5.1792893E-3,-7.037127E-3,2.1571098E-4],"split_indices":[1,1,1,0,0,0,0],"split_type":[0,0,0,0,0,0,0],"sum_hessian":[3.8E1,5E0,3.3E1,2E0,3E0,2E0,3.1E1],"tree_param":{"num_deleted":"0","num_feature":"2","num_nodes":"7","size_leaf_vector":"1"}}]},"name":"gbtree"},"learner_model_param":{"base_score":"6.721733E-1","boost_from_average":"1","num_class":"0","num_feature":"2","num_target":"8"},"objective":{"name":"reg:squarederror","reg_loss_param":{"scale_pos_weight":"1"}}},"version":[2,1,2]}