{"learner":{"attributes":{"best_iteration":"1","best_score":"1.3371625799129743"},"feature_names":[],"feature_types":[],"gradient_booster":{"model":{"gbtree_model_param":{"num_parallel_tree":"1","num_trees":"96"},"iteration_indptr":[0,8,16,24,32,40,48,56,64,72,80,88,96],"tree_info":[0,1,2,3,4,5,6,7,0,1,2,3,4,5,6,7,0,1,2,3,4,5,6,7,0,1,2,3,4,5,6,7,0,1,2,3,4,5,6,7,0,1,2,3,4,5,6,7,0,1,2,3,4,5,6,7,0,1,2,3,4,5,6,7,0,1,2,3,4,5,6,7,0,1,2,3,4,5,6,7,0,1,2,3,4,5,6,7,0,1,2,3,4,5,6,7],"trees":[{"base_weights":[1.057014E0,2.3140216E0,-8.690987E-2,5.825443E-1,2.587128E0,-1.015942E0,8.0943346E-1],"categories":[],"categories_nodes":[],"categories_segments":[],"categories_sizes":[],"default_left":[0,0,0,0,0,0,0],"id":0,"left_children":[1,3,5,-1,-1,-1,-1],"loss_changes":[6.3469643E1,2.8279854E1,3.247971E1,0E0,0E0,0E0,0E0],"parents":[2147483647,0,0,1,1,2,2],"right_children":[2,4,6,-1,-1,-1,-1],"split_conditions":[3.1841908E0,1.5853027E0,4.2938075E0,5.825443E-1,2.587128E0,-1.015942E0,8.0943346E-1],"split_indices":[1,1,0,0,0,0,0],"split_type":[0,0,0,0,0,0,0],"sum_hessian":[4.3E1,2E1,2.3E1,8E0,1.2E1,1.1E1,1.2E1],"tree_param":{"num_deleted":"0","num_feature":"2","num_nodes":"7","size_leaf_vector":"1"}},{"base_weights":[1.801697E0,7.1395416E0,-2.9439876E0,7.051824E0,3.8522034E0,9.2464125E-1,-2.5379932E0],"categories":[],"categories_nodes":[],"categories_segments":[],"categories_sizes":[],"default_left":[0,0,0,0,0,0,0],"id":1,"left_children":[1,3,5,-1,-1,-1,-1],"loss_changes":[1.1356147E3,3.9322876E1,2.6150406E1,0E0,0E0,0E0,0E0],"parents":[2147483647,0,0,1,1,2,2],"right_children":[2,4,6,-1,-1,-1,-1],"split_conditions":[3.1841908E0,1.8767903E0,5.826454E-1,7.051824E0,3.8522034E0,9.2464125E-1,-2.5379932E0],"split_indices":[1,1,0,0,0,0,0],"split_type":[0,0,0,0,0,0,0],"sum_hessian":[4.3E1,2E1,2.3E1,1E1,1E1,1E0,2.2E1],"tree_param":{"num_deleted":"0","num_feature":"2","num_nodes":"7","size_leaf_vector":"1"}},{"base_weights":[-9.2055225E-1,4.3631813E-1,-2.1784043E0,-1.7696397E-1,1.2917074E0,-2.9321935E0,-4.0802643E-1],"categories":[],"categories_nodes":[],"categories_segments":[],"categories_sizes":[],"default_left":[0,0,0,0,0,0,0],"id":2,"left_children":[1,3,5,-1,-1,-1,-1],"loss_changes":[7.6047134E1,1.7402105E1,5.5184326E1,0E0,0E0,0E0,0E0],"parents":[2147483647,0,0,1,1,2,2],"right_children":[2,4,6,-1,-1,-1,-1],"split_conditions":[4.6036134E0,5.102674E0,6.09014E0,-1.7696397E-1,1.2917074E0,-2.9321935E0,-4.0802643E-1],"split_indices":[0,1,0,0,0,0,0],"split_type":[0,0,0,0,0,0,0],"sum_hessian":[4.3E1,2.1E1,2.2E1,1.4E1,7E0,1.1E1,1.1E1],"tree_param":{"num_deleted":"0","num_feature":"2","num_nodes":"7","size_leaf_vector":"1"}},{"base_weights":[3.1694968E0,4.957248E0,3.8875392E-1,1.1171564E0,-5.882465E-1],"categories":[],"categories_nodes":[],"categories_segments":[],"categories_sizes":[],"default_left":[0,0,0,0,0],"id":3,"left_children":[1,-1,3,-1,-1],"loss_changes":[3.6796042E2,0E0,2.8211807E1,0E0,0E0],"parents":[2147483647,0,0,2,2],"right_children":[2,-1,4,-1,-1],"split_conditions":[3.1841908E0,4.957248E0,4.6609364E0,1.1171564E0,-5.882465E-1],"split_indices":[1,0,1,0,0],"split_type":[0,0,0,0,0],"sum_hessian":[4.3E1,2E1,2.3E1,1.2E1,1.1E1],"tree_param":{"num_deleted":"0","num_feature":"2","num_nodes":"5","size_leaf_vector":"1"}},{"base_weights":[-1.3884071E0],"categories":[],"categories_nodes":[],"categories_segments":[],"categories_sizes":[],"default_left":[0],"id":4,"left_children":[-1],"loss_changes":[0E0],"parents":[2147483647],"right_children":[-1],"split_conditions":[-1.1107258E0],"split_indices":[0],"split_type":[0],"sum_hessian":[4.3E1],"tree_param":{"num_deleted":"0","num_feature":"2","num_nodes":"1","size_leaf_vector":"1"}},{"base_weights":[-1.4573008E0],"categories":[],"categories_nodes":[],"categories_segments":[],"categories_sizes":[],"default_left":[0],"id":5,"left_children":[-1],"loss_changes":[0E0],"parents":[2147483647],"right_children":[-1],"split_conditions":[-1.1658406E0],"split_indices":[0],"split_type":[0],"sum_hessian":[4.3E1],"tree_param":{"num_deleted":"0","num_feature":"2","num_nodes":"1","size_leaf_vector":"1"}},{"base_weights":[-1.0625706E0],"categories":[],"categories_nodes":[],"categories_segments":[],"categories_sizes":[],"default_left":[0],"id":6,"left_children":[-1],"loss_changes":[0E0],"parents":[2147483647],"right_children":[-1],"split_conditions":[-8.5005647E-1],"split_indices":[0],"split_type":[0],"sum_hessian":[4.3E1],"tree_param":{"num_deleted":"0","num_feature":"2","num_nodes":"1","size_leaf_vector":"1"}},{"base_weights":[-1.1993762E0,-4.625921E-1,-1.092045E0],"categories":[],"categories_nodes":[],"categories_segments":[],"categories_sizes":[],"default_left":[0,0,0],"id":7,"left_children":[1,-1,-1],"loss_changes":[3.7387047E0,0E0,0E0],"parents":[2147483647,0,0],"right_children":[2,-1,-1],"split_conditions":[1.8767903E0,-4.625921E-1,-1.092045E0],"split_indices":[1,0,0],"split_type":[0,0,0],"sum_hessian":[4.3E1,1E1,3.3E1],"tree_param":{"num_deleted":"0","num_feature":"2","num_nodes":"3","size_leaf_vector":"1"}},{"base_weights":[2.787474E-1,-9.934798E-3,1.5790591E0,-1.4814737E-1,7.4110764E-1,-1.3060379E-2,1.4474428E0],"categories":[],"categories_nodes":[],"categories_segments":[],"categories_sizes":[],"default_left":[0,0,0,0,0,0,0],"id":8,"left_children":[1,3,5,-1,-1,-1,-1],"loss_changes":[1.653227E1,6.2428603E0,2.9681625E0,0E0,0E0,0E0,0E0],"parents":[2147483647,0,0,1,1,2,2],"right_children":[2,4,6,-1,-1,-1,-1],"split_conditions":[6.288983E0,5.7469616E0,1.9428642E0,-1.4814737E-1,7.4110764E-1,-1.3060379E-2,1.4474428E0],"split_indices":[0,1,1,0,0,0,0],"split_type":[0,0,0,0,0,0,0],"sum_hessian":[4.3E1,3.6E1,7E0,3.1E1,5E0,1E0,6E0],"tree_param":{"num_deleted":"0","num_feature":"2","num_nodes":"7","size_leaf_vector":"1"}},{"base_weights":[5.714911E-1,1.5371443E0,-1.3979146E0,1.9532022E0,5.6156653E-1,5.547848E-1,-1.2774676E0],"categories":[],"categories_nodes":[],"categories_segments":[],"categories_sizes":[],"default_left":[0,0,0,0,0,0,0],"id":9,"left_children":[1,3,5,-1,-1,-1,-1],"loss_changes":[8.582636E1,2.0945396E1,7.3476734E0,0E0,0E0,0E0,0E0],"parents":[2147483647,0,0,1,1,2,2],"right_children":[2,4,6,-1,-1,-1,-1],"split_conditions":[4.1875997E0,1.945782E0,5.826454E-1,1.9532022E0,5.6156653E-1,5.547848E-1,-1.2774676E0],"split_indices":[1,1,0,0,0,0,0],"split_type":[0,0,0,0,0,0,0],"sum_hessian":[4.3E1,2.9E1,1.4E1,1.3E1,1.6E1,1E0,1.3E1],"tree_param":{"num_deleted":"0","num_feature":"2","num_nodes":"7","size_leaf_vector":"1"}},{"base_weights":[-2.3468947E-1,1.1436843E0,-7.662352E-1,-1.543034E0,6.679389E-1],"categories":[],"categories_nodes":[],"categories_segments":[],"categories_sizes":[],"default_left":[0,0,0,0,0],"id":10,"left_children":[1,-1,3,-1,-1],"loss_changes":[4.0019966E1,0E0,6.489931E1,0E0,0E0],"parents":[2147483647,0,0,2,2],"right_children":[2,-1,4,-1,-1],"split_conditions":[1.8767903E0,1.1436843E0,4.1875997E0,-1.543034E0,6.679389E-1],"split_indices":[1,0,1,0,0],"split_type":[0,0,0,0,0],"sum_hessian":[4.3E1,1E1,3.3E1,1.9E1,1.4E1],"tree_param":{"num_deleted":"0","num_feature":"2","num_nodes":"5","size_leaf_vector":"1"}},{"base_weights":[7.585847E-1,1.7224417E0,1.0435476E-1,-4.8350126E-1,4.6702704E-1],"categories":[],"categories_nodes":[],"categories_segments":[],"categories_sizes":[],"default_left":[0,0,0,0,0],"id":11,"left_children":[1,-1,3,-1,-1],"loss_changes":[3.991661E1,0E0,1.0886204E1,0E0,0E0],"parents":[2147483647,0,0,2,2],"right_children":[2,-1,4,-1,-1],"split_conditions":[1.945782E0,1.7224417E0,4.2442636E0,-4.8350126E-1,4.6702704E-1],"split_indices":[1,0,0,0,0],"split_type":[0,0,0,0,0],"sum_hessian":[4.3E1,1.3E1,3E1,1.2E1,1.8E1],"tree_param":{"num_deleted":"0","num_feature":"2","num_nodes":"5","size_leaf_vector":"1"}},{"base_weights":[-3.029251E-1,-2.0723702E-1,-2.9922423E-1,-2.1634403E-1,1.03152655E-1],"categories":[],"categories_nodes":[],"categories_segments":[],"categories_sizes":[],"default_left":[0,0,0,0,0],"id":12,"left_children":[1,3,-1,-1,-1],"loss_changes":[2.2185946E-1,4.8099536E-1,0E0,0E0,0E0],"parents":[2147483647,0,0,1,1],"right_children":[2,4,-1,-1,-1],"split_conditions":[3.1841908E0,6.206935E0,-2.9922423E-1,-2.1634403E-1,1.03152655E-1],"split_indices":[1,0,0,0,0],"split_type":[0,0,0,0,0],"sum_hessian":[4.3E1,2E1,2.3E1,1.7E1,3E0],"tree_param":{"num_deleted":"0","num_feature":"2","num_nodes":"5","size_leaf_vector":"1"}},{"base_weights":[-3.1795654E-1,-2.6689386E-1,-2.0578091E-1,3.2974865E-2,-1.9756393E-1],"categories":[],"categories_nodes":[],"categories_segments":[],"categories_sizes":[],"default_left":[0,0,0,0,0],"id":13,"left_children":[1,-1,3,-1,-1],"loss_changes":[8.645058E-3,0E0,9.153882E-2,0E0,0E0],"parents":[2147483647,0,0,2,2],"right_children":[2,-1,4,-1,-1],"split_conditions":[6.288983E0,-2.6689386E-1,6.461619E0,3.2974865E-2,-1.9756393E-1],"split_indices":[0,0,0,0,0],"split_type":[0,0,0,0,0],"sum_hessian":[4.3E1,3.6E1,7E0,1E0,6E0],"tree_param":{"num_deleted":"0","num_feature":"2","num_nodes":"5","size_leaf_vector":"1"}},{"base_weights":[-2.3183352E-1,-5.163347E-2,-3.0573568E-1,-6.1513808E-2,1.10692285E-1,-2.7032328E-1,-1.1773759E-1],"categories":[],"categories_nodes":[],"categories_segments":[],"categories_sizes":[],"default_left":[0,0,0,0,0,0,0],"id":14,"left_children":[1,3,5,-1,-1,-1,-1],"loss_changes":[5.701692E-1,7.782717E-2,1.08392715E-1,0E0,0E0,0E0,0E0],"parents":[2147483647,0,0,1,1,2,2],"right_children":[2,4,6,-1,-1,-1,-1],"split_conditions":[1.945782E0,6.4700217E0,6.244223E0,-6.1513808E-2,1.10692285E-1,-2.7032328E-1,-1.1773759E-1],"split_indices":[1,0,0,0,0,0,0],"split_type":[0,0,0,0,0,0,0],"sum_hessian":[4.3E1,1.3E1,3E1,1.2E1,1E0,2.4E1,6E0],"tree_param":{"num_deleted":"0","num_feature":"2","num_nodes":"7","size_leaf_vector":"1"}},{"base_weights":[-2.752079E-1,-1.2830983E-1,-3.1382138E-1,-1.5481606E-1,2.6196668E-1],"categories":[],"categories_nodes":[],"categories_segments":[],"categories_sizes":[],"default_left":[0,0,0,0,0],"id":15,"left_children":[1,3,-1,-1,-1],"loss_changes":[7.0634294E-1,6.875057E-1,0E0,0E0,0E0],"parents":[2147483647,0,0,1,1],"right_children":[2,4,-1,-1,-1],"split_conditions":[3.1841908E0,2.8489735E0,-3.1382138E-1,-1.5481606E-1,2.6196668E-1],"split_indices":[1,1,0,0,0],"split_type":[0,0,0,0,0],"sum_hessian":[4.3E1,2E1,2.3E1,1.8E1,2E0],"tree_param":{"num_deleted":"0","num_feature":"2","num_nodes":"5","size_leaf_vector":"1"}},{"base_weights":[1.0182547E-1,5.9644014E-1,-3.3520508E-1,-8.0431837E-1,5.814416E-1,-4.7703138E-1,8.954302E-1],"categories":[],"categories_nodes":[],"categories_segments":[],"categories_sizes":[],"default_left":[0,0,0,0,0,0,0],"id":16,"left_children":[1,3,5,-1,-1,-1,-1],"loss_changes":[9.711045E0,5.1159143E0,9.781298E0,0E0,0E0,0E0,0E0],"parents":[2147483647,0,0,1,1,2,2],"right_children":[2,4,6,-1,-1,-1,-1],"split_conditions":[3.1841908E0,7.881781E-1,6.503606E0,-8.0431837E-1,5.814416E-1,-4.7703138E-1,8.954302E-1],"split_indices":[1,0,1,0,0,0,0],"split_type":[0,0,0,0,0,0,0],"sum_hessian":[4.3E1,2E1,2.3E1,1E0,1.9E1,2E1,3E0],"tree_param":{"num_deleted":"0","num_feature":"2","num_nodes":"7","size_leaf_vector":"1"}},{"base_weights":[1.5502751E-1,-1.2805536E-1,1.4449074E0,5.027141E-1,-3.451961E-1,3.0280097E0,-5.729262E-1],"categories":[],"categories_nodes":[],"categories_segments":[],"categories_sizes":[],"default_left":[0,0,0,0,0,0,0],"id":17,"left_children":[1,3,5,-1,-1,-1,-1],"loss_changes":[1.6251316E1,8.763994E0,4.3167618E1,0E0,0E0,0E0,0E0],"parents":[2147483647,0,0,1,1,2,2],"right_children":[2,4,6,-1,-1,-1,-1],"split_conditions":[6.288983E0,1.8767903E0,6.6880956E0,5.027141E-1,-3.451961E-1,3.0280097E0,-5.729262E-1],"split_indices":[0,1,0,0,0,0,0],"split_type":[0,0,0,0,0,0,0],"sum_hessian":[4.3E1,3.6E1,7E0,1E1,2.6E1,3E0,4E0],"tree_param":{"num_deleted":"0","num_feature":"2","num_nodes":"7","size_leaf_vector":"1"}},{"base_weights":[-4.083361E-2,-4.7225478E-1,2.7600622E-1,1.3530117E-1,-1.5120815E0,1.1838788E0,-6.4873494E-2],"categories":[],"categories_nodes":[],"categories_segments":[],"categories_sizes":[],"default_left":[0,0,0,0,0,0,0],"id":18,"left_children":[1,3,5,-1,-1,-1,-1],"loss_changes":[6.1447673E0,1.7597898E1,1.1297138E1,0E0,0E0,0E0,0E0],"parents":[2147483647,0,0,1,1,2,2],"right_children":[2,4,6,-1,-1,-1,-1],"split_conditions":[2.8489735E0,1.945782E0,3.354927E0,1.3530117E-1,-1.5120815E0,1.1838788E0,-6.4873494E-2],"split_indices":[1,1,1,0,0,0,0],"split_type":[0,0,0,0,0,0,0],"sum_hessian":[4.3E1,1.8E1,2.5E1,1.3E1,5E0,5E0,2E1],"tree_param":{"num_deleted":"0","num_feature":"2","num_nodes":"7","size_leaf_vector":"1"}},{"base_weights":[1.9048892E-1,1.1649995E0,3.5679884E-2,2.3903325E-1,1.2187245E0,-7.1981704E-1,1.3463707E-1],"categories":[],"categories_nodes":[],"categories_segments":[],"categories_sizes":[],"default_left":[0,0,0,0,0,0,0],"id":19,"left_children":[1,3,5,-1,-1,-1,-1],"loss_changes":[6.596406E0,1.4075441E0,4.98962E0,0E0,0E0,0E0,0E0],"parents":[2147483647,0,0,1,1,2,2],"right_children":[2,4,6,-1,-1,-1,-1],"split_conditions":[2.0014002E0,1.3410399E0,2.8490343E0,2.3903325E-1,1.2187245E0,-7.1981704E-1,1.3463707E-1],"split_indices":[0,1,0,0,0,0,0],"split_type":[0,0,0,0,0,0,0],"sum_hessian":[4.3E1,5E0,3.8E1,2E0,3E0,4E0,3.4E1],"tree_param":{"num_deleted":"0","num_feature":"2","num_nodes":"7","size_leaf_vector":"1"}},{"base_weights":[-6.995811E-2,-1.2039487E-1,-4.7281984E-2,-5.3777374E-2,-1.2509501E-1,5.169303E-2,-6.9819E-2],"categories":[],"categories_nodes":[],"categories_segments":[],"categories_sizes":[],"default_left":[0,0,0,0,0,0,0],"id":20,"left_children":[1,3,5,-1,-1,-1,-1],"loss_changes":[4.463075E-2,1.43556E-2,1.4883962E-1,0E0,0E0,0E0,0E0],"parents":[2147483647,0,0,1,1,2,2],"right_children":[2,4,6,-1,-1,-1,-1],"split_conditions":[1.9428642E0,4.284891E0,3.1841908E0,-5.3777374E-2,-1.2509501E-1,5.169303E-2,-6.9819E-2],"split_indices":[1,0,1,0,0,0,0],"split_type":[0,0,0,0,0,0,0],"sum_hessian":[4.3E1,1.2E1,3.1E1,6E0,6E0,8E0,2.3E1],"tree_param":{"num_deleted":"0","num_feature":"2","num_nodes":"7","size_leaf_vector":"1"}},{"base_weights":[-7.339773E-2,-6.6191E-2,-9.3097635E-2,-5.809312E-2,7.375977E-2],"categories":[],"categories_nodes":[],"categories_segments":[],"categories_sizes":[],"default_left":[0,0,0,0,0],"id":21,"left_children":[1,3,-1,-1,-1],"loss_changes":[5.92421E-3,4.7404125E-2,0E0,0E0,0E0],"parents":[2147483647,0,0,1,1],"right_children":[2,4,-1,-1,-1],"split_conditions":[6.6880956E0,6.4700217E0,-9.3097635E-2,-5.809312E-2,7.375977E-2],"split_indices":[0,0,0,0,0],"split_type":[0,0,0,0,0],"sum_hessian":[4.3E1,3.9E1,4E0,3.8E1,1E0],"tree_param":{"num_deleted":"0","num_feature":"2","num_nodes":"5","size_leaf_vector":"1"}},{"base_weights":[-5.4068573E-2,9.614562E-3,-1.0753846E-1,-1.6745007E-2,1.1573368E-1,-1.1538414E-1,1.7394373E-3],"categories":[],"categories_nodes":[],"categories_segments":[],"categories_sizes":[],"default_left":[0,0,0,0,0,0,0],"id":22,"left_children":[1,3,5,-1,-1,-1,-1],"loss_changes":[1.5085967E-1,8.965917E-2,9.692675E-2,0E0,0E0,0E0,0E0],"parents":[2147483647,0,0,1,1,2,2],"right_children":[2,4,6,-1,-1,-1,-1],"split_conditions":[3.1841908E0,2.7705548E0,5.7469616E0,-1.6745007E-2,1.1573368E-1,-1.1538414E-1,1.7394373E-3],"split_indices":[1,1,1,0,0,0,0],"split_type":[0,0,0,0,0,0,0],"sum_hessian":[4.3E1,2E1,2.3E1,1.7E1,3E0,1.7E1,6E0],"tree_param":{"num_deleted":"0","num_feature":"2","num_nodes":"7","size_leaf_vector":"1"}},{"base_weights":[-5.9738643E-2,-7.916146E-2,3.7559196E-2,1.1455194E-2,-7.53722E-2,1.390331E-1,-6.31507E-2],"categories":[],"categories_nodes":[],"categories_segments":[],"categories_sizes":[],"default_left":[0,0,0,0,0,0,0],"id":23,"left_children":[1,3,5,-1,-1,-1,-1],"loss_changes":[8.6124346E-2,5.341676E-2,1.4068455E-1,0E0,0E0,0E0,0E0],"parents":[2147483647,0,0,1,1,2,2],"right_children":[2,4,6,-1,-1,-1,-1],"split_conditions":[6.288983E0,2.0014002E0,6.6880956E0,1.1455194E-2,-7.53722E-2,1.390331E-1,-6.31507E-2],"split_indices":[0,0,0,0,0,0,0],"split_type":[0,0,0,0,0,0,0],"sum_hessian":[4.3E1,3.6E1,7E0,5E0,3.1E1,3E0,4E0],"tree_param":{"num_deleted":"0","num_feature":"2","num_nodes":"7","size_leaf_vector":"1"}},{"base_weights":[2.4808813E-2,-1.04853086E-1,4.233266E-1,8.6939916E-2,-3.3412445E-1,8.351048E-2,5.3736854E-1],"categories":[],"categories_nodes":[],"categories_segments":[],"categories_sizes":[],"default_left":[0,0,0,0,0,0,0],"id":24,"left_children":[1,3,5,-1,-1,-1,-1],"loss_changes":[2.3179805E0,2.3163195E0,8.01293E-1,0E0,0E0,0E0,0E0],"parents":[2147483647,0,0,1,1,2,2],"right_children":[2,4,6,-1,-1,-1,-1],"split_conditions":[5.102674E0,3.1841908E0,2.9267447E0,8.6939916E-2,-3.3412445E-1,8.351048E-2,5.3736854E-1],"split_indices":[1,1,0,0,0,0,0],"split_type":[0,0,0,0,0,0,0],"sum_hessian":[4.3E1,3.3E1,1E1,2E1,1.3E1,5E0,5E0],"tree_param":{"num_deleted":"0","num_feature":"2","num_nodes":"7","size_leaf_vector":"1"}},{"base_weights":[9.038278E-2,-5.607355E-1,5.6272376E-1,-7.1593153E-1,2.181794E0,2.8071167E0,1.3680431E-1],"categories":[],"categories_nodes":[],"categories_segments":[],"categories_sizes":[],"default_left":[0,0,0,0,0,0,0],"id":25,"left_children":[1,3,5,-1,-1,-1,-1],"loss_changes":[1.3847731E1,2.3317331E1,2.940577E1,0E0,0E0,0E0,0E0],"parents":[2147483647,0,0,1,1,2,2],"right_children":[2,4,6,-1,-1,-1,-1],"split_conditions":[2.8489735E0,6.4700217E0,3.1841908E0,-7.1593153E-1,2.181794E0,2.8071167E0,1.3680431E-1],"split_indices":[1,0,1,0,0,0,0],"split_type":[0,0,0,0,0,0,0],"sum_hessian":[4.3E1,1.8E1,2.5E1,1.7E1,1E0,2E0,2.3E1],"tree_param":{"num_deleted":"0","num_feature":"2","num_nodes":"7","size_leaf_vector":"1"}},{"base_weights":[-1.4025235E-2,8.3604E-1,-8.933954E-2,-6.482321E-1,1.05470076E-1],"categories":[],"categories_nodes":[],"categories_segments":[],"categories_sizes":[],"default_left":[0,0,0,0,0],"id":26,"left_children":[1,-1,3,-1,-1],"loss_changes":[3.6029592E0,0E0,6.8040533E0,0E0,0E0],"parents":[2147483647,0,0,2,2],"right_children":[2,-1,4,-1,-1],"split_conditions":[7.881781E-1,8.3604E-1,2.9267447E0,-6.482321E-1,1.05470076E-1],"split_indices":[0,0,0,0,0],"split_type":[0,0,0,0,0],"sum_hessian":[4.3E1,2E0,4.1E1,9E0,3.2E1],"tree_param":{"num_deleted":"0","num_feature":"2","num_nodes":"5","size_leaf_vector":"1"}},{"base_weights":[5.7929136E-2,1.6926546E-1,-8.443473E-1,1.6172184E-3,1.3391645E0,-7.6589364E-1,-1.5690747E-1],"categories":[],"categories_nodes":[],"categories_segments":[],"categories_sizes":[],"default_left":[0,0,0,0,0,0,0],"id":27,"left_children":[1,3,5,-1,-1,-1,-1],"loss_changes":[4.562989E0,1.0062628E1,1.7853165E-1,0E0,0E0,0E0,0E0],"parents":[2147483647,0,0,1,1,2,2],"right_children":[2,4,6,-1,-1,-1,-1],"split_conditions":[6.6880956E0,6.288983E0,7.24892E0,1.6172184E-3,1.3391645E0,-7.6589364E-1,-1.5690747E-1],"split_indices":[0,0,0,0,0,0,0],"split_type":[0,0,0,0,0,0,0],"sum_hessian":[4.3E1,3.9E1,4E0,3.6E1,3E0,3E0,1E0],"tree_param":{"num_deleted":"0","num_feature":"2","num_nodes":"7","size_leaf_vector":"1"}},{"base_weights":[-1.8468857E-2,-2.7675735E-2,4.4453997E-2,-1.62407E-2,-1.23168185E-1,1.1814504E-1,-4.5821765E-3],"categories":[],"categories_nodes":[],"categories_segments":[],"categories_sizes":[],"default_left":[0,0,0,0,0,0,0],"id":28,"left_children":[1,3,5,-1,-1,-1,-1],"loss_changes":[2.672051E-2,3.3196367E-2,3.192662E-2,0E0,0E0,0E0,0E0],"parents":[2147483647,0,0,1,1,2,2],"right_children":[2,4,6,-1,-1,-1,-1],"split_conditions":[6.4700217E0,6.461619E0,6.6880956E0,-1.62407E-2,-1.23168185E-1,1.1814504E-1,-4.5821765E-3],"split_indices":[0,0,0,0,0,0,0],"split_type":[0,0,0,0,0,0,0],"sum_hessian":[4.3E1,3.8E1,5E0,3.7E1,1E0,1E0,4E0],"tree_param":{"num_deleted":"0","num_feature":"2","num_nodes":"7","size_leaf_vector":"1"}},{"base_weights":[-1.6439345E-2,-1.2846536E-2,-3.3515155E-2,-1.281028E-2,4.4255864E-2],"categories":[],"categories_nodes":[],"categories_segments":[],"categories_sizes":[],"default_left":[0,0,0,0,0],"id":29,"left_children":[1,3,-1,-1,-1],"loss_changes":[3.4857607E-3,9.51927E-3,0E0,0E0,0E0],"parents":[2147483647,0,0,1,1],"right_children":[2,4,-1,-1,-1],"split_conditions":[6.6880956E0,6.4700217E0,-3.3515155E-2,-1.281028E-2,4.4255864E-2],"split_indices":[0,0,0,0,0],"split_type":[0,0,0,0,0],"sum_hessian":[4.3E1,3.9E1,4E0,3.8E1,1E0],"tree_param":{"num_deleted":"0","num_feature":"2","num_nodes":"5","size_leaf_vector":"1"}},{"base_weights":[-1.1146799E-2,3.3795223E-2,-2.5359018E-2,-1.1743176E-3,1.02655604E-1,-1.1526426E-1,-1.074914E-2],"categories":[],"categories_nodes":[],"categories_segments":[],"categories_sizes":[],"default_left":[0,0,0,0,0,0,0],"id":30,"left_children":[1,3,5,-1,-1,-1,-1],"loss_changes":[2.8960947E-2,3.6853787E-2,4.618991E-2,0E0,0E0,0E0,0E0],"parents":[2147483647,0,0,1,1,2,2],"right_children":[2,4,6,-1,-1,-1,-1],"split_conditions":[1.8767903E0,1.5853027E0,1.9428642E0,-1.1743176E-3,1.02655604E-1,-1.1526426E-1,-1.074914E-2],"split_indices":[1,1,1,0,0,0,0],"split_type":[0,0,0,0,0,0,0],"sum_hessian":[4.3E1,1E1,3.3E1,8E0,2E0,2E0,3.1E1],"tree_param":{"num_deleted":"0","num_feature":"2","num_nodes":"7","size_leaf_vector":"1"}},{"base_weights":[-1.1675788E-2,-2.334175E-2,6.609894E-2,-1.2237865E-2,-1.3161188E-1,2.1547309E-1,-2.273425E-2],"categories":[],"categories_nodes":[],"categories_segments":[],"categories_sizes":[],"default_left":[0,0,0,0,0,0,0],"id":31,"left_children":[1,3,5,-1,-1,-1,-1],"loss_changes":[4.1464817E-2,4.1773934E-2,1.2291296E-1,0E0,0E0,0E0,0E0],"parents":[2147483647,0,0,1,1,2,2],"right_children":[2,4,6,-1,-1,-1,-1],"split_conditions":[6.4700217E0,6.461619E0,6.6880956E0,-1.2237865E-2,-1.3161188E-1,2.1547309E-1,-2.273425E-2],"split_indices":[0,0,0,0,0,0,0],"split_type":[0,0,0,0,0,0,0],"sum_hessian":[4.3E1,3.8E1,5E0,3.7E1,1E0,1E0,4E0],"tree_param":{"num_deleted":"0","num_feature":"2","num_nodes":"7","size_leaf_vector":"1"}},{"base_weights":[1.3454876E-2,-8.079252E-2,3.8894945E-1,-1.3671723E-2,-6.206619E-1,-2.7518865E-1,4.1885167E-1],"categories":[],"categories_nodes":[],"categories_segments":[],"categories_sizes":[],"default_left":[0,0,0,0,0,0,0],"id":32,"left_children":[1,3,5,-1,-1,-1,-1],"loss_changes":[1.5885571E0,1.5806669E0,1.0680761E0,0E0,0E0,0E0,0E0],"parents":[2147483647,0,0,1,1,2,2],"right_children":[2,4,6,-1,-1,-1,-1],"split_conditions":[6.244223E0,6.188512E0,1.9428642E0,-1.3671723E-2,-6.206619E-1,-2.7518865E-1,4.1885167E-1],"split_indices":[0,0,1,0,0,0,0],"split_type":[0,0,0,0,0,0,0],"sum_hessian":[4.3E1,3.5E1,8E0,3.3E1,2E0,1E0,7E0],"tree_param":{"num_deleted":"0","num_feature":"2","num_nodes":"7","size_leaf_vector":"1"}},{"base_weights":[1.1829897E-1,8.2222694E-1,-1.1292181E-1,-1.2402993E-1,9.6646464E-1,-2.0950282E0,1.0042534E-1],"categories":[],"categories_nodes":[],"categories_segments":[],"categories_sizes":[],"default_left":[0,0,0,0,0,0,0],"id":33,"left_children":[1,3,5,-1,-1,-1,-1],"loss_changes":[7.25441E0,4.3351912E0,2.0644823E1,0E0,0E0,0E0,0E0],"parents":[2147483647,0,0,1,1,2,2],"right_children":[2,4,6,-1,-1,-1,-1],"split_conditions":[1.8767903E0,1.2986301E0,1.9428642E0,-1.2402993E-1,9.6646464E-1,-2.0950282E0,1.0042534E-1],"split_indices":[1,1,1,0,0,0,0],"split_type":[0,0,0,0,0,0,0],"sum_hessian":[4.3E1,1E1,3.3E1,3E0,7E0,2E0,3.1E1],"tree_param":{"num_deleted":"0","num_feature":"2","num_nodes":"7","size_leaf_vector":"1"}},{"base_weights":[3.860315E-3,-1.5729135E-1,3.259063E-1,-2.2930868E-1,6.040854E-1,5.136087E-1,-5.6310713E-1],"categories":[],"categories_nodes":[],"categories_segments":[],"categories_sizes":[],"default_left":[0,0,0,0,0,0,0],"id":34,"left_children":[1,3,5,-1,-1,-1,-1],"loss_changes":[2.3347852E0,3.7568507E0,5.3347216E0,0E0,0E0,0E0,0E0],"parents":[2147483647,0,0,1,1,2,2],"right_children":[2,4,6,-1,-1,-1,-1],"split_conditions":[4.1875997E0,6.4700217E0,5.4773045E0,-2.2930868E-1,6.040854E-1,5.136087E-1,-5.6310713E-1],"split_indices":[1,0,0,0,0,0,0],"split_type":[0,0,0,0,0,0,0],"sum_hessian":[4.3E1,2.9E1,1.4E1,2.6E1,3E0,1.1E1,3E0],"tree_param":{"num_deleted":"0","num_feature":"2","num_nodes":"7","size_leaf_vector":"1"}},{"base_weights":[2.108531E-2,4.648383E-1,-1.2310199E-1,7.640057E-2,4.7312185E-1,-8.0125946E-1,1.4857543E-1],"categories":[],"categories_nodes":[],"categories_segments":[],"categories_sizes":[],"default_left":[0,0,0,0,0,0,0],"id":35,"left_children":[1,3,5,-1,-1,-1,-1],"loss_changes":[2.8724983E0,4.5771384E-1,9.409904E0,0E0,0E0,0E0,0E0],"parents":[2147483647,0,0,1,1,2,2],"right_children":[2,4,6,-1,-1,-1,-1],"split_conditions":[1.8767903E0,1.2986301E0,2.8489735E0,7.640057E-2,4.7312185E-1,-8.0125946E-1,1.4857543E-1],"split_indices":[1,1,1,0,0,0,0],"split_type":[0,0,0,0,0,0,0],"sum_hessian":[4.3E1,1E1,3.3E1,3E0,7E0,8E0,2.5E1],"tree_param":{"num_deleted":"0","num_feature":"2","num_nodes":"7","size_leaf_vector":"1"}},{"base_weights":[-4.281181E-3,-5.348915E-2,3.3990492E-3,-6.7801448E-3,-4.8637524E-2,3.4829434E-2,-9.2409406E-4],"categories":[],"categories_nodes":[],"categories_segments":[],"categories_sizes":[],"default_left":[0,0,0,0,0,0,0],"id":36,"left_children":[1,3,5,-1,-1,-1,-1],"loss_changes":[1.6810669E-2,1.45844E-3,7.1792547E-3,0E0,0E0,0E0,0E0],"parents":[2147483647,0,0,1,1,2,2],"right_children":[2,4,6,-1,-1,-1,-1],"split_conditions":[2.0014002E0,5.826454E-1,2.5792854E0,-6.7801448E-3,-4.8637524E-2,3.4829434E-2,-9.2409406E-4],"split_indices":[0,0,0,0,0,0,0],"split_type":[0,0,0,0,0,0,0],"sum_hessian":[4.3E1,5E0,3.8E1,1E0,4E0,3E0,3.5E1],"tree_param":{"num_deleted":"0","num_feature":"2","num_nodes":"7","size_leaf_vector":"1"}},{"base_weights":[-3.3349015E-3,-1.3172371E-2,7.657863E-4,-6.4202854E-3,-2.9974619E-2,2.6553525E-2,-1.0807393E-3],"categories":[],"categories_nodes":[],"categories_segments":[],"categories_sizes":[],"default_left":[0,0,0,0,0,0,0],"id":37,"left_children":[1,3,5,-1,-1,-1,-1],"loss_changes":[1.7850646E-3,1.3249712E-3,2.2412143E-3,0E0,0E0,0E0,0E0],"parents":[2147483647,0,0,1,1,2,2],"right_children":[2,4,6,-1,-1,-1,-1],"split_conditions":[1.9428642E0,6.206935E0,1.945782E0,-6.4202854E-3,-2.9974619E-2,2.6553525E-2,-1.0807393E-3],"split_indices":[1,0,1,0,0,0,0],"split_type":[0,0,0,0,0,0,0],"sum_hessian":[4.3E1,1.2E1,3.1E1,1.1E1,1E0,1E0,3E1],"tree_param":{"num_deleted":"0","num_feature":"2","num_nodes":"7","size_leaf_vector":"1"}},{"base_weights":[-2.786906E-3,2.0631049E-3,-5.580647E-2,-6.078955E-3,4.9040273E-2],"categories":[],"categories_nodes":[],"categories_segments":[],"categories_sizes":[],"default_left":[0,0,0,0,0],"id":38,"left_children":[1,3,-1,-1,-1],"loss_changes":[1.44356E-2,2.4504006E-2,0E0,0E0,0E0],"parents":[2147483647,0,0,1,1],"right_children":[2,4,-1,-1,-1],"split_conditions":[7.133571E0,6.288983E0,-5.580647E-2,-6.078955E-3,4.9040273E-2],"split_indices":[0,0,0,0,0],"split_type":[0,0,0,0,0],"sum_hessian":[4.3E1,4.1E1,2E0,3.6E1,5E0],"tree_param":{"num_deleted":"0","num_feature":"2","num_nodes":"5","size_leaf_vector":"1"}},{"base_weights":[-1.2240459E-3,-9.1628864E-2,4.074747E-3,5.265051E-2,-1.1362758E-2],"categories":[],"categories_nodes":[],"categories_segments":[],"categories_sizes":[],"default_left":[0,0,0,0,0],"id":39,"left_children":[1,-1,3,-1,-1],"loss_changes":[2.6885055E-2,0E0,4.9458828E-2,0E0,0E0],"parents":[2147483647,0,0,2,2],"right_children":[2,-1,4,-1,-1],"split_conditions":[6.975239E-1,-9.1628864E-2,1.8767903E0,5.265051E-2,-1.1362758E-2],"split_indices":[1,0,1,0,0],"split_type":[0,0,0,0,0],"sum_hessian":[4.3E1,1E0,4.2E1,9E0,3.3E1],"tree_param":{"num_deleted":"0","num_feature":"2","num_nodes":"5","size_leaf_vector":"1"}},{"base_weights":[-8.46061E-3,-4.8552534E-1,3.448698E-2,4.808289E-1,-7.093107E-3],"categories":[],"categories_nodes":[],"categories_segments":[],"categories_sizes":[],"default_left":[0,0,0,0,0],"id":40,"left_children":[1,-1,3,-1,-1],"loss_changes":[1.1518102E0,0E0,1.0369252E0,0E0,0E0],"parents":[2147483647,0,0,2,2],"right_children":[2,-1,4,-1,-1],"split_conditions":[1.0633225E0,-4.8552534E-1,1.3047113E0,4.808289E-1,-7.093107E-3],"split_indices":[1,0,1,0,0],"split_type":[0,0,0,0,0],"sum_hessian":[4.3E1,2E0,4.1E1,2E0,3.9E1],"tree_param":{"num_deleted":"0","num_feature":"2","num_nodes":"5","size_leaf_vector":"1"}},{"base_weights":[-2.5258695E-3,5.3821903E-2,-7.9055274E-1,-2.1444123E-2,6.6118425E-1,-7.7706E-1,-1.7160335E-1],"categories":[],"categories_nodes":[],"categories_segments":[],"categories_sizes":[],"default_left":[0,0,0,0,0,0,0],"id":41,"left_children":[1,3,5,-1,-1,-1,-1],"loss_changes":[1.9963056E0,2.638635E0,1.0404742E-1,0E0,0E0,0E0,0E0],"parents":[2147483647,0,0,1,1,2,2],"right_children":[2,4,6,-1,-1,-1,-1],"split_conditions":[7.133571E0,6.4700217E0,7.24892E0,-2.1444123E-2,6.6118425E-1,-7.7706E-1,-1.7160335E-1],"split_indices":[0,0,0,0,0,0,0],"split_type":[0,0,0,0,0,0,0],"sum_hessian":[4.3E1,4.1E1,2E0,3.8E1,3E0,1E0,1E0],"tree_param":{"num_deleted":"0","num_feature":"2","num_nodes":"7","size_leaf_vector":"1"}},{"base_weights":[8.16474E-3,4.5009306E-1,-1.3505222E-1,3.8266116E-1,6.7103766E-2,-1.4967811E0,2.5528843E-2],"categories":[],"categories_nodes":[],"categories_segments":[],"categories_sizes":[],"default_left":[0,0,0,0,0,0,0],"id":42,"left_children":[1,3,5,-1,-1,-1,-1],"loss_changes":[2.8456175E0,7.3611975E-2,9.914113E0,0E0,0E0,0E0,0E0],"parents":[2147483647,0,0,1,1,2,2],"right_children":[2,4,6,-1,-1,-1,-1],"split_conditions":[1.8767903E0,1.7955034E0,1.9428642E0,3.8266116E-1,6.7103766E-2,-1.4967811E0,2.5528843E-2],"split_indices":[1,1,1,0,0,0,0],"split_type":[0,0,0,0,0,0,0],"sum_hessian":[4.3E1,1E1,3.3E1,9E0,1E0,2E0,3.1E1],"tree_param":{"num_deleted":"0","num_feature":"2","num_nodes":"7","size_leaf_vector":"1"}},{"base_weights":[1.8724583E-3,8.8697225E-1,-4.9652148E-2,1.00657E-1,-3.37696E-1],"categories":[],"categories_nodes":[],"categories_segments":[],"categories_sizes":[],"default_left":[0,0,0,0,0],"id":43,"left_children":[1,-1,3,-1,-1],"loss_changes":[2.5643544E0,0E0,2.863514E0,0E0,0E0],"parents":[2147483647,0,0,2,2],"right_children":[2,-1,4,-1,-1],"split_conditions":[5.826454E-1,8.8697225E-1,4.1875997E0,1.00657E-1,-3.37696E-1],"split_indices":[0,0,1,0,0],"split_type":[0,0,0,0,0],"sum_hessian":[4.3E1,1E0,4.2E1,2.9E1,1.3E1],"tree_param":{"num_deleted":"0","num_feature":"2","num_nodes":"5","size_leaf_vector":"1"}},{"base_weights":[-1.3451534E-3,-8.233074E-3,3.0679623E-2,9.864962E-3,-1.3926096E-2,-7.353129E-2,4.905888E-2],"categories":[],"categories_nodes":[],"categories_segments":[],"categories_sizes":[],"default_left":[0,0,0,0,0,0,0],"id":44,"left_children":[1,3,5,-1,-1,-1,-1],"loss_changes":[9.958289E-3,7.19537E-3,3.5690583E-2,0E0,0E0,0E0,0E0],"parents":[2147483647,0,0,1,1,2,2],"right_children":[2,4,6,-1,-1,-1,-1],"split_conditions":[6.288983E0,1.910454E0,1.9428642E0,9.864962E-3,-1.3926096E-2,-7.353129E-2,4.905888E-2],"split_indices":[0,1,1,0,0,0,0],"split_type":[0,0,0,0,0,0,0],"sum_hessian":[4.3E1,3.6E1,7E0,1.1E1,2.5E1,1E0,6E0],"tree_param":{"num_deleted":"0","num_feature":"2","num_nodes":"7","size_leaf_vector":"1"}},{"base_weights":[-9.152117E-4,-2.807544E-3,1.1537484E-2,-4.043001E-3,6.5462375E-3,2.2729656E-2,-3.2022612E-3],"categories":[],"categories_nodes":[],"categories_segments":[],"categories_sizes":[],"default_left":[0,0,0,0,0,0,0],"id":45,"left_children":[1,3,5,-1,-1,-1,-1],"loss_changes":[1.069236E-3,1.0041307E-3,1.6871465E-3,0E0,0E0,0E0,0E0],"parents":[2147483647,0,0,1,1,2,2],"right_children":[2,4,6,-1,-1,-1,-1],"split_conditions":[5.748225E0,6.288983E0,6.503606E0,-4.043001E-3,6.5462375E-3,2.2729656E-2,-3.2022612E-3],"split_indices":[1,0,1,0,0,0,0],"split_type":[0,0,0,0,0,0,0],"sum_hessian":[4.3E1,3.8E1,5E0,3.2E1,6E0,2E0,3E0],"tree_param":{"num_deleted":"0","num_feature":"2","num_nodes":"7","size_leaf_vector":"1"}},{"base_weights":[-8.49312E-4,-6.574555E-2,2.953352E-3,3.207875E-2,-6.4468286E-3],"categories":[],"categories_nodes":[],"categories_segments":[],"categories_sizes":[],"default_left":[0,0,0,0,0],"id":46,"left_children":[1,-1,3,-1,-1],"loss_changes":[1.385106E-2,0E0,1.7911745E-2,0E0,0E0],"parents":[2147483647,0,0,2,2],"right_children":[2,-1,4,-1,-1],"split_conditions":[6.975239E-1,-6.574555E-2,1.8767903E0,3.207875E-2,-6.4468286E-3],"split_indices":[1,0,1,0,0],"split_type":[0,0,0,0,0],"sum_hessian":[4.3E1,1E0,4.2E1,9E0,3.3E1],"tree_param":{"num_deleted":"0","num_feature":"2","num_nodes":"5","size_leaf_vector":"1"}},{"base_weights":[-1.388926E-3,-9.999593E-3,5.4811895E-2,-3.4074135E-2,1.1620565E-2,1.3382895E-1,-9.121597E-4],"categories":[],"categories_nodes":[],"categories_segments":[],"categories_sizes":[],"default_left":[0,0,0,0,0,0,0],"id":47,"left_children":[1,3,5,-1,-1,-1,-1],"loss_changes":[2.1840865E-2,3.179353E-2,3.794977E-2,0E0,0E0,0E0,0E0],"parents":[2147483647,0,0,1,1,2,2],"right_children":[2,4,6,-1,-1,-1,-1],"split_conditions":[6.4700217E0,2.7705548E0,6.6880956E0,-3.4074135E-2,1.1620565E-2,1.3382895E-1,-9.121597E-4],"split_indices":[0,1,0,0,0,0,0],"split_type":[0,0,0,0,0,0,0],"sum_hessian":[4.3E1,3.8E1,5E0,1.6E1,2.2E1,1E0,4E0],"tree_param":{"num_deleted":"0","num_feature":"2","num_nodes":"7","size_leaf_vector":"1"}},{"base_weights":[-1.9601176E-3,-1.1713579E-1,1.7091228E-1,3.3488777E-2,-8.33466E-1,-1.072789E-1,5.3549767E-1],"categories":[],"categories_nodes":[],"categories_segments":[],"categories_sizes":[],"default_left":[0,0,0,0,0,0,0],"id":48,"left_children":[1,3,5,-1,-1,-1,-1],"loss_changes":[8.960905E-1,4.0132537E0,2.826404E0,0E0,0E0,0E0,0E0],"parents":[2147483647,0,0,1,1,2,2],"right_children":[2,4,6,-1,-1,-1,-1],"split_conditions":[3.6092842E0,3.354927E0,5.27555E0,3.3488777E-2,-8.33466E-1,-1.072789E-1,5.3549767E-1],"split_indices":[1,1,0,0,0,0,0],"split_type":[0,0,0,0,0,0,0],"sum_hessian":[4.3E1,2.6E1,1.7E1,2.3E1,3E0,1.1E1,6E0],"tree_param":{"num_deleted":"0","num_feature":"2","num_nodes":"7","size_leaf_vector":"1"}},{"base_weights":[-7.526094E-3,9.054122E-2,-5.388164E-1,-1.6829427E-2,1.6875709E0,-1.4684352E0,-1.3416911E-2],"categories":[],"categories_nodes":[],"categories_segments":[],"categories_sizes":[],"default_left":[0,0,0,0,0,0,0],"id":49,"left_children":[1,3,5,-1,-1,-1,-1],"loss_changes":[2.3412826E0,8.604536E0,4.7078686E0,0E0,0E0,0E0,0E0],"parents":[2147483647,0,0,1,1,2,2],"right_children":[2,4,6,-1,-1,-1,-1],"split_conditions":[6.461619E0,6.288983E0,6.4700217E0,-1.6829427E-2,1.6875709E0,-1.4684352E0,-1.3416911E-2],"split_indices":[0,0,0,0,0,0,0],"split_type":[0,0,0,0,0,0,0],"sum_hessian":[4.3E1,3.7E1,6E0,3.6E1,1E0,1E0,5E0],"tree_param":{"num_deleted":"0","num_feature":"2","num_nodes":"7","size_leaf_vector":"1"}},{"base_weights":[-2.158267E-2,-3.6319664E-1,1.8659662E-1,2.1725087E-1,-5.872937E-1,2.6476797E-1,-6.098588E-1],"categories":[],"categories_nodes":[],"categories_segments":[],"categories_sizes":[],"default_left":[0,0,0,0,0,0,0],"id":50,"left_children":[1,3,5,-1,-1,-1,-1],"loss_changes":[3.1969173E0,4.201934E0,4.087999E0,0E0,0E0,0E0,0E0],"parents":[2147483647,0,0,1,1,2,2],"right_children":[2,4,6,-1,-1,-1,-1],"split_conditions":[4.200269E0,2.0862706E0,6.696733E0,2.1725087E-1,-5.872937E-1,2.6476797E-1,-6.098588E-1],"split_indices":[0,0,0,0,0,0,0],"split_type":[0,0,0,0,0,0,0],"sum_hessian":[4.3E1,1.6E1,2.7E1,6E0,1E1,2.4E1,3E0],"tree_param":{"num_deleted":"0","num_feature":"2","num_nodes":"7","size_leaf_vector":"1"}},{"base_weights":[1.5145571E-2,-1.7961493E-1,2.808628E-1,-2.6724395E-1,3.1268877E-1,8.840907E-1,-1.0089242E-2],"categories":[],"categories_nodes":[],"categories_segments":[],"categories_sizes":[],"default_left":[0,0,0,0,0,0,0],"id":51,"left_children":[1,3,5,-1,-1,-1,-1],"loss_changes":[2.3275013E0,2.4212809E0,4.6099687E0,0E0,0E0,0E0,0E0],"parents":[2147483647,0,0,1,1,2,2],"right_children":[2,4,6,-1,-1,-1,-1],"split_conditions":[3.5296917E0,6.244223E0,4.1875997E0,-2.6724395E-1,3.1268877E-1,8.840907E-1,-1.0089242E-2],"split_indices":[1,0,1,0,0,0,0],"split_type":[0,0,0,0,0,0,0],"sum_hessian":[4.3E1,2.5E1,1.8E1,2E1,5E0,4E0,1.4E1],"tree_param":{"num_deleted":"0","num_feature":"2","num_nodes":"7","size_leaf_vector":"1"}},{"base_weights":[-9.1751904E-4,4.061955E-3,-4.0569805E-2,-1.4051E-3,4.5492813E-2,-3.9856218E-2,-1.4271796E-3],"categories":[],"categories_nodes":[],"categories_segments":[],"categories_sizes":[],"default_left":[0,0,0,0,0,0,0],"id":52,"left_children":[1,3,5,-1,-1,-1,-1],"loss_changes":[8.852484E-3,1.2389136E-2,1.7050579E-3,0E0,0E0,0E0,0E0],"parents":[2147483647,0,0,1,1,2,2],"right_children":[2,4,6,-1,-1,-1,-1],"split_conditions":[6.6880956E0,6.288983E0,5.183143E0,-1.4051E-3,4.5492813E-2,-3.9856218E-2,-1.4271796E-3],"split_indices":[0,0,1,0,0,0,0],"split_type":[0,0,0,0,0,0,0],"sum_hessian":[4.3E1,3.9E1,4E0,3.6E1,3E0,3E0,1E0],"tree_param":{"num_deleted":"0","num_feature":"2","num_nodes":"7","size_leaf_vector":"1"}},{"base_weights":[3.176511E-4,3.150615E-3,-1.5106673E-2,1.04283965E-4,4.5960095E-2,-2.0603267E-2,-7.231807E-3],"categories":[],"categories_nodes":[],"categories_segments":[],"categories_sizes":[],"default_left":[0,0,0,0,0,0,0],"id":53,"left_children":[1,3,5,-1,-1,-1,-1],"loss_changes":[1.9702436E-3,6.2244576E-3,2.1936791E-4,0E0,0E0,0E0,0E0],"parents":[2147483647,0,0,1,1,2,2],"right_children":[2,4,6,-1,-1,-1,-1],"split_conditions":[6.461619E0,6.288983E0,6.4700217E0,1.04283965E-4,4.5960095E-2,-2.0603267E-2,-7.231807E-3],"split_indices":[0,0,0,0,0,0,0],"split_type":[0,0,0,0,0,0,0],"sum_hessian":[4.3E1,3.7E1,6E0,3.6E1,1E0,1E0,5E0],"tree_param":{"num_deleted":"0","num_feature":"2","num_nodes":"7","size_leaf_vector":"1"}},{"base_weights":[-1.0815277E-3,-1.1835179E-2,2.0497879E-2,2.743551E-3,-4.339325E-2,-6.2468085E-3,3.6993627E-2],"categories":[],"categories_nodes":[],"categories_segments":[],"categories_sizes":[],"default_left":[0,0,0,0,0,0,0],"id":54,"left_children":[1,3,5,-1,-1,-1,-1],"loss_changes":[1.0453123E-2,1.9605536E-2,1.1291941E-2,0E0,0E0,0E0,0E0],"parents":[2147483647,0,0,1,1,2,2],"right_children":[2,4,6,-1,-1,-1,-1],"split_conditions":[4.1875997E0,3.3125918E0,3.385082E0,2.743551E-3,-4.339325E-2,-6.2468085E-3,3.6993627E-2],"split_indices":[1,1,0,0,0,0,0],"split_type":[0,0,0,0,0,0,0],"sum_hessian":[4.3E1,2.9E1,1.4E1,2.2E1,7E0,7E0,7E0],"tree_param":{"num_deleted":"0","num_feature":"2","num_nodes":"7","size_leaf_vector":"1"}},{"base_weights":[2.232742E-3,3.523408E-2,-8.50983E-3,-4.134767E-2,3.9275523E-2,6.27779E-2,-1.3118783E-2],"categories":[],"categories_nodes":[],"categories_segments":[],"categories_sizes":[],"default_left":[0,0,0,0,0,0,0],"id":55,"left_children":[1,3,5,-1,-1,-1,-1],"loss_changes":[1.589868E-2,1.5789356E-2,2.461668E-2,0E0,0E0,0E0,0E0],"parents":[2147483647,0,0,1,1,2,2],"right_children":[2,4,6,-1,-1,-1,-1],"split_conditions":[1.8767903E0,7.881781E-1,1.5728892E0,-4.134767E-2,3.9275523E-2,6.27779E-2,-1.3118783E-2],"split_indices":[1,0,0,0,0,0,0],"split_type":[0,0,0,0,0,0,0],"sum_hessian":[4.3E1,1E1,3.3E1,1E0,9E0,2E0,3.1E1],"tree_param":{"num_deleted":"0","num_feature":"2","num_nodes":"7","size_leaf_vector":"1"}},{"base_weights":[-8.841059E-3,7.499738E-2,-1.9385181E-1,2.0367296E-2,6.2445813E-1,-2.8941387E-1,7.226407E-2],"categories":[],"categories_nodes":[],"categories_segments":[],"categories_sizes":[],"default_left":[0,0,0,0,0,0,0],"id":56,"left_children":[1,3,5,-1,-1,-1,-1],"loss_changes":[6.97023E-1,1.0636696E0,7.0073813E-1,0E0,0E0,0E0,0E0],"parents":[2147483647,0,0,1,1,2,2],"right_children":[2,4,6,-1,-1,-1,-1],"split_conditions":[5.483422E0,5.4827228E0,3.3125918E0,2.0367296E-2,6.2445813E-1,-2.8941387E-1,7.226407E-2],"split_indices":[0,0,1,0,0,0,0],"split_type":[0,0,0,0,0,0,0],"sum_hessian":[4.3E1,3E1,1.3E1,2.9E1,1E0,8E0,5E0],"tree_param":{"num_deleted":"0","num_feature":"2","num_nodes":"7","size_leaf_vector":"1"}},{"base_weights":[2.7877877E-3,6.701757E-2,-5.11608E-1,3.204199E-3,1.0097992E0,-5.2423286E-1,2.5249768E-2],"categories":[],"categories_nodes":[],"categories_segments":[],"categories_sizes":[],"default_left":[0,0,0,0,0,0,0],"id":57,"left_children":[1,3,5,-1,-1,-1,-1],"loss_changes":[1.4880258E0,3.0075166E0,4.109044E-1,0E0,0E0,0E0,0E0],"parents":[2147483647,0,0,1,1,2,2],"right_children":[2,4,6,-1,-1,-1,-1],"split_conditions":[6.6880956E0,6.4700217E0,5.183143E0,3.204199E-3,1.0097992E0,-5.2423286E-1,2.5249768E-2],"split_indices":[0,0,1,0,0,0,0],"split_type":[0,0,0,0,0,0,0],"sum_hessian":[4.3E1,3.9E1,4E0,3.8E1,1E0,3E0,1E0],"tree_param":{"num_deleted":"0","num_feature":"2","num_nodes":"7","size_leaf_vector":"1"}},{"base_weights":[-2.056959E-2,-1.2837192E-1,1.9640638E-1,7.388839E-4,-7.75219E-1,8.69448E-1,4.4141468E-2],"categories":[],"categories_nodes":[],"categories_segments":[],"categories_sizes":[],"default_left":[0,0,0,0,0,0,0],"id":58,"left_children":[1,3,5,-1,-1,-1,-1],"loss_changes":[1.0543958E0,3.2616708E0,1.8263026E0,0E0,0E0,0E0,0E0],"parents":[2147483647,0,0,1,1,2,2],"right_children":[2,4,6,-1,-1,-1,-1],"split_conditions":[4.1875997E0,3.6092842E0,4.385098E0,7.388839E-4,-7.75219E-1,8.69448E-1,4.4141468E-2],"split_indices":[1,1,1,0,0,0,0],"split_type":[0,0,0,0,0,0,0],"sum_hessian":[4.3E1,2.9E1,1.4E1,2.6E1,3E0,1E0,1.3E1],"tree_param":{"num_deleted":"0","num_feature":"2","num_nodes":"7","size_leaf_vector":"1"}},{"base_weights":[2.3925653E-2,8.90756E-2,-5.198743E-1,1.4120382E-2,4.7984514E-1],"categories":[],"categories_nodes":[],"categories_segments":[],"categories_sizes":[],"default_left":[0,0,0,0,0],"id":59,"left_children":[1,3,-1,-1,-1],"loss_changes":[1.9893084E0,1.4850528E0,0E0,0E0,0E0],"parents":[2147483647,0,0,1,1],"right_children":[2,4,-1,-1,-1],"split_conditions":[6.696733E0,6.288983E0,-5.198743E-1,1.4120382E-2,4.7984514E-1],"split_indices":[0,0,0,0,0],"split_type":[0,0,0,0,0],"sum_hessian":[4.3E1,4E1,3E0,3.6E1,4E0],"tree_param":{"num_deleted":"0","num_feature":"2","num_nodes":"5","size_leaf_vector":"1"}},{"base_weights":[-1.1977062E-4,-2.0387067E-2,4.2655845E-3,2.064392E-3,-1.922943E-2,6.577086E-2,-1.4667794E-4],"categories":[],"categories_nodes":[],"categories_segments":[],"categories_sizes":[],"default_left":[0,0,0,0,0,0,0],"id":60,"left_children":[1,3,5,-1,-1,-1,-1],"loss_changes":[3.9976514E-3,7.3262793E-4,1.2846128E-2,0E0,0E0,0E0,0E0],"parents":[2147483647,0,0,1,1,2,2],"right_children":[2,4,6,-1,-1,-1,-1],"split_conditions":[2.5672317E0,5.826454E-1,2.5792854E0,2.064392E-3,-1.922943E-2,6.577086E-2,-1.4667794E-4],"split_indices":[0,0,0,0,0,0,0],"split_type":[0,0,0,0,0,0,0],"sum_hessian":[4.3E1,7E0,3.6E1,1E0,6E0,1E0,3.5E1],"tree_param":{"num_deleted":"0","num_feature":"2","num_nodes":"7","size_leaf_vector":"1"}},{"base_weights":[4.7783146E-4,1.9904992E-3,-1.1719076E-2,2.3110493E-5,1.5710222E-2,-1.1395712E-2,-6.4672827E-4],"categories":[],"categories_nodes":[],"categories_segments":[],"categories_sizes":[],"default_left":[0,0,0,0,0,0,0],"id":61,"left_children":[1,3,5,-1,-1,-1,-1],"loss_changes":[8.3512097E-4,1.3841164E-3,1.2626243E-4,0E0,0E0,0E0,0E0],"parents":[2147483647,0,0,1,1,2,2],"right_children":[2,4,6,-1,-1,-1,-1],"split_conditions":[6.6880956E0,6.288983E0,5.183143E0,2.3110493E-5,1.5710222E-2,-1.1395712E-2,-6.4672827E-4],"split_indices":[0,0,1,0,0,0,0],"split_type":[0,0,0,0,0,0,0],"sum_hessian":[4.3E1,3.9E1,4E0,3.6E1,3E0,3E0,1E0],"tree_param":{"num_deleted":"0","num_feature":"2","num_nodes":"7","size_leaf_vector":"1"}},{"base_weights":[-4.413663E-4,4.980279E-2,-3.347142E-3,-2.2406368E-2,3.203588E-3],"categories":[],"categories_nodes":[],"categories_segments":[],"categories_sizes":[],"default_left":[0,0,0,0,0],"id":62,"left_children":[1,-1,3,-1,-1],"loss_changes":[8.224168E-3,0E0,7.907934E-3,0E0,0E0],"parents":[2147483647,0,0,2,2],"right_children":[2,-1,4,-1,-1],"split_conditions":[5.826454E-1,4.980279E-2,2.870039E0,-2.2406368E-2,3.203588E-3],"split_indices":[0,0,0,0,0],"split_type":[0,0,0,0,0],"sum_hessian":[4.3E1,1E0,4.2E1,9E0,3.3E1],"tree_param":{"num_deleted":"0","num_feature":"2","num_nodes":"5","size_leaf_vector":"1"}},{"base_weights":[1.5280705E-3,-5.0525614E-3,4.40475E-2,-1.8820986E-2,8.233539E-3,8.55449E-2,8.067642E-3],"categories":[],"categories_nodes":[],"categories_segments":[],"categories_sizes":[],"default_left":[0,0,0,0,0,0,0],"id":63,"left_children":[1,3,5,-1,-1,-1,-1],"loss_changes":[1.2533961E-2,1.1297419E-2,1.1735926E-2,0E0,0E0,0E0,0E0],"parents":[2147483647,0,0,1,1,2,2],"right_children":[2,4,6,-1,-1,-1,-1],"split_conditions":[6.4700217E0,2.8489735E0,6.6880956E0,-1.8820986E-2,8.233539E-3,8.55449E-2,8.067642E-3],"split_indices":[0,1,0,0,0,0,0],"split_type":[0,0,0,0,0,0,0],"sum_hessian":[4.3E1,3.8E1,5E0,1.7E1,2.1E1,1E0,4E0],"tree_param":{"num_deleted":"0","num_feature":"2","num_nodes":"7","size_leaf_vector":"1"}},{"base_weights":[7.951709E-3,-2.3831517E-1,4.563503E-2,2.5714478E-1,-3.3164045E-1,5.6318086E-1,-2.3025287E-2],"categories":[],"categories_nodes":[],"categories_segments":[],"categories_sizes":[],"default_left":[0,0,0,0,0,0,0],"id":64,"left_children":[1,3,5,-1,-1,-1,-1],"loss_changes":[4.1920233E-1,7.2513187E-1,1.9309309E0,0E0,0E0,0E0,0E0],"parents":[2147483647,0,0,1,1,2,2],"right_children":[2,4,6,-1,-1,-1,-1],"split_conditions":[2.0014002E0,5.826454E-1,2.5792854E0,2.5714478E-1,-3.3164045E-1,5.6318086E-1,-2.3025287E-2],"split_indices":[0,0,0,0,0,0,0],"split_type":[0,0,0,0,0,0,0],"sum_hessian":[4.3E1,5E0,3.8E1,1E0,4E0,3E0,3.5E1],"tree_param":{"num_deleted":"0","num_feature":"2","num_nodes":"7","size_leaf_vector":"1"}},{"base_weights":[1.2239805E-2,1.2879016E-1,-2.2167687E-1,-6.7003824E-2,1.2250167E0,3.9008522E-1,-2.4573521E-1],"categories":[],"categories_nodes":[],"categories_segments":[],"categories_sizes":[],"default_left":[0,0,0,0,0,0,0],"id":65,"left_children":[1,3,5,-1,-1,-1,-1],"loss_changes":[1.2281249E0,9.070956E0,1.0593499E0,0E0,0E0,0E0,0E0],"parents":[2147483647,0,0,1,1,2,2],"right_children":[2,4,6,-1,-1,-1,-1],"split_conditions":[4.1875997E0,3.6092842E0,5.826454E-1,-6.7003824E-2,1.2250167E0,3.9008522E-1,-2.4573521E-1],"split_indices":[1,1,0,0,0,0,0],"split_type":[0,0,0,0,0,0,0],"sum_hessian":[4.3E1,2.9E1,1.4E1,2.6E1,3E0,1E0,1.3E1],"tree_param":{"num_deleted":"0","num_feature":"2","num_nodes":"7","size_leaf_vector":"1"}},{"base_weights":[-9.523535E-4,-1.7833447E-1,1.4099143E-1,-2.568318E-1,1.0132264E0,9.217469E-1,4.0680617E-2],"categories":[],"categories_nodes":[],"categories_segments":[],"categories_sizes":[],"default_left":[0,0,0,0,0,0,0],"id":66,"left_children":[1,3,5,-1,-1,-1,-1],"loss_changes":[1.1329883E0,4.5304112E0,2.2201488E0,0E0,0E0,0E0,0E0],"parents":[2147483647,0,0,1,1,2,2],"right_children":[2,4,6,-1,-1,-1,-1],"split_conditions":[2.9734154E0,6.4700217E0,3.1841908E0,-2.568318E-1,1.0132264E0,9.217469E-1,4.0680617E-2],"split_indices":[1,0,1,0,0,0,0],"split_type":[0,0,0,0,0,0,0],"sum_hessian":[4.3E1,1.9E1,2.4E1,1.8E1,1E0,1E0,2.3E1],"tree_param":{"num_deleted":"0","num_feature":"2","num_nodes":"7","size_leaf_vector":"1"}},{"base_weights":[4.1963346E-3,2.8153047E-1,-8.5652836E-2,2.210312E-2,2.9863197E-1,-1.0489131E0,2.553069E-2],"categories":[],"categories_nodes":[],"categories_segments":[],"categories_sizes":[],"default_left":[0,0,0,0,0,0,0],"id":67,"left_children":[1,3,5,-1,-1,-1,-1],"loss_changes":[1.1205165E0,2.4596298E-1,4.940428E0,0E0,0E0,0E0,0E0],"parents":[2147483647,0,0,1,1,2,2],"right_children":[2,4,6,-1,-1,-1,-1],"split_conditions":[1.8767903E0,2.0014002E0,1.9428642E0,2.210312E-2,2.9863197E-1,-1.0489131E0,2.553069E-2],"split_indices":[1,0,1,0,0,0,0],"split_type":[0,0,0,0,0,0,0],"sum_hessian":[4.3E1,1E1,3.3E1,3E0,7E0,2E0,3.1E1],"tree_param":{"num_deleted":"0","num_feature":"2","num_nodes":"7","size_leaf_vector":"1"}},{"base_weights":[1.0773897E-3,5.2783694E-3,-2.1881843E-2,8.053188E-4,6.533282E-2,-6.2257227E-2,3.2935542E-4],"categories":[],"categories_nodes":[],"categories_segments":[],"categories_sizes":[],"default_left":[0,0,0,0,0,0,0],"id":68,"left_children":[1,3,5,-1,-1,-1,-1],"loss_changes":[4.3593566E-3,1.2317447E-2,8.761693E-3,0E0,0E0,0E0,0E0],"parents":[2147483647,0,0,1,1,2,2],"right_children":[2,4,6,-1,-1,-1,-1],"split_conditions":[6.461619E0,6.288983E0,6.4700217E0,8.053188E-4,6.533282E-2,-6.2257227E-2,3.2935542E-4],"split_indices":[0,0,0,0,0,0,0],"split_type":[0,0,0,0,0,0,0],"sum_hessian":[4.3E1,3.7E1,6E0,3.6E1,1E0,1E0,5E0],"tree_param":{"num_deleted":"0","num_feature":"2","num_nodes":"7","size_leaf_vector":"1"}},{"base_weights":[1.7944876E-4,1.4070194E-3,-6.510142E-3,5.1208444E-6,2.129196E-2,-1.8646047E-2,1.3921659E-4],"categories":[],"categories_nodes":[],"categories_segments":[],"categories_sizes":[],"default_left":[0,0,0,0,0,0,0],"id":69,"left_children":[1,3,5,-1,-1,-1,-1],"loss_changes":[3.7048545E-4,1.3414838E-3,7.899926E-4,0E0,0E0,0E0,0E0],"parents":[2147483647,0,0,1,1,2,2],"right_children":[2,4,6,-1,-1,-1,-1],"split_conditions":[6.461619E0,6.288983E0,6.4700217E0,5.1208444E-6,2.129196E-2,-1.8646047E-2,1.3921659E-4],"split_indices":[0,0,0,0,0,0,0],"split_type":[0,0,0,0,0,0,0],"sum_hessian":[4.3E1,3.7E1,6E0,3.6E1,1E0,1E0,5E0],"tree_param":{"num_deleted":"0","num_feature":"2","num_nodes":"7","size_leaf_vector":"1"}},{"base_weights":[6.0718035E-4,-3.7908584E-2,4.3500066E-3,-3.42415E-2,-9.291482E-3,6.6369034E-2,2.4855376E-4],"categories":[],"categories_nodes":[],"categories_segments":[],"categories_sizes":[],"default_left":[0,0,0,0,0,0,0],"id":70,"left_children":[1,3,5,-1,-1,-1,-1],"loss_changes":[6.5078465E-3,1.7545652E-5,1.2993188E-2,0E0,0E0,0E0,0E0],"parents":[2147483647,0,0,1,1,2,2],"right_children":[2,4,6,-1,-1,-1,-1],"split_conditions":[1.2986301E0,4.441823E0,1.3047113E0,-3.42415E-2,-9.291482E-3,6.6369034E-2,2.4855376E-4],"split_indices":[1,0,1,0,0,0,0],"split_type":[0,0,0,0,0,0,0],"sum_hessian":[4.3E1,3E0,4E1,2E0,1E0,1E0,3.9E1],"tree_param":{"num_deleted":"0","num_feature":"2","num_nodes":"7","size_leaf_vector":"1"}},{"base_weights":[2.1925503E-3,2.3968436E-2,-4.9170763E-3,-1.4313221E-2,2.820688E-2,-4.4227283E-2,-3.3207052E-5],"categories":[],"categories_nodes":[],"categories_segments":[],"categories_sizes":[],"default_left":[0,0,0,0,0,0,0],"id":71,"left_children":[1,3,5,-1,-1,-1,-1],"loss_changes":[6.929865E-3,5.829493E-3,8.347012E-3,0E0,0E0,0E0,0E0],"parents":[2147483647,0,0,1,1,2,2],"right_children":[2,4,6,-1,-1,-1,-1],"split_conditions":[1.8767903E0,1.6621016E0,1.9428642E0,-1.4313221E-2,2.820688E-2,-4.4227283E-2,-3.3207052E-5],"split_indices":[1,0,1,0,0,0,0],"split_type":[0,0,0,0,0,0,0],"sum_hessian":[4.3E1,1E1,3.3E1,2E0,8E0,2E0,3.1E1],"tree_param":{"num_deleted":"0","num_feature":"2","num_nodes":"7","size_leaf_vector":"1"}},{"base_weights":[1.217356E-2,1.0638969E-1,-1.4372203E-1,3.2803465E-2,7.487177E-1,-6.249413E-1,-4.404607E-2],"categories":[],"categories_nodes":[],"categories_segments":[],"categories_sizes":[],"default_left":[0,0,0,0,0,0,0],"id":72,"left_children":[1,3,5,-1,-1,-1,-1],"loss_changes":[6.615572E-1,1.480278E0,9.1782266E-1,0E0,0E0,0E0,0E0],"parents":[2147483647,0,0,1,1,2,2],"right_children":[2,4,6,-1,-1,-1,-1],"split_conditions":[3.7872632E0,3.6092842E0,3.9612865E0,3.2803465E-2,7.487177E-1,-6.249413E-1,-4.404607E-2],"split_indices":[1,1,1,0,0,0,0],"split_type":[0,0,0,0,0,0,0],"sum_hessian":[4.3E1,2.7E1,1.6E1,2.6E1,1E0,1E0,1.5E1],"tree_param":{"num_deleted":"0","num_feature":"2","num_nodes":"7","size_leaf_vector":"1"}},{"base_weights":[3.2047197E-2,3.1669793E-1,-7.2433285E-2,4.702301E-2,6.542732E-1,-5.6746715E-1,1.0105764E-1],"categories":[],"categories_nodes":[],"categories_segments":[],"categories_sizes":[],"default_left":[0,0,0,0,0,0,0],"id":73,"left_children":[1,3,5,-1,-1,-1,-1],"loss_changes":[1.331519E0,1.5029829E0,4.2669888E0,0E0,0E0,0E0,0E0],"parents":[2147483647,0,0,1,1,2,2],"right_children":[2,4,6,-1,-1,-1,-1],"split_conditions":[1.910454E0,1.5853027E0,2.8489735E0,4.702301E-2,6.542732E-1,-5.6746715E-1,1.0105764E-1],"split_indices":[1,1,1,0,0,0,0],"split_type":[0,0,0,0,0,0,0],"sum_hessian":[4.3E1,1.1E1,3.2E1,8E0,3E0,7E0,2.5E1],"tree_param":{"num_deleted":"0","num_feature":"2","num_nodes":"7","size_leaf_vector":"1"}},{"base_weights":[3.887366E-2,1.5282737E-1,-1.9162533E-1,-1.2768668E-2,4.3875194E-1,-3.019012E-1,1.19918026E-1],"categories":[],"categories_nodes":[],"categories_segments":[],"categories_sizes":[],"default_left":[0,0,0,0,0,0,0],"id":74,"left_children":[1,3,5,-1,-1,-1,-1],"loss_changes":[1.184999E0,2.0119953E0,1.0081418E0,0E0,0E0,0E0,0E0],"parents":[2147483647,0,0,1,1,2,2],"right_children":[2,4,6,-1,-1,-1,-1],"split_conditions":[5.4827228E0,4.6036134E0,6.4700217E0,-1.2768668E-2,4.3875194E-1,-3.019012E-1,1.19918026E-1],"split_indices":[0,0,0,0,0,0,0],"split_type":[0,0,0,0,0,0,0],"sum_hessian":[4.3E1,2.9E1,1.4E1,2.1E1,8E0,9E0,5E0],"tree_param":{"num_deleted":"0","num_feature":"2","num_nodes":"7","size_leaf_vector":"1"}},{"base_weights":[-1.5129973E-2,5.203587E-1,-4.5735244E-2,-6.456893E-2,2.523662E-1],"categories":[],"categories_nodes":[],"categories_segments":[],"categories_sizes":[],"default_left":[0,0,0,0,0],"id":75,"left_children":[1,-1,3,-1,-1],"loss_changes":[9.260374E-1,0E0,5.686823E-1,0E0,0E0],"parents":[2147483647,0,0,2,2],"right_children":[2,-1,4,-1,-1],"split_conditions":[5.826454E-1,5.203587E-1,6.503606E0,-6.456893E-2,2.523662E-1],"split_indices":[0,0,1,0,0],"split_type":[0,0,0,0,0],"sum_hessian":[4.3E1,1E0,4.2E1,3.9E1,3E0],"tree_param":{"num_deleted":"0","num_feature":"2","num_nodes":"5","size_leaf_vector":"1"}},{"base_weights":[3.111652E-4,8.083268E-3,-1.13642765E-2,-1.0345253E-2,1.1762637E-2,-2.9903783E-2,3.8067412E-3],"categories":[],"categories_nodes":[],"categories_segments":[],"categories_sizes":[],"default_left":[0,0,0,0,0,0,0],"id":76,"left_children":[1,3,5,-1,-1,-1,-1],"loss_changes":[4.0845405E-3,3.9463434E-3,7.7277776E-3,0E0,0E0,0E0,0E0],"parents":[2147483647,0,0,1,1,2,2],"right_children":[2,4,6,-1,-1,-1,-1],"split_conditions":[5.343526E0,1.5853027E0,2.7705548E0,-1.0345253E-2,1.1762637E-2,-2.9903783E-2,3.8067412E-3],"split_indices":[0,1,1,0,0,0,0],"split_type":[0,0,0,0,0,0,0],"sum_hessian":[4.3E1,2.6E1,1.7E1,6E0,2E1,6E0,1.1E1],"tree_param":{"num_deleted":"0","num_feature":"2","num_nodes":"7","size_leaf_vector":"1"}},{"base_weights":[9.930625E-5,2.6997211E-3,-2.6238232E-3,5.893392E-4,9.472022E-3,-6.739189E-3,-1.0117124E-3],"categories":[],"categories_nodes":[],"categories_segments":[],"categories_sizes":[],"default_left":[0,0,0,0,0,0,0],"id":77,"left_children":[1,3,5,-1,-1,-1,-1],"loss_changes":[3.1865932E-4,4.0396335E-4,1.6278327E-4,0E0,0E0,0E0,0E0],"parents":[2147483647,0,0,1,1,2,2],"right_children":[2,4,6,-1,-1,-1,-1],"split_conditions":[4.8568926E0,5.748225E0,1.9428642E0,5.893392E-4,9.472022E-3,-6.739189E-3,-1.0117124E-3],"split_indices":[0,1,1,0,0,0,0],"split_type":[0,0,0,0,0,0,0],"sum_hessian":[4.3E1,2.2E1,2.1E1,1.9E1,3E0,3E0,1.8E1],"tree_param":{"num_deleted":"0","num_feature":"2","num_nodes":"7","size_leaf_vector":"1"}},{"base_weights":[6.460873E-4,4.6354868E-3,-3.1398326E-2,8.343776E-4,5.7897426E-2,-9.639621E-4,-3.0916346E-2],"categories":[],"categories_nodes":[],"categories_segments":[],"categories_sizes":[],"default_left":[0,0,0,0,0,0,0],"id":78,"left_children":[1,3,5,-1,-1,-1,-1],"loss_changes":[5.770417E-3,9.658264E-3,1.0475069E-3,0E0,0E0,0E0,0E0],"parents":[2147483647,0,0,1,1,2,2],"right_children":[2,4,6,-1,-1,-1,-1],"split_conditions":[6.6880956E0,6.4700217E0,3.3125918E0,8.343776E-4,5.7897426E-2,-9.639621E-4,-3.0916346E-2],"split_indices":[0,0,1,0,0,0,0],"split_type":[0,0,0,0,0,0,0],"sum_hessian":[4.3E1,3.9E1,4E0,3.8E1,1E0,1E0,3E0],"tree_param":{"num_deleted":"0","num_feature":"2","num_nodes":"7","size_leaf_vector":"1"}},{"base_weights":[-2.516466E-4,-3.0924965E-2,2.4975277E-3,7.22168E-2,-1.4760162E-3],"categories":[],"categories_nodes":[],"categories_segments":[],"categories_sizes":[],"default_left":[0,0,0,0,0],"id":79,"left_children":[1,-1,3,-1,-1],"loss_changes":[4.7421013E-3,0E0,1.6175292E-2,0E0,0E0],"parents":[2147483647,0,0,2,2],"right_children":[2,-1,4,-1,-1],"split_conditions":[7.881781E-1,-3.0924965E-2,1.5728892E0,7.22168E-2,-1.4760162E-3],"split_indices":[0,0,0,0,0],"split_type":[0,0,0,0,0],"sum_hessian":[4.3E1,2E0,4.1E1,1E0,4E1],"tree_param":{"num_deleted":"0","num_feature":"2","num_nodes":"5","size_leaf_vector":"1"}},{"base_weights":[4.992254E-3,-1.6845387E-1,6.0960345E-2,6.524513E-2,-6.898667E-1,3.7089083E-1,-4.848167E-2],"categories":[],"categories_nodes":[],"categories_segments":[],"categories_sizes":[],"default_left":[0,0,0,0,0,0,0],"id":80,"left_children":[1,3,5,-1,-1,-1,-1],"loss_changes":[4.3739673E-1,1.978576E0,1.6923108E0,0E0,0E0,0E0,0E0],"parents":[2147483647,0,0,1,1,2,2],"right_children":[2,4,6,-1,-1,-1,-1],"split_conditions":[2.870039E0,2.5792854E0,4.2442636E0,6.524513E-2,-6.898667E-1,3.7089083E-1,-4.848167E-2],"split_indices":[0,0,0,0,0,0,0],"split_type":[0,0,0,0,0,0,0],"sum_hessian":[4.3E1,1E1,3.3E1,8E0,2E0,7E0,2.6E1],"tree_param":{"num_deleted":"0","num_feature":"2","num_nodes":"7","size_leaf_vector":"1"}},{"base_weights":[1.1747839E-2,1.29081E-1,-1.8219782E-1,9.052776E-3,1.3234948E0,7.0968546E-2,-2.7042457E-1],"categories":[],"categories_nodes":[],"categories_segments":[],"categories_sizes":[],"default_left":[0,0,0,0,0,0,0],"id":81,"left_children":[1,3,5,-1,-1,-1,-1],"loss_changes":[1.0247936E0,5.010794E0,7.4766666E-1,0E0,0E0,0E0,0E0],"parents":[2147483647,0,0,1,1,2,2],"right_children":[2,4,6,-1,-1,-1,-1],"split_conditions":[3.7872632E0,3.6092842E0,3.009604E0,9.052776E-3,1.3234948E0,7.0968546E-2,-2.7042457E-1],"split_indices":[1,1,0,0,0,0,0],"split_type":[0,0,0,0,0,0,0],"sum_hessian":[4.3E1,2.7E1,1.6E1,2.6E1,1E0,6E0,1E1],"tree_param":{"num_deleted":"0","num_feature":"2","num_nodes":"7","size_leaf_vector":"1"}},{"base_weights":[1.3320207E-2,3.8010982E-1,-9.18574E-2,2.3594666E-2,3.3263215E-1,-5.3376365E-1,-1.365477E-2],"categories":[],"categories_nodes":[],"categories_segments":[],"categories_sizes":[],"default_left":[0,0,0,0,0,0,0],"id":82,"left_children":[1,3,5,-1,-1,-1,-1],"loss_changes":[1.7323503E0,1.1283815E-1,1.494648E0,0E0,0E0,0E0,0E0],"parents":[2147483647,0,0,1,1,2,2],"right_children":[2,4,6,-1,-1,-1,-1],"split_conditions":[1.7955034E0,7.881781E-1,1.9428642E0,2.3594666E-2,3.3263215E-1,-5.3376365E-1,-1.365477E-2],"split_indices":[1,0,1,0,0,0,0],"split_type":[0,0,0,0,0,0,0],"sum_hessian":[4.3E1,9E0,3.4E1,1E0,8E0,3E0,3.1E1],"tree_param":{"num_deleted":"0","num_feature":"2","num_nodes":"7","size_leaf_vector":"1"}},{"base_weights":[1.3068365E-2,5.3714577E-2,-2.5177202E-1,-1.0717205E-2,5.2885073E-1],"categories":[],"categories_nodes":[],"categories_segments":[],"categories_sizes":[],"default_left":[0,0,0,0,0],"id":83,"left_children":[1,3,-1,-1,-1],"loss_changes":[6.031234E-1,1.6392494E0,0E0,0E0,0E0],"parents":[2147483647,0,0,1,1],"right_children":[2,4,-1,-1,-1],"split_conditions":[6.6880956E0,6.288983E0,-2.5177202E-1,-1.0717205E-2,5.2885073E-1],"split_indices":[0,0,0,0,0],"split_type":[0,0,0,0,0],"sum_hessian":[4.3E1,3.9E1,4E0,3.6E1,3E0],"tree_param":{"num_deleted":"0","num_feature":"2","num_nodes":"5","size_leaf_vector":"1"}},{"base_weights":[-4.986692E-4,1.7238528E-2,-8.49293E-3,8.7632344E-4,3.0864099E-2,-4.148642E-2,-2.9712212E-3],"categories":[],"categories_nodes":[],"categories_segments":[],"categories_sizes":[],"default_left":[0,0,0,0,0,0,0],"id":84,"left_children":[1,3,5,-1,-1,-1,-1],"loss_changes":[6.38542E-3,4.7810194E-3,6.2317634E-3,0E0,0E0,0E0,0E0],"parents":[2147483647,0,0,1,1,2,2],"right_children":[2,4,6,-1,-1,-1,-1],"split_conditions":[1.945782E0,1.5853027E0,2.5466275E0,8.7632344E-4,3.0864099E-2,-4.148642E-2,-2.9712212E-3],"split_indices":[1,1,1,0,0,0,0],"split_type":[0,0,0,0,0,0,0],"sum_hessian":[4.3E1,1.3E1,3E1,8E0,5E0,2E0,2.8E1],"tree_param":{"num_deleted":"0","num_feature":"2","num_nodes":"7","size_leaf_vector":"1"}},{"base_weights":[7.237087E-5,4.6148399E-4,-4.3194694E-3,-3.0144953E-4,4.443249E-3],"categories":[],"categories_nodes":[],"categories_segments":[],"categories_sizes":[],"default_left":[0,0,0,0,0],"id":85,"left_children":[1,3,-1,-1,-1],"loss_changes":[9.6172684E-5,1.8139448E-4,0E0,0E0,0E0],"parents":[2147483647,0,0,1,1],"right_children":[2,4,-1,-1,-1],"split_conditions":[7.133571E0,6.288983E0,-4.3194694E-3,-3.0144953E-4,4.443249E-3],"split_indices":[0,0,0,0,0],"split_type":[0,0,0,0,0],"sum_hessian":[4.3E1,4.1E1,2E0,3.6E1,5E0],"tree_param":{"num_deleted":"0","num_feature":"2","num_nodes":"5","size_leaf_vector":"1"}},{"base_weights":[7.3946675E-4,-1.3309513E-2,1.0977588E-2,1.3642862E-2,-2.5953958E-2,6.756468E-2,1.0683249E-3],"categories":[],"categories_nodes":[],"categories_segments":[],"categories_sizes":[],"default_left":[0,0,0,0,0,0,0],"id":86,"left_children":[1,3,5,-1,-1,-1,-1],"loss_changes":[6.4748535E-3,1.1591027E-2,1.8307976E-2,0E0,0E0,0E0,0E0],"parents":[2147483647,0,0,1,1,2,2],"right_children":[2,4,6,-1,-1,-1,-1],"split_conditions":[2.8489735E0,4.284891E0,3.1841908E0,1.3642862E-2,-2.5953958E-2,6.756468E-2,1.0683249E-3],"split_indices":[1,0,1,0,0,0,0],"split_type":[0,0,0,0,0,0,0],"sum_hessian":[4.3E1,1.8E1,2.5E1,7E0,1.1E1,2E0,2.3E1],"tree_param":{"num_deleted":"0","num_feature":"2","num_nodes":"7","size_leaf_vector":"1"}},{"base_weights":[8.5457397E-4,-2.984984E-3,2.5669273E-2,1.8815566E-2,-4.6776044E-3,5.1930618E-2,3.8702548E-3],"categories":[],"categories_nodes":[],"categories_segments":[],"categories_sizes":[],"default_left":[0,0,0,0,0,0,0],"id":87,"left_children":[1,3,5,-1,-1,-1,-1],"loss_changes":[4.2688316E-3,3.0959132E-3,4.5910194E-3,0E0,0E0,0E0,0E0],"parents":[2147483647,0,0,1,1,2,2],"right_children":[2,4,6,-1,-1,-1,-1],"split_conditions":[6.4700217E0,1.2986301E0,6.6880956E0,1.8815566E-2,-4.6776044E-3,5.1930618E-2,3.8702548E-3],"split_indices":[0,1,0,0,0,0,0],"split_type":[0,0,0,0,0,0,0],"sum_hessian":[4.3E1,3.8E1,5E0,3E0,3.5E1,1E0,4E0],"tree_param":{"num_deleted":"0","num_feature":"2","num_nodes":"7","size_leaf_vector":"1"}},{"base_weights":[-5.8700726E-3,4.4691976E-2,-1.4442654E-1,-2.4884239E-1,7.2507925E-2,-4.9638137E-1,1.0264941E-2],"categories":[],"categories_nodes":[],"categories_segments":[],"categories_sizes":[],"default_left":[0,0,0,0,0,0,0],"id":88,"left_children":[1,3,5,-1,-1,-1,-1],"loss_changes":[3.1470546E-1,5.67543E-1,9.063122E-1,0E0,0E0,0E0,0E0],"parents":[2147483647,0,0,1,1,2,2],"right_children":[2,4,6,-1,-1,-1,-1],"split_conditions":[4.6609364E0,1.6621016E0,5.183143E0,-2.4884239E-1,7.2507925E-2,-4.9638137E-1,1.0264941E-2],"split_indices":[1,0,1,0,0,0,0],"split_type":[0,0,0,0,0,0,0],"sum_hessian":[4.3E1,3.2E1,1.1E1,3E0,2.9E1,2E0,9E0],"tree_param":{"num_deleted":"0","num_feature":"2","num_nodes":"7","size_leaf_vector":"1"}},{"base_weights":[2.810151E-2,-4.1666415E-2,3.4726548E-1,1.3794965E-1,-1.01880446E-1,-6.3217545E-1,4.981214E-1],"categories":[],"categories_nodes":[],"categories_segments":[],"categories_sizes":[],"default_left":[0,0,0,0,0,0,0],"id":89,"left_children":[1,3,5,-1,-1,-1,-1],"loss_changes":[9.942351E-1,7.0073503E-1,2.9980135E0,0E0,0E0,0E0,0E0],"parents":[2147483647,0,0,1,1,2,2],"right_children":[2,4,6,-1,-1,-1,-1],"split_conditions":[6.288983E0,1.8767903E0,1.9428642E0,1.3794965E-1,-1.01880446E-1,-6.3217545E-1,4.981214E-1],"split_indices":[0,1,1,0,0,0,0],"split_type":[0,0,0,0,0,0,0],"sum_hessian":[4.3E1,3.6E1,7E0,1E1,2.6E1,1E0,6E0],"tree_param":{"num_deleted":"0","num_feature":"2","num_nodes":"7","size_leaf_vector":"1"}},{"base_weights":[-1.6812194E-3,3.9809626E-2,-4.2654204E-1,-9.067547E-3,5.5313003E-1,1.261251E-1,-5.390616E-1],"categories":[],"categories_nodes":[],"categories_segments":[],"categories_sizes":[],"default_left":[0,0,0,0,0,0,0],"id":90,"left_children":[1,3,5,-1,-1,-1,-1],"loss_changes":[7.9260516E-1,1.3741869E0,6.84087E-1,0E0,0E0,0E0,0E0],"parents":[2147483647,0,0,1,1,2,2],"right_children":[2,4,6,-1,-1,-1,-1],"split_conditions":[6.696733E0,6.4700217E0,3.3125918E0,-9.067547E-3,5.5313003E-1,1.261251E-1,-5.390616E-1],"split_indices":[0,0,1,0,0,0,0],"split_type":[0,0,0,0,0,0,0],"sum_hessian":[4.3E1,4E1,3E0,3.8E1,2E0,1E0,2E0],"tree_param":{"num_deleted":"0","num_feature":"2","num_nodes":"7","size_leaf_vector":"1"}},{"base_weights":[8.667439E-3,1.7017691E-1,-6.455192E-2,3.8149394E-2,3.715845E-1,-4.7887918E-1,2.93892E-2],"categories":[],"categories_nodes":[],"categories_segments":[],"categories_sizes":[],"default_left":[0,0,0,0,0,0,0],"id":91,"left_children":[1,3,5,-1,-1,-1,-1],"loss_changes":[5.3131247E-1,4.8254082E-1,1.6988666E0,0E0,0E0,0E0,0E0],"parents":[2147483647,0,0,1,1,2,2],"right_children":[2,4,6,-1,-1,-1,-1],"split_conditions":[3.0528495E0,2.870039E0,4.2442636E0,3.8149394E-2,3.715845E-1,-4.7887918E-1,2.93892E-2],"split_indices":[0,0,0,0,0,0,0],"split_type":[0,0,0,0,0,0,0],"sum_hessian":[4.3E1,1.3E1,3E1,1E1,3E0,4E0,2.6E1],"tree_param":{"num_deleted":"0","num_feature":"2","num_nodes":"7","size_leaf_vector":"1"}},{"base_weights":[-3.887608E-4,4.3436163E-3,-1.0839826E-2,-2.0442205E-2,5.829252E-3,-9.144529E-3,-1.2635946E-3],"categories":[],"categories_nodes":[],"categories_segments":[],"categories_sizes":[],"default_left":[0,0,0,0,0,0,0],"id":92,"left_children":[1,3,5,-1,-1,-1,-1],"loss_changes":[2.223253E-3,2.9136795E-3,5.854387E-5,0E0,0E0,0E0,0E0],"parents":[2147483647,0,0,1,1,2,2],"right_children":[2,4,6,-1,-1,-1,-1],"split_conditions":[4.385098E0,1.5728892E0,6.696733E0,-2.0442205E-2,5.829252E-3,-9.144529E-3,-1.2635946E-3],"split_indices":[1,0,0,0,0,0,0],"split_type":[0,0,0,0,0,0,0],"sum_hessian":[4.3E1,3E1,1.3E1,2E0,2.8E1,1.2E1,1E0],"tree_param":{"num_deleted":"0","num_feature":"2","num_nodes":"7","size_leaf_vector":"1"}},{"base_weights":[1.04372475E-5,6.6885725E-4,-3.5653338E-3,-6.6806984E-5,1.14025595E-2,-1.0269252E-2,9.543896E-5],"categories":[],"categories_nodes":[],"categories_segments":[],"categories_sizes":[],"default_left":[0,0,0,0,0,0,0],"id":93,"left_children":[1,3,5,-1,-1,-1,-1],"loss_changes":[1.059765E-4,3.8956534E-4,2.4065893E-4,0E0,0E0,0E0,0E0],"parents":[2147483647,0,0,1,1,2,2],"right_children":[2,4,6,-1,-1,-1,-1],"split_conditions":[6.461619E0,6.288983E0,6.4700217E0,-6.6806984E-5,1.14025595E-2,-1.0269252E-2,9.543896E-5],"split_indices":[0,0,0,0,0,0,0],"split_type":[0,0,0,0,0,0,0],"sum_hessian":[4.3E1,3.7E1,6E0,3.6E1,1E0,1E0,5E0],"tree_param":{"num_deleted":"0","num_feature":"2","num_nodes":"7","size_leaf_vector":"1"}},{"base_weights":[1.4279343E-3,-9.017749E-3,1.2283515E-2,2.9021144E-2,-1.0180403E-2,3.8909085E-2,1.2024695E-3],"categories":[],"categories_nodes":[],"categories_segments":[],"categories_sizes":[],"default_left":[0,0,0,0,0,0,0],"id":94,"left_children":[1,3,5,-1,-1,-1,-1],"loss_changes":[5.100104E-3,4.3242495E-3,8.548677E-3,0E0,0E0,0E0,0E0],"parents":[2147483647,0,0,1,1,2,2],"right_children":[2,4,6,-1,-1,-1,-1],"split_conditions":[4.8568926E0,5.826454E-1,5.343526E0,2.9021144E-2,-1.0180403E-2,3.8909085E-2,1.2024695E-3],"split_indices":[0,0,0,0,0,0,0],"split_type":[0,0,0,0,0,0,0],"sum_hessian":[4.3E1,2.2E1,2.1E1,1E0,2.1E1,4E0,1.7E1],"tree_param":{"num_deleted":"0","num_feature":"2","num_nodes":"7","size_leaf_vector":"1"}},{"base_weights":[1.7604328E-3,-1.8201774E-2,3.4694213E-3,4.520111E-2,6.383007E-4],"categories":[],"categories_nodes":[],"categories_segments":[],"categories_sizes":[],"default_left":[0,0,0,0,0],"id":95,"left_children":[1,-1,3,-1,-1],"loss_changes":[1.9221776E-3,0E0,5.9053656E-3,0E0,0E0],"parents":[2147483647,0,0,2,2],"right_children":[2,-1,4,-1,-1],"split_conditions":[7.881781E-1,-1.8201774E-2,1.5728892E0,4.520111E-2,6.383007E-4],"split_indices":[0,0,0,0,0],"split_type":[0,0,0,0,0],"sum_hessian":[4.3E1,2E0,4.1E1,1E0,4E1],"tree_param":{"num_deleted":"0","num_feature":"2","num_nodes":"5","size_leaf_vector":"1"}}]},"name":"gbtree"},"learner_model_param":{"base_score":"1.6148525E0","boost_from_average":"1","num_class":"0","num_feature":"2","num_target":"8"},"objective":{"name":"reg:squarederror","reg_loss_param":{"scale_pos_weight":"1"}}},"version":[2,1,2]}