{"learner":{"attributes":{"best_iteration":"35","best_score":"1.5859774299100609"},"feature_names":[],"feature_types":[],"gradient_booster":{"model":{"gbtree_model_param":{"num_parallel_tree":"1","num_trees":"368"},"iteration_indptr":[0,8,16,24,32,40,48,56,64,72,80,88,96,104,112,120,128,136,144,152,160,168,176,184,192,200,208,216,224,232,240,248,256,264,272,280,288,296,304,312,320,328,336,344,352,360,368],"tree_info":[0,1,2,3,4,5,6,7,0,1,2,3,4,5,6,7,0,1,2,3,4,5,6,7,0,1,2,3,4,5,6,7,0,1,2,3,4,5,6,7,0,1,2,3,4,5,6,7,0,1,2,3,4,5,6,7,0,1,2,3,4,5,6,7,0,1,2,3,4,5,6,7,0,1,2,3,4,5,6,7,0,1,2,3,4,5,6,7,0,1,2,3,4,5,6,7,0,1,2,3,4,5,6,7,0,1,2,3,4,5,6,7,0,1,2,3,4,5,6,7,0,1,2,3,4,5,6,7,0,1,2,3,4,5,6,7,0,1,2,3,4,5,6,7,0,1,2,3,4,5,6,7,0,1,2,3,4,5,6,7,0,1,2,3,4,5,6,7,0,1,2,3,4,5,6,7,0,1,2,3,4,5,6,7,0,1,2,3,4,5,6,7,0,1,2,3,4,5,6,7,0,1,2,3,4,5,6,7,0,1,2,3,4,5,6,7,0,1,2,3,4,5,6,7,0,1,2,3,4,5,6,7,0,1,2,3,4,5,6,7,0,1,2,3,4,5,6,7,0,1,2,3,4,5,6,7,0,1,2,3,4,5,6,7,0,1,2,3,4,5,6,7,0,1,2,3,4,5,6,7,0,1,2,3,4,5,6,7,0,1,2,3,4,5,6,7,0,1,2,3,4,5,6,7,0,1,2,3,4,5,6,7,0,1,2,3,4,5,6,7,0,1,2,3,4,5,6,7,0,1,2,3,4,5,6,7,0,1,2,3,4,5,6,7,0,1,2,3,4,5,6,7,0,1,2,3,4,5,6,7,0,1,2,3,4,5,6,7],"trees":[{"base_weights":[-4.373295E0,-2.9825232E0,-3.0530727E0,-3.7995875E-1,-1.303685E0],"categories":[],"categories_nodes":[],"categories_segments":[],"categories_sizes":[],"default_left":[0,0,0,0,0],"id":0,"left_children":[1,-1,3,-1,-1],"loss_changes":[1.3597552E2,0E0,9.476959E0,0E0,0E0],"parents":[2147483647,0,0,2,2],"right_children":[2,-1,4,-1,-1],"split_conditions":[8.857725E0,-2.9825232E0,1.9782723E0,-3.7995875E-1,-1.303685E0],"split_indices":[1,0,0,0,0],"split_type":[0,0,0,0,0],"sum_hessian":[3.8E1,1E1,2.8E1,3E0,2.5E1],"tree_param":{"num_deleted":"0","num_feature":"2","num_nodes":"5","size_leaf_vector":"1"}},{"base_weights":[2.1569743E0,-6.0007006E-1,2.8673704E0,6.9188796E-2,1.3838876E0],"categories":[],"categories_nodes":[],"categories_segments":[],"categories_sizes":[],"default_left":[0,0,0,0,0],"id":1,"left_children":[1,-1,3,-1,-1],"loss_changes":[1.056245E2,0E0,5.2070404E1,0E0,0E0],"parents":[2147483647,0,0,2,2],"right_children":[2,-1,4,-1,-1],"split_conditions":[5.6203904E0,-6.0007006E-1,3.651018E0,6.9188796E-2,1.3838876E0],"split_indices":[1,0,0,0,0],"split_type":[0,0,0,0,0],"sum_hessian":[3.8E1,6E0,3.2E1,6E0,2.6E1],"tree_param":{"num_deleted":"0","num_feature":"2","num_nodes":"5","size_leaf_vector":"1"}},{"base_weights":[3.788819E0,1.4816685E0,1.9037371E0,3.924752E-1,7.6081246E-1],"categories":[],"categories_nodes":[],"categories_segments":[],"categories_sizes":[],"default_left":[0,0,0,0,0],"id":2,"left_children":[1,3,-1,-1,-1],"loss_changes":[8.027484E1,8.6873245E-1,0E0,0E0,0E0],"parents":[2147483647,0,0,1,1],"right_children":[2,4,-1,-1,-1],"split_conditions":[1.1133441E1,6.266857E0,1.9037371E0,3.924752E-1,7.6081246E-1],"split_indices":[1,1,0,0,0],"split_type":[0,0,0,0,0],"sum_hessian":[3.8E1,1.2E1,2.6E1,7E0,5E0],"tree_param":{"num_deleted":"0","num_feature":"2","num_nodes":"5","size_leaf_vector":"1"}},{"base_weights":[-3.0992641E0,-2.917784E0,-2.115457E0,-1.4330167E0,-6.0107535E-1],"categories":[],"categories_nodes":[],"categories_segments":[],"categories_sizes":[],"default_left":[0,0,0,0,0],"id":3,"left_children":[1,-1,3,-1,-1],"loss_changes":[1.455322E2,0E0,2.428302E1,0E0,0E0],"parents":[2147483647,0,0,2,2],"right_children":[2,-1,4,-1,-1],"split_conditions":[5.6203904E0,-2.917784E0,4.429133E0,-1.4330167E0,-6.0107535E-1],"split_indices":[1,0,0,0,0],"split_type":[0,0,0,0,0],"sum_hessian":[3.8E1,6E0,3.2E1,8E0,2.4E1],"tree_param":{"num_deleted":"0","num_feature":"2","num_nodes":"5","size_leaf_vector":"1"}},{"base_weights":[3.3350307E-1,1.665919E-1,2.860308E-1,9.38636E-2,1.4736368E-1],"categories":[],"categories_nodes":[],"categories_segments":[],"categories_sizes":[],"default_left":[0,0,0,0,0],"id":4,"left_children":[1,-1,3,-1,-1],"loss_changes":[3.4498215E-2,0E0,3.2043457E-2,0E0,0E0],"parents":[2147483647,0,0,2,2],"right_children":[2,-1,4,-1,-1],"split_conditions":[4.6046233E0,1.665919E-1,2.7822056E1,9.38636E-2,1.4736368E-1],"split_indices":[0,0,0,0,0],"split_type":[0,0,0,0,0],"sum_hessian":[3.8E1,1.1E1,2.7E1,1.9E1,8E0],"tree_param":{"num_deleted":"0","num_feature":"2","num_nodes":"5","size_leaf_vector":"1"}},{"base_weights":[2.8538826E-1,8.2436286E-2,1.3741748E-1],"categories":[],"categories_nodes":[],"categories_segments":[],"categories_sizes":[],"default_left":[0,0,0],"id":5,"left_children":[1,-1,-1],"loss_changes":[1.0905051E-1,0E0,0E0],"parents":[2147483647,0,0],"right_children":[2,-1,-1],"split_conditions":[1.7841156E1,8.2436286E-2,1.3741748E-1],"split_indices":[1,0,0],"split_type":[0,0,0],"sum_hessian":[3.8E1,1.8E1,2E1],"tree_param":{"num_deleted":"0","num_feature":"2","num_nodes":"3","size_leaf_vector":"1"}},{"base_weights":[6.0440713E-1],"categories":[],"categories_nodes":[],"categories_segments":[],"categories_sizes":[],"default_left":[0],"id":6,"left_children":[-1],"loss_changes":[0E0],"parents":[2147483647],"right_children":[-1],"split_conditions":[2.4176286E-1],"split_indices":[0],"split_type":[0],"sum_hessian":[3.8E1],"tree_param":{"num_deleted":"0","num_feature":"2","num_nodes":"1","size_leaf_vector":"1"}},{"base_weights":[3.0346715E-1,3.783805E-1,1.0583494E-1,7.610792E-2,1.7005531E-1],"categories":[],"categories_nodes":[],"categories_segments":[],"categories_sizes":[],"default_left":[0,0,0,0,0],"id":7,"left_children":[1,3,-1,-1,-1],"loss_changes":[1.3477564E-2,1.5860915E-2,0E0,0E0,0E0],"parents":[2147483647,0,0,1,1],"right_children":[2,4,-1,-1,-1],"split_conditions":[8.857725E0,6.8420875E-1,1.0583494E-1,7.610792E-2,1.7005531E-1],"split_indices":[1,1,0,0,0],"split_type":[0,0,0,0,0],"sum_hessian":[3.8E1,1E1,2.8E1,3E0,7E0],"tree_param":{"num_deleted":"0","num_feature":"2","num_nodes":"5","size_leaf_vector":"1"}},{"base_weights":[-2.743622E0,-1.8530989E0,-1.8360106E0,-8.214534E-1,-2.7831513E-1],"categories":[],"categories_nodes":[],"categories_segments":[],"categories_sizes":[],"default_left":[0,0,0,0,0],"id":8,"left_children":[1,-1,3,-1,-1],"loss_changes":[5.836331E1,0E0,5.518982E0,0E0,0E0],"parents":[2147483647,0,0,2,2],"right_children":[2,-1,4,-1,-1],"split_conditions":[1.0525511E1,-1.8530989E0,3.149442E1,-8.214534E-1,-2.7831513E-1],"split_indices":[1,0,1,0,0],"split_type":[0,0,0,0,0],"sum_hessian":[3.8E1,1.1E1,2.7E1,2.2E1,5E0],"tree_param":{"num_deleted":"0","num_feature":"2","num_nodes":"5","size_leaf_vector":"1"}},{"base_weights":[1.3160566E0,-3.943317E-1,1.764455E0,8.925196E-2,8.995015E-1],"categories":[],"categories_nodes":[],"categories_segments":[],"categories_sizes":[],"default_left":[0,0,0,0,0],"id":9,"left_children":[1,-1,3,-1,-1],"loss_changes":[4.199376E1,0E0,2.4131477E1,0E0,0E0],"parents":[2147483647,0,0,2,2],"right_children":[2,-1,4,-1,-1],"split_conditions":[5.6203904E0,-3.943317E-1,4.429133E0,8.925196E-2,8.995015E-1],"split_indices":[1,0,0,0,0],"split_type":[0,0,0,0,0],"sum_hessian":[3.8E1,6E0,3.2E1,8E0,2.4E1],"tree_param":{"num_deleted":"0","num_feature":"2","num_nodes":"5","size_leaf_vector":"1"}},{"base_weights":[2.3516767E0,1.2684305E0,3.219772E0,2.594484E-1,6.640942E-1,9.841386E-1,1.6585181E0],"categories":[],"categories_nodes":[],"categories_segments":[],"categories_sizes":[],"default_left":[0,0,0,0,0,0,0],"id":10,"left_children":[1,3,5,-1,-1,-1,-1],"loss_changes":[3.259001E1,3.5371838E0,4.574814E0,0E0,0E0,0E0,0E0],"parents":[2147483647,0,0,1,1,2,2],"right_children":[2,4,6,-1,-1,-1,-1],"split_conditions":[1.7841156E1,6.812804E0,1.4645004E1,2.594484E-1,6.640942E-1,9.841386E-1,1.6585181E0],"split_indices":[1,1,0,0,0,0,0],"split_type":[0,0,0,0,0,0,0],"sum_hessian":[3.8E1,1.8E1,2E1,8E0,1E1,1.3E1,7E0],"tree_param":{"num_deleted":"0","num_feature":"2","num_nodes":"7","size_leaf_vector":"1"}},{"base_weights":[-1.9865297E0,-1.917401E0,-1.3309134E0,-9.234997E-1,-3.7026238E-1],"categories":[],"categories_nodes":[],"categories_segments":[],"categories_sizes":[],"default_left":[0,0,0,0,0],"id":11,"left_children":[1,-1,3,-1,-1],"loss_changes":[6.539183E1,0E0,1.0939972E1,0E0,0E0],"parents":[2147483647,0,0,2,2],"right_children":[2,-1,4,-1,-1],"split_conditions":[5.6203904E0,-1.917401E0,4.429133E0,-9.234997E-1,-3.7026238E-1],"split_indices":[1,0,0,0,0],"split_type":[0,0,0,0,0],"sum_hessian":[3.8E1,6E0,3.2E1,8E0,2.4E1],"tree_param":{"num_deleted":"0","num_feature":"2","num_nodes":"5","size_leaf_vector":"1"}},{"base_weights":[2.1055874E-1,1.5490167E-1,1.9054131E-1,1.0940903E-1,6.626285E-2],"categories":[],"categories_nodes":[],"categories_segments":[],"categories_sizes":[],"default_left":[0,0,0,0,0],"id":12,"left_children":[1,-1,3,-1,-1],"loss_changes":[6.4154506E-2,0E0,3.1091213E-2,0E0,0E0],"parents":[2147483647,0,0,2,2],"right_children":[2,-1,4,-1,-1],"split_conditions":[1.9704185E0,1.5490167E-1,5.6203904E0,1.0940903E-1,6.626285E-2],"split_indices":[0,0,1,0,0],"split_type":[0,0,0,0,0],"sum_hessian":[3.8E1,2E0,3.6E1,6E0,3E1],"tree_param":{"num_deleted":"0","num_feature":"2","num_nodes":"5","size_leaf_vector":"1"}},{"base_weights":[1.7687023E-1,5.119727E-2,2.1266992E-1,1.1215526E-1,6.351324E-2],"categories":[],"categories_nodes":[],"categories_segments":[],"categories_sizes":[],"default_left":[0,0,0,0,0],"id":13,"left_children":[1,-1,3,-1,-1],"loss_changes":[4.102111E-2,0E0,3.211063E-2,0E0,0E0],"parents":[2147483647,0,0,2,2],"right_children":[2,-1,4,-1,-1],"split_conditions":[1.7841156E1,5.119727E-2,2.4179403E1,1.1215526E-1,6.351324E-2],"split_indices":[1,0,1,0,0],"split_type":[0,0,0,0,0],"sum_hessian":[3.8E1,1.8E1,2E1,7E0,1.3E1],"tree_param":{"num_deleted":"0","num_feature":"2","num_nodes":"5","size_leaf_vector":"1"}},{"base_weights":[3.6884332E-1],"categories":[],"categories_nodes":[],"categories_segments":[],"categories_sizes":[],"default_left":[0],"id":14,"left_children":[-1],"loss_changes":[0E0],"parents":[2147483647],"right_children":[-1],"split_conditions":[1.4753734E-1],"split_indices":[0],"split_type":[0],"sum_hessian":[3.8E1],"tree_param":{"num_deleted":"0","num_feature":"2","num_nodes":"1","size_leaf_vector":"1"}},{"base_weights":[1.9110589E-1,2.6389146E-1,6.552395E-2,5.3275544E-2,1.2281784E-1],"categories":[],"categories_nodes":[],"categories_segments":[],"categories_sizes":[],"default_left":[0,0,0,0,0],"id":15,"left_children":[1,3,-1,-1,-1],"loss_changes":[3.4255505E-2,9.867072E-3,0E0,0E0,0E0],"parents":[2147483647,0,0,1,1],"right_children":[2,4,-1,-1,-1],"split_conditions":[6.812804E0,6.8420875E-1,6.552395E-2,5.3275544E-2,1.2281784E-1],"split_indices":[1,1,0,0,0],"split_type":[0,0,0,0,0],"sum_hessian":[3.8E1,8E0,3E1,3E0,5E0],"tree_param":{"num_deleted":"0","num_feature":"2","num_nodes":"5","size_leaf_vector":"1"}},{"base_weights":[-1.7218878E0,-3.362718E0,-1.1899731E0,-4.3683562E-1,-1.5421827E0,-7.024708E-1,-3.346899E-1],"categories":[],"categories_nodes":[],"categories_segments":[],"categories_sizes":[],"default_left":[0,0,0,0,0,0,0],"id":16,"left_children":[1,3,5,-1,-1,-1,-1],"loss_changes":[3.003695E1,5.8589325E0,4.730892E0,0E0,0E0,0E0,0E0],"parents":[2147483647,0,0,1,1,2,2],"right_children":[2,4,6,-1,-1,-1,-1],"split_conditions":[6.812804E0,2.883655E-1,1.7841156E1,-4.3683562E-1,-1.5421827E0,-7.024708E-1,-3.346899E-1],"split_indices":[1,1,1,0,0,0,0],"split_type":[0,0,0,0,0,0,0],"sum_hessian":[3.8E1,8E0,3E1,2E0,6E0,1E1,2E1],"tree_param":{"num_deleted":"0","num_feature":"2","num_nodes":"7","size_leaf_vector":"1"}},{"base_weights":[8.0487555E-1,-6.4783067E-1,1.0886352E0,-9.022229E-2,-3.0865178E-1,7.9923934E-1,2.4253705E-1],"categories":[],"categories_nodes":[],"categories_segments":[],"categories_sizes":[],"default_left":[0,0,0,0,0,0,0],"id":17,"left_children":[1,3,5,-1,-1,-1,-1],"loss_changes":[1.6781807E1,1.9189477E-1,1.3263168E1,0E0,0E0,0E0,0E0],"parents":[2147483647,0,0,1,1,2,2],"right_children":[2,4,6,-1,-1,-1,-1],"split_conditions":[5.6203904E0,4.6046233E0,1.7354515E1,-9.022229E-2,-3.0865178E-1,7.9923934E-1,2.4253705E-1],"split_indices":[1,0,1,0,0,0,0],"split_type":[0,0,0,0,0,0,0],"sum_hessian":[3.8E1,6E0,3.2E1,2E0,4E0,1E1,2.2E1],"tree_param":{"num_deleted":"0","num_feature":"2","num_nodes":"7","size_leaf_vector":"1"}},{"base_weights":[1.502447E0,7.2921413E-1,2.0086432E0,1.6720009E-1,3.837617E-1,5.715756E-1,1.1006539E0],"categories":[],"categories_nodes":[],"categories_segments":[],"categories_sizes":[],"default_left":[0,0,0,0,0,0,0],"id":18,"left_children":[1,3,5,-1,-1,-1,-1],"loss_changes":[1.3800148E1,8.168211E-1,5.9745407E0,0E0,0E0,0E0,0E0],"parents":[2147483647,0,0,1,1,2,2],"right_children":[2,4,6,-1,-1,-1,-1],"split_conditions":[1.7354515E1,6.812804E0,1.4645004E1,1.6720009E-1,3.837617E-1,5.715756E-1,1.1006539E0],"split_indices":[1,1,0,0,0,0,0],"split_type":[0,0,0,0,0,0,0],"sum_hessian":[3.8E1,1.6E1,2.2E1,8E0,8E0,1.4E1,8E0],"tree_param":{"num_deleted":"0","num_feature":"2","num_nodes":"7","size_leaf_vector":"1"}},{"base_weights":[-1.2742554E0,-3.1500158E0,-8.37753E-1,-5.584686E-1,-1.4289278E0,-4.7428495E-1,-1.1233147E-1],"categories":[],"categories_nodes":[],"categories_segments":[],"categories_sizes":[],"default_left":[0,0,0,0,0,0,0],"id":19,"left_children":[1,3,5,-1,-1,-1,-1],"loss_changes":[2.9293251E1,1.9700623E-1,6.0619907E0,0E0,0E0,0E0,0E0],"parents":[2147483647,0,0,1,1,2,2],"right_children":[2,4,6,-1,-1,-1,-1],"split_conditions":[5.6203904E0,2.883655E-1,1.4645004E1,-5.584686E-1,-1.4289278E0,-4.7428495E-1,-1.1233147E-1],"split_indices":[1,1,0,0,0,0,0],"split_type":[0,0,0,0,0,0,0],"sum_hessian":[3.8E1,6E0,3.2E1,2E0,4E0,1.9E1,1.3E1],"tree_param":{"num_deleted":"0","num_feature":"2","num_nodes":"7","size_leaf_vector":"1"}},{"base_weights":[1.3481149E-1,8.356928E-2,1.7475387E-1,7.1897365E-2,1.0141925E-2,1.04421094E-1,4.5183133E-2],"categories":[],"categories_nodes":[],"categories_segments":[],"categories_sizes":[],"default_left":[0,0,0,0,0,0,0],"id":20,"left_children":[1,3,5,-1,-1,-1,-1],"loss_changes":[6.521863E-2,1.0181843E-1,8.250356E-2,0E0,0E0,0E0,0E0],"parents":[2147483647,0,0,1,1,2,2],"right_children":[2,4,6,-1,-1,-1,-1],"split_conditions":[1.7841156E1,5.6203904E0,2.4179403E1,7.1897365E-2,1.0141925E-2,1.04421094E-1,4.5183133E-2],"split_indices":[1,1,1,0,0,0,0],"split_type":[0,0,0,0,0,0,0],"sum_hessian":[3.8E1,1.8E1,2E1,6E0,1.2E1,7E0,1.3E1],"tree_param":{"num_deleted":"0","num_feature":"2","num_nodes":"7","size_leaf_vector":"1"}},{"base_weights":[1.11939214E-1,9.6868195E-2,8.783742E-2,2.924352E-2,6.05327E-2],"categories":[],"categories_nodes":[],"categories_segments":[],"categories_sizes":[],"default_left":[0,0,0,0,0],"id":21,"left_children":[1,3,-1,-1,-1],"loss_changes":[4.2004287E-2,3.552112E-2,0E0,0E0,0E0],"parents":[2147483647,0,0,1,1],"right_children":[2,4,-1,-1,-1],"split_conditions":[3.267199E1,2.7093567E1,8.783742E-2,2.924352E-2,6.05327E-2],"split_indices":[1,0,0,0,0],"split_type":[0,0,0,0,0],"sum_hessian":[3.8E1,3.5E1,3E0,2.6E1,9E0],"tree_param":{"num_deleted":"0","num_feature":"2","num_nodes":"5","size_leaf_vector":"1"}},{"base_weights":[2.2508898E-1,2.636503E-2,9.2764676E-2],"categories":[],"categories_nodes":[],"categories_segments":[],"categories_sizes":[],"default_left":[0,0,0],"id":22,"left_children":[1,-1,-1],"loss_changes":[2.7068615E-2,0E0,0E0],"parents":[2147483647,0,0],"right_children":[2,-1,-1],"split_conditions":[2.883655E-1,2.636503E-2,9.2764676E-2],"split_indices":[1,0,0],"split_type":[0,0,0],"sum_hessian":[3.8E1,2E0,3.6E1],"tree_param":{"num_deleted":"0","num_feature":"2","num_nodes":"3","size_leaf_vector":"1"}},{"base_weights":[1.2085885E-1,1.779008E-1,1.00399606E-1,2.9437378E-2,7.8875825E-2,3.6005463E-2,6.693223E-2],"categories":[],"categories_nodes":[],"categories_segments":[],"categories_sizes":[],"default_left":[0,0,0,0,0,0,0],"id":23,"left_children":[1,3,5,-1,-1,-1,-1],"loss_changes":[2.7653217E-2,3.5957694E-3,6.4873695E-3,0E0,0E0,0E0,0E0],"parents":[2147483647,0,0,1,1,2,2],"right_children":[2,4,6,-1,-1,-1,-1],"split_conditions":[6.812804E0,2.883655E-1,3.2684284E1,2.9437378E-2,7.8875825E-2,3.6005463E-2,6.693223E-2],"split_indices":[1,1,1,0,0,0,0],"split_type":[0,0,0,0,0,0,0],"sum_hessian":[3.8E1,8E0,3E1,2E0,6E0,2.8E1,2E0],"tree_param":{"num_deleted":"0","num_feature":"2","num_nodes":"7","size_leaf_vector":"1"}},{"base_weights":[-1.1104707E0,-2.395969E0,-7.543938E-1,-3.5604832E-1,-1.2485815E0,-1.8808992E-1,-4.7552934E-1],"categories":[],"categories_nodes":[],"categories_segments":[],"categories_sizes":[],"default_left":[0,0,0,0,0,0,0],"id":24,"left_children":[1,3,5,-1,-1,-1,-1],"loss_changes":[1.6044209E1,5.9612846E0,3.3914318E0,0E0,0E0,0E0,0E0],"parents":[2147483647,0,0,1,1,2,2],"right_children":[2,4,6,-1,-1,-1,-1],"split_conditions":[6.266857E0,6.8420875E-1,1.6994553E1,-3.5604832E-1,-1.2485815E0,-1.8808992E-1,-4.7552934E-1],"split_indices":[1,1,0,0,0,0,0],"split_type":[0,0,0,0,0,0,0],"sum_hessian":[3.8E1,7E0,3.1E1,3E0,4E0,2E1,1.1E1],"tree_param":{"num_deleted":"0","num_feature":"2","num_nodes":"7","size_leaf_vector":"1"}},{"base_weights":[4.9940997E-1,-2.009135E-1,7.8171253E-1,1.4999409E-1,-3.357239E-1,-2.0988321E-1,4.0852484E-1],"categories":[],"categories_nodes":[],"categories_segments":[],"categories_sizes":[],"default_left":[0,0,0,0,0,0,0],"id":25,"left_children":[1,3,5,-1,-1,-1,-1],"loss_changes":[7.8674774E0,4.7265477E0,9.30039E0,0E0,0E0,0E0,0E0],"parents":[2147483647,0,0,1,1,2,2],"right_children":[2,4,6,-1,-1,-1,-1],"split_conditions":[4.6046233E0,2.0737679E1,5.6203904E0,1.4999409E-1,-3.357239E-1,-2.0988321E-1,4.0852484E-1],"split_indices":[0,1,1,0,0,0,0],"split_type":[0,0,0,0,0,0,0],"sum_hessian":[3.8E1,1.1E1,2.7E1,6E0,5E0,4E0,2.3E1],"tree_param":{"num_deleted":"0","num_feature":"2","num_nodes":"7","size_leaf_vector":"1"}},{"base_weights":[9.58473E-1,1.1480025E0,7.194562E-1,1.7035662E-1,5.760541E-1],"categories":[],"categories_nodes":[],"categories_segments":[],"categories_sizes":[],"default_left":[0,0,0,0,0],"id":26,"left_children":[1,-1,3,-1,-1],"loss_changes":[1.5753807E1,0E0,7.0030327E0,0E0,0E0],"parents":[2147483647,0,0,2,2],"right_children":[2,-1,4,-1,-1],"split_conditions":[1.9782723E0,1.1480025E0,2.7093567E1,1.7035662E-1,5.760541E-1],"split_indices":[0,0,0,0,0],"split_type":[0,0,0,0,0],"sum_hessian":[3.8E1,3E0,3.5E1,2.6E1,9E0],"tree_param":{"num_deleted":"0","num_feature":"2","num_nodes":"5","size_leaf_vector":"1"}},{"base_weights":[-8.3055353E-1,-2.1739233E0,-5.2042806E-1,-4.4136387E-1,-1.0803823E0,-4.8558673E-1,-1.2853864E-1],"categories":[],"categories_nodes":[],"categories_segments":[],"categories_sizes":[],"default_left":[0,0,0,0,0,0,0],"id":27,"left_children":[1,3,5,-1,-1,-1,-1],"loss_changes":[1.5116541E1,9.691086E-1,4.1662292E0,0E0,0E0,0E0,0E0],"parents":[2147483647,0,0,1,1,2,2],"right_children":[2,4,6,-1,-1,-1,-1],"split_conditions":[5.6203904E0,6.8420875E-1,3.651018E0,-4.4136387E-1,-1.0803823E0,-4.8558673E-1,-1.2853864E-1],"split_indices":[1,1,0,0,0,0,0],"split_type":[0,0,0,0,0,0,0],"sum_hessian":[3.8E1,6E0,3.2E1,3E0,3E0,6E0,2.6E1],"tree_param":{"num_deleted":"0","num_feature":"2","num_nodes":"7","size_leaf_vector":"1"}},{"base_weights":[8.6826466E-2,9.3647316E-2,7.253722E-2,3.3588767E-2,-6.9756783E-3],"categories":[],"categories_nodes":[],"categories_segments":[],"categories_sizes":[],"default_left":[0,0,0,0,0],"id":28,"left_children":[1,-1,3,-1,-1],"loss_changes":[6.510055E-2,0E0,3.953196E-2,0E0,0E0],"parents":[2147483647,0,0,2,2],"right_children":[2,-1,4,-1,-1],"split_conditions":[1.9704185E0,9.3647316E-2,3.0792906E1,3.3588767E-2,-6.9756783E-3],"split_indices":[0,0,0,0,0],"split_type":[0,0,0,0,0],"sum_hessian":[3.8E1,2E0,3.6E1,3.2E1,4E0],"tree_param":{"num_deleted":"0","num_feature":"2","num_nodes":"5","size_leaf_vector":"1"}},{"base_weights":[7.1717724E-2,7.704752E-2,5.997662E-2,2.7519092E-2,-1.1998777E-2],"categories":[],"categories_nodes":[],"categories_segments":[],"categories_sizes":[],"default_left":[0,0,0,0,0],"id":29,"left_children":[1,-1,3,-1,-1],"loss_changes":[4.3808356E-2,0E0,3.142938E-2,0E0,0E0],"parents":[2147483647,0,0,2,2],"right_children":[2,-1,4,-1,-1],"split_conditions":[1.9704185E0,7.704752E-2,3.1045898E1,2.7519092E-2,-1.1998777E-2],"split_indices":[0,0,0,0,0],"split_type":[0,0,0,0,0],"sum_hessian":[3.8E1,2E0,3.6E1,3.3E1,3E0],"tree_param":{"num_deleted":"0","num_feature":"2","num_nodes":"5","size_leaf_vector":"1"}},{"base_weights":[1.38108E-1,1.00921094E-1,1.21583365E-1,3.5241467E-3,5.7537716E-2],"categories":[],"categories_nodes":[],"categories_segments":[],"categories_sizes":[],"default_left":[0,0,0,0,0],"id":30,"left_children":[1,-1,3,-1,-1],"loss_changes":[4.2918205E-2,0E0,8.910817E-2,0E0,0E0],"parents":[2147483647,0,0,2,2],"right_children":[2,-1,4,-1,-1],"split_conditions":[1.9782723E0,1.00921094E-1,4.429133E0,3.5241467E-3,5.7537716E-2],"split_indices":[0,0,0,0,0],"split_type":[0,0,0,0,0],"sum_hessian":[3.8E1,3E0,3.5E1,6E0,2.9E1],"tree_param":{"num_deleted":"0","num_feature":"2","num_nodes":"5","size_leaf_vector":"1"}},{"base_weights":[7.793199E-2,4.4651456E-2,6.0707286E-2,1.1894589E-2,3.0504508E-2],"categories":[],"categories_nodes":[],"categories_segments":[],"categories_sizes":[],"default_left":[0,0,0,0,0],"id":31,"left_children":[1,-1,3,-1,-1],"loss_changes":[1.5859514E-2,0E0,1.12204105E-2,0E0,0E0],"parents":[2147483647,0,0,2,2],"right_children":[2,-1,4,-1,-1],"split_conditions":[1.0525511E1,4.4651456E-2,2.1989948E1,1.1894589E-2,3.0504508E-2],"split_indices":[1,0,1,0,0],"split_type":[0,0,0,0,0],"sum_hessian":[3.8E1,1.1E1,2.7E1,1E1,1.7E1],"tree_param":{"num_deleted":"0","num_feature":"2","num_nodes":"5","size_leaf_vector":"1"}},{"base_weights":[-7.2444266E-1,-1.2032777E0,-2.5671366E-1,-6.908322E-1,-3.3146808E-1,4.2745104E-1,-2.1478884E-1],"categories":[],"categories_nodes":[],"categories_segments":[],"categories_sizes":[],"default_left":[0,0,0,0,0,0,0],"id":32,"left_children":[1,3,5,-1,-1,-1,-1],"loss_changes":[8.425737E0,2.2970104E0,8.3740225E0,0E0,0E0,0E0,0E0],"parents":[2147483647,0,0,1,1,2,2],"right_children":[2,4,6,-1,-1,-1,-1],"split_conditions":[1.7841156E1,5.6203904E0,2.1989948E1,-6.908322E-1,-3.3146808E-1,4.2745104E-1,-2.1478884E-1],"split_indices":[1,1,1,0,0,0,0],"split_type":[0,0,0,0,0,0,0],"sum_hessian":[3.8E1,1.8E1,2E1,6E0,1.2E1,3E0,1.7E1],"tree_param":{"num_deleted":"0","num_feature":"2","num_nodes":"7","size_leaf_vector":"1"}},{"base_weights":[2.9997712E-1,-3.686026E-1,4.3270683E-1,-1.7038321E-1,-4.8939944E-3,3.882557E-1,6.264861E-2],"categories":[],"categories_nodes":[],"categories_segments":[],"categories_sizes":[],"default_left":[0,0,0,0,0,0,0],"id":33,"left_children":[1,3,5,-1,-1,-1,-1],"loss_changes":[3.6203728E0,1.3786572E-1,4.7489786E0,0E0,0E0,0E0,0E0],"parents":[2147483647,0,0,1,1,2,2],"right_children":[2,4,6,-1,-1,-1,-1],"split_conditions":[5.6203904E0,2.7259877E0,1.7354515E1,-1.7038321E-1,-4.8939944E-3,3.882557E-1,6.264861E-2],"split_indices":[1,1,1,0,0,0,0],"split_type":[0,0,0,0,0,0,0],"sum_hessian":[3.8E1,6E0,3.2E1,5E0,1E0,1E1,2.2E1],"tree_param":{"num_deleted":"0","num_feature":"2","num_nodes":"7","size_leaf_vector":"1"}},{"base_weights":[6.236585E-1,8.036017E-1,4.524074E-1,1.0473778E-1,3.686746E-1],"categories":[],"categories_nodes":[],"categories_segments":[],"categories_sizes":[],"default_left":[0,0,0,0,0],"id":34,"left_children":[1,-1,3,-1,-1],"loss_changes":[8.343549E0,0E0,2.9780412E0,0E0,0E0],"parents":[2147483647,0,0,2,2],"right_children":[2,-1,4,-1,-1],"split_conditions":[1.9782723E0,8.036017E-1,2.7093567E1,1.0473778E-1,3.686746E-1],"split_indices":[0,0,0,0,0],"split_type":[0,0,0,0,0],"sum_hessian":[3.8E1,3E0,3.5E1,2.6E1,9E0],"tree_param":{"num_deleted":"0","num_feature":"2","num_nodes":"5","size_leaf_vector":"1"}},{"base_weights":[-5.530981E-1,-1.4591576E0,-3.092989E-1,-6.9458216E-1,-2.990983E-1,-3.1909987E-1,-6.635872E-2],"categories":[],"categories_nodes":[],"categories_segments":[],"categories_sizes":[],"default_left":[0,0,0,0,0,0,0],"id":35,"left_children":[1,3,5,-1,-1,-1,-1],"loss_changes":[8.163649E0,2.7975655E-1,2.1090922E0,0E0,0E0,0E0,0E0],"parents":[2147483647,0,0,1,1,2,2],"right_children":[2,4,6,-1,-1,-1,-1],"split_conditions":[6.266857E0,1.9074427E1,3.651018E0,-6.9458216E-1,-2.990983E-1,-3.1909987E-1,-6.635872E-2],"split_indices":[1,0,0,0,0,0,0],"split_type":[0,0,0,0,0,0,0],"sum_hessian":[3.8E1,7E0,3.1E1,4E0,3E0,6E0,2.5E1],"tree_param":{"num_deleted":"0","num_feature":"2","num_nodes":"7","size_leaf_vector":"1"}},{"base_weights":[5.5179477E-2,6.8674706E-2,4.4241603E-2,1.1583692E-2,3.542763E-2],"categories":[],"categories_nodes":[],"categories_segments":[],"categories_sizes":[],"default_left":[0,0,0,0,0],"id":36,"left_children":[1,-1,3,-1,-1],"loss_changes":[4.210362E-2,0E0,2.2499986E-2,0E0,0E0],"parents":[2147483647,0,0,2,2],"right_children":[2,-1,4,-1,-1],"split_conditions":[1.9704185E0,6.8674706E-2,2.7822056E1,1.1583692E-2,3.542763E-2],"split_indices":[0,0,0,0,0],"split_type":[0,0,0,0,0],"sum_hessian":[3.8E1,2E0,3.6E1,2.8E1,8E0],"tree_param":{"num_deleted":"0","num_feature":"2","num_nodes":"5","size_leaf_vector":"1"}},{"base_weights":[4.540417E-2,7.30067E-2,3.699287E-2,7.966033E-3,3.5923403E-2],"categories":[],"categories_nodes":[],"categories_segments":[],"categories_sizes":[],"default_left":[0,0,0,0,0],"id":37,"left_children":[1,-1,3,-1,-1],"loss_changes":[3.822667E-2,0E0,3.2486483E-2,0E0,0E0],"parents":[2147483647,0,0,2,2],"right_children":[2,-1,4,-1,-1],"split_conditions":[1.3034351E0,7.30067E-2,2.7822056E1,7.966033E-3,3.5923403E-2],"split_indices":[0,0,0,0,0],"split_type":[0,0,0,0,0],"sum_hessian":[3.8E1,1E0,3.7E1,2.9E1,8E0],"tree_param":{"num_deleted":"0","num_feature":"2","num_nodes":"5","size_leaf_vector":"1"}},{"base_weights":[8.7018214E-2,7.064477E-2,7.464619E-2,2.3158654E-3,3.5289805E-2],"categories":[],"categories_nodes":[],"categories_segments":[],"categories_sizes":[],"default_left":[0,0,0,0,0],"id":38,"left_children":[1,-1,3,-1,-1],"loss_changes":[3.0046374E-2,0E0,3.3147633E-2,0E0,0E0],"parents":[2147483647,0,0,2,2],"right_children":[2,-1,4,-1,-1],"split_conditions":[1.9782723E0,7.064477E-2,4.429133E0,2.3158654E-3,3.5289805E-2],"split_indices":[0,0,0,0,0],"split_type":[0,0,0,0,0],"sum_hessian":[3.8E1,3E0,3.5E1,6E0,2.9E1],"tree_param":{"num_deleted":"0","num_feature":"2","num_nodes":"5","size_leaf_vector":"1"}},{"base_weights":[4.8991263E-2,3.576523E-2,7.5769395E-2,1.06816655E-2,4.0949102E-2,7.5761224E-3,3.4096476E-2],"categories":[],"categories_nodes":[],"categories_segments":[],"categories_sizes":[],"default_left":[0,0,0,0,0,0,0],"id":39,"left_children":[1,3,5,-1,-1,-1,-1],"loss_changes":[1.1102654E-2,1.4165215E-2,4.8447847E-3,0E0,0E0,0E0,0E0],"parents":[2147483647,0,0,1,1,2,2],"right_children":[2,4,6,-1,-1,-1,-1],"split_conditions":[2.462547E1,3.2684284E1,6.8420875E-1,1.06816655E-2,4.0949102E-2,7.5761224E-3,3.4096476E-2],"split_indices":[0,1,1,0,0,0,0],"split_type":[0,0,0,0,0,0,0],"sum_hessian":[3.8E1,2.7E1,1.1E1,2.5E1,2E0,2E0,9E0],"tree_param":{"num_deleted":"0","num_feature":"2","num_nodes":"7","size_leaf_vector":"1"}},{"base_weights":[-4.5542547E-1,-1.1349385E0,-2.974856E-1,-4.1984227E-2,-7.524727E-1,-4.432355E-2,-2.459743E-1],"categories":[],"categories_nodes":[],"categories_segments":[],"categories_sizes":[],"default_left":[0,0,0,0,0,0,0],"id":40,"left_children":[1,3,5,-1,-1,-1,-1],"loss_changes":[3.8479376E0,5.182848E0,1.8874581E0,0E0,0E0,0E0,0E0],"parents":[2147483647,0,0,1,1,2,2],"right_children":[2,4,6,-1,-1,-1,-1],"split_conditions":[5.6203904E0,6.8420875E-1,1.9842222E1,-4.1984227E-2,-7.524727E-1,-4.432355E-2,-2.459743E-1],"split_indices":[1,1,0,0,0,0,0],"split_type":[0,0,0,0,0,0,0],"sum_hessian":[3.8E1,6E0,3.2E1,3E0,3E0,2.1E1,1.1E1],"tree_param":{"num_deleted":"0","num_feature":"2","num_nodes":"7","size_leaf_vector":"1"}},{"base_weights":[1.8705368E-1,-2.3601663E-1,3.6168903E-1,1.976464E-2,-3.276904E-1,-1.0143709E-1,1.8992095E-1],"categories":[],"categories_nodes":[],"categories_segments":[],"categories_sizes":[],"default_left":[0,0,0,0,0,0,0],"id":41,"left_children":[1,3,5,-1,-1,-1,-1],"loss_changes":[2.966803E0,2.0380523E0,2.0691102E0,0E0,0E0,0E0,0E0],"parents":[2147483647,0,0,1,1,2,2],"right_children":[2,4,6,-1,-1,-1,-1],"split_conditions":[4.6046233E0,2.8134628E1,5.6203904E0,1.976464E-2,-3.276904E-1,-1.0143709E-1,1.8992095E-1],"split_indices":[0,1,1,0,0,0,0],"split_type":[0,0,0,0,0,0,0],"sum_hessian":[3.8E1,1.1E1,2.7E1,8E0,3E0,4E0,2.3E1],"tree_param":{"num_deleted":"0","num_feature":"2","num_nodes":"7","size_leaf_vector":"1"}},{"base_weights":[4.0693903E-1,5.625211E-1,2.8459474E-1,-7.934475E-2,1.7186669E-1],"categories":[],"categories_nodes":[],"categories_segments":[],"categories_sizes":[],"default_left":[0,0,0,0,0],"id":42,"left_children":[1,-1,3,-1,-1],"loss_changes":[4.368164E0,0E0,2.6075144E0,0E0,0E0],"parents":[2147483647,0,0,2,2],"right_children":[2,-1,4,-1,-1],"split_conditions":[1.9782723E0,5.625211E-1,6.812804E0,-7.934475E-2,1.7186669E-1],"split_indices":[0,0,1,0,0],"split_type":[0,0,0,0,0],"sum_hessian":[3.8E1,3E0,3.5E1,8E0,2.7E1],"tree_param":{"num_deleted":"0","num_feature":"2","num_nodes":"5","size_leaf_vector":"1"}},{"base_weights":[-3.6722142E-1,-9.997046E-1,-1.9762495E-1,-5.855016E-1,-2.4042499E-1,-1.2066422E-1,1.2138909E-1],"categories":[],"categories_nodes":[],"categories_segments":[],"categories_sizes":[],"default_left":[0,0,0,0,0,0,0],"id":43,"left_children":[1,3,5,-1,-1,-1,-1],"loss_changes":[3.9858432E0,6.001091E-1,1.7597696E0,0E0,0E0,0E0,0E0],"parents":[2147483647,0,0,1,1,2,2],"right_children":[2,4,6,-1,-1,-1,-1],"split_conditions":[6.266857E0,4.6046233E0,3.149442E1,-5.855016E-1,-2.4042499E-1,-1.2066422E-1,1.2138909E-1],"split_indices":[1,0,1,0,0,0,0],"split_type":[0,0,0,0,0,0,0],"sum_hessian":[3.8E1,7E0,3.1E1,2E0,5E0,2.6E1,5E0],"tree_param":{"num_deleted":"0","num_feature":"2","num_nodes":"7","size_leaf_vector":"1"}},{"base_weights":[3.6073998E-2,2.52189E-2,1.2475139E-1,1.7555268E-2,-8.480437E-3,6.453974E-2,2.3507582E-2],"categories":[],"categories_nodes":[],"categories_segments":[],"categories_sizes":[],"default_left":[0,0,0,0,0,0,0],"id":44,"left_children":[1,3,5,-1,-1,-1,-1],"loss_changes":[3.4395378E-2,3.2129064E-2,1.7695874E-4,0E0,0E0,0E0,0E0],"parents":[2147483647,0,0,1,1,2,2],"right_children":[2,4,6,-1,-1,-1,-1],"split_conditions":[3.267199E1,2.4179403E1,1.3034351E0,1.7555268E-2,-8.480437E-3,6.453974E-2,2.3507582E-2],"split_indices":[1,1,0,0,0,0,0],"split_type":[0,0,0,0,0,0,0],"sum_hessian":[3.8E1,3.5E1,3E0,2.5E1,1E1,1E0,2E0],"tree_param":{"num_deleted":"0","num_feature":"2","num_nodes":"7","size_leaf_vector":"1"}},{"base_weights":[3.0239843E-2,5.840536E-2,2.3350712E-2,1.2332442E-2,-1.9176165E-2],"categories":[],"categories_nodes":[],"categories_segments":[],"categories_sizes":[],"default_left":[0,0,0,0,0],"id":45,"left_children":[1,-1,3,-1,-1],"loss_changes":[2.769607E-2,0E0,2.1742914E-2,0E0,0E0],"parents":[2147483647,0,0,2,2],"right_children":[2,-1,4,-1,-1],"split_conditions":[1.3034351E0,5.840536E-2,3.1045898E1,1.2332442E-2,-1.9176165E-2],"split_indices":[0,0,0,0,0],"split_type":[0,0,0,0,0],"sum_hessian":[3.8E1,1E0,3.7E1,3.4E1,3E0],"tree_param":{"num_deleted":"0","num_feature":"2","num_nodes":"5","size_leaf_vector":"1"}},{"base_weights":[5.4986563E-2,4.7190424E-2,4.2253517E-2,-2.5616014E-2,2.0359246E-2],"categories":[],"categories_nodes":[],"categories_segments":[],"categories_sizes":[],"default_left":[0,0,0,0,0],"id":46,"left_children":[1,-1,3,-1,-1],"loss_changes":[2.6294969E-2,0E0,3.4500927E-2,0E0,0E0],"parents":[2147483647,0,0,2,2],"right_children":[2,-1,4,-1,-1],"split_conditions":[3.224669E0,4.7190424E-2,3.651018E0,-2.5616014E-2,2.0359246E-2],"split_indices":[0,0,0,0,0],"split_type":[0,0,0,0,0],"sum_hessian":[3.8E1,5E0,3.3E1,2E0,3.1E1],"tree_param":{"num_deleted":"0","num_feature":"2","num_nodes":"5","size_leaf_vector":"1"}},{"base_weights":[3.1787153E-2,6.7678764E-2,2.0341616E-2,7.5389952E-3,3.558126E-2,5.5913115E-3,3.0029342E-2],"categories":[],"categories_nodes":[],"categories_segments":[],"categories_sizes":[],"default_left":[0,0,0,0,0,0,0],"id":47,"left_children":[1,3,5,-1,-1,-1,-1],"loss_changes":[1.4644455E-2,7.6731555E-3,9.747178E-3,0E0,0E0,0E0,0E0],"parents":[2147483647,0,0,1,1,2,2],"right_children":[2,4,6,-1,-1,-1,-1],"split_conditions":[6.812804E0,6.8420875E-1,3.2684284E1,7.5389952E-3,3.558126E-2,5.5913115E-3,3.0029342E-2],"split_indices":[1,1,1,0,0,0,0],"split_type":[0,0,0,0,0,0,0],"sum_hessian":[3.8E1,8E0,3E1,3E0,5E0,2.8E1,2E0],"tree_param":{"num_deleted":"0","num_feature":"2","num_nodes":"7","size_leaf_vector":"1"}},{"base_weights":[-3.0106953E-1,-5.6927145E-1,-4.4074018E-2,-4.2762932E-1,-1.2576337E-1,3.3267787E-1,-9.4496295E-2],"categories":[],"categories_nodes":[],"categories_segments":[],"categories_sizes":[],"default_left":[0,0,0,0,0,0,0],"id":48,"left_children":[1,3,5,-1,-1,-1,-1],"loss_changes":[2.6630507E0,2.0841131E0,3.7306454E0,0E0,0E0,0E0,0E0],"parents":[2147483647,0,0,1,1,2,2],"right_children":[2,4,6,-1,-1,-1,-1],"split_conditions":[1.7841156E1,4.6046233E0,2.1989948E1,-4.2762932E-1,-1.2576337E-1,3.3267787E-1,-9.4496295E-2],"split_indices":[1,0,1,0,0,0,0],"split_type":[0,0,0,0,0,0,0],"sum_hessian":[3.8E1,1.8E1,2E1,5E0,1.3E1,3E0,1.7E1],"tree_param":{"num_deleted":"0","num_feature":"2","num_nodes":"7","size_leaf_vector":"1"}},{"base_weights":[1.0660547E-1,-1.4512816E-1,2.69986E-1,1.8437302E-2,-6.026899E-1,1.9745663E-1,-3.6998384E-2],"categories":[],"categories_nodes":[],"categories_segments":[],"categories_sizes":[],"default_left":[0,0,0,0,0,0,0],"id":49,"left_children":[1,3,5,-1,-1,-1,-1],"loss_changes":[1.6431891E0,4.2353125E0,1.9913667E0,0E0,0E0,0E0,0E0],"parents":[2147483647,0,0,1,1,2,2],"right_children":[2,4,6,-1,-1,-1,-1],"split_conditions":[6.0739536E0,5.9171853E0,2.7093567E1,1.8437302E-2,-6.026899E-1,1.9745663E-1,-3.6998384E-2],"split_indices":[0,0,0,0,0,0,0],"split_type":[0,0,0,0,0,0,0],"sum_hessian":[3.8E1,1.5E1,2.3E1,1.4E1,1E0,1.4E1,9E0],"tree_param":{"num_deleted":"0","num_feature":"2","num_nodes":"7","size_leaf_vector":"1"}},{"base_weights":[2.6095936E-1,1.3992706E-1,7.942603E-1,1.0447224E-1,-3.2178256E-1,4.3237528E-1,1.2360692E-1],"categories":[],"categories_nodes":[],"categories_segments":[],"categories_sizes":[],"default_left":[0,0,0,0,0,0,0],"id":50,"left_children":[1,3,5,-1,-1,-1,-1],"loss_changes":[2.4061804E0,3.988933E0,6.3973045E-1,0E0,0E0,0E0,0E0],"parents":[2147483647,0,0,1,1,2,2],"right_children":[2,4,6,-1,-1,-1,-1],"split_conditions":[2.8975248E1,2.6784803E1,5.678785E0,1.0447224E-1,-3.2178256E-1,4.3237528E-1,1.2360692E-1],"split_indices":[1,1,0,0,0,0,0],"split_type":[0,0,0,0,0,0,0],"sum_hessian":[3.8E1,3.2E1,6E0,2.9E1,3E0,3E0,3E0],"tree_param":{"num_deleted":"0","num_feature":"2","num_nodes":"7","size_leaf_vector":"1"}},{"base_weights":[-2.4149185E-1,-7.0306355E-1,-1.1855231E-1,-1.0754929E-1,-3.6392125E-1,-1.2033285E-1,6.8399034E-2],"categories":[],"categories_nodes":[],"categories_segments":[],"categories_sizes":[],"default_left":[0,0,0,0,0,0,0],"id":51,"left_children":[1,3,5,-1,-1,-1,-1],"loss_changes":[2.1297214E0,4.7349262E-1,1.7403729E0,0E0,0E0,0E0,0E0],"parents":[2147483647,0,0,1,1,2,2],"right_children":[2,4,6,-1,-1,-1,-1],"split_conditions":[6.266857E0,6.8420875E-1,1.4645004E1,-1.0754929E-1,-3.6392125E-1,-1.2033285E-1,6.8399034E-2],"split_indices":[1,1,0,0,0,0,0],"split_type":[0,0,0,0,0,0,0],"sum_hessian":[3.8E1,7E0,3.1E1,3E0,4E0,1.9E1,1.2E1],"tree_param":{"num_deleted":"0","num_feature":"2","num_nodes":"7","size_leaf_vector":"1"}},{"base_weights":[2.4134709E-2,3.4642242E-2,-5.424497E-2,6.9930255E-3,5.3641524E-2,-2.6563203E-2,-1.1185587E-3],"categories":[],"categories_nodes":[],"categories_segments":[],"categories_sizes":[],"default_left":[0,0,0,0,0,0,0],"id":52,"left_children":[1,3,5,-1,-1,-1,-1],"loss_changes":[3.3998676E-2,5.739101E-2,2.9431535E-3,0E0,0E0,0E0,0E0],"parents":[2147483647,0,0,1,1,2,2],"right_children":[2,4,6,-1,-1,-1,-1],"split_conditions":[3.0792906E1,2.7822056E1,3.4077023E1,6.9930255E-3,5.3641524E-2,-2.6563203E-2,-1.1185587E-3],"split_indices":[0,0,0,0,0,0,0],"split_type":[0,0,0,0,0,0,0],"sum_hessian":[3.8E1,3.4E1,4E0,3E1,4E0,3E0,1E0],"tree_param":{"num_deleted":"0","num_feature":"2","num_nodes":"7","size_leaf_vector":"1"}},{"base_weights":[1.9466E-2,4.6724286E-2,1.3830331E-2,1.1729191E-4,2.296692E-2],"categories":[],"categories_nodes":[],"categories_segments":[],"categories_sizes":[],"default_left":[0,0,0,0,0],"id":53,"left_children":[1,-1,3,-1,-1],"loss_changes":[1.9779969E-2,0E0,2.2404732E-2,0E0,0E0],"parents":[2147483647,0,0,2,2],"right_children":[2,-1,4,-1,-1],"split_conditions":[1.3034351E0,4.6724286E-2,2.7822056E1,1.1729191E-4,2.296692E-2],"split_indices":[0,0,0,0,0],"split_type":[0,0,0,0,0],"sum_hessian":[3.8E1,1E0,3.7E1,2.9E1,8E0],"tree_param":{"num_deleted":"0","num_feature":"2","num_nodes":"5","size_leaf_vector":"1"}},{"base_weights":[3.406718E-2,8.668614E-3,5.542459E-2,1.3941701E-2,-2.8648809E-2,1.2580662E-2,4.4045996E-2],"categories":[],"categories_nodes":[],"categories_segments":[],"categories_sizes":[],"default_left":[0,0,0,0,0,0,0],"id":54,"left_children":[1,3,5,-1,-1,-1,-1],"loss_changes":[2.0675004E-2,4.24431E-2,2.4069577E-2,0E0,0E0,0E0,0E0],"parents":[2147483647,0,0,1,1,2,2],"right_children":[2,4,6,-1,-1,-1,-1],"split_conditions":[1.7841156E1,1.2339165E1,2.009659E1,1.3941701E-2,-2.8648809E-2,1.2580662E-2,4.4045996E-2],"split_indices":[1,1,0,0,0,0,0],"split_type":[0,0,0,0,0,0,0],"sum_hessian":[3.8E1,1.8E1,2E1,1.4E1,4E0,1.5E1,5E0],"tree_param":{"num_deleted":"0","num_feature":"2","num_nodes":"7","size_leaf_vector":"1"}},{"base_weights":[2.1091286E-2,3.0910846E-2,-3.578625E-3,8.048474E-3,3.060762E-2,2.202152E-2,-8.324197E-3],"categories":[],"categories_nodes":[],"categories_segments":[],"categories_sizes":[],"default_left":[0,0,0,0,0,0,0],"id":55,"left_children":[1,3,5,-1,-1,-1,-1],"loss_changes":[9.558277E-3,1.2239061E-2,1.326985E-2,0E0,0E0,0E0,0E0],"parents":[2147483647,0,0,1,1,2,2],"right_children":[2,4,6,-1,-1,-1,-1],"split_conditions":[2.4622833E1,2.3204157E1,1.9782723E0,8.048474E-3,3.060762E-2,2.202152E-2,-8.324197E-3],"split_indices":[1,1,0,0,0,0,0],"split_type":[0,0,0,0,0,0,0],"sum_hessian":[3.8E1,2.7E1,1.1E1,2.3E1,4E0,2E0,9E0],"tree_param":{"num_deleted":"0","num_feature":"2","num_nodes":"7","size_leaf_vector":"1"}},{"base_weights":[-1.8872409E-1,-2.7788588E-1,3.4798014E-1,-1.8610656E-1,-2.5254712E-2,2.8259563E-1,-2.8891292E-1],"categories":[],"categories_nodes":[],"categories_segments":[],"categories_sizes":[],"default_left":[0,0,0,0,0,0,0],"id":56,"left_children":[1,3,5,-1,-1,-1,-1],"loss_changes":[1.962986E0,1.3387773E0,2.8124764E0,0E0,0E0,0E0,0E0],"parents":[2147483647,0,0,1,1,2,2],"right_children":[2,4,6,-1,-1,-1,-1],"split_conditions":[3.149442E1,1.4069306E1,9.034968E0,-1.8610656E-1,-2.5254712E-2,2.8259563E-1,-2.8891292E-1],"split_indices":[1,0,0,0,0,0,0],"split_type":[0,0,0,0,0,0,0],"sum_hessian":[3.8E1,3.3E1,5E0,1.7E1,1.6E1,4E0,1E0],"tree_param":{"num_deleted":"0","num_feature":"2","num_nodes":"7","size_leaf_vector":"1"}},{"base_weights":[5.3096715E-2,-4.5335305E-1,1.07894E-1,-5.4217238E-2,-2.0564346E-1,-9.7998865E-2,7.4655525E-2],"categories":[],"categories_nodes":[],"categories_segments":[],"categories_sizes":[],"default_left":[0,0,0,0,0,0,0],"id":57,"left_children":[1,3,5,-1,-1,-1,-1],"loss_changes":[1.131245E0,7.551074E-3,1.0461066E0,0E0,0E0,0E0,0E0],"parents":[2147483647,0,0,1,1,2,2],"right_children":[2,4,6,-1,-1,-1,-1],"split_conditions":[1.9782723E0,1.3034351E0,5.6203904E0,-5.4217238E-2,-2.0564346E-1,-9.7998865E-2,7.4655525E-2],"split_indices":[0,0,1,0,0,0,0],"split_type":[0,0,0,0,0,0,0],"sum_hessian":[3.8E1,3E0,3.5E1,1E0,2E0,6E0,2.9E1],"tree_param":{"num_deleted":"0","num_feature":"2","num_nodes":"7","size_leaf_vector":"1"}},{"base_weights":[1.6525954E-1,-2.0375097E-1,2.9953045E-1,3.1950053E-2,-2.2403093E-1,3.9700795E-2,3.659193E-1],"categories":[],"categories_nodes":[],"categories_segments":[],"categories_sizes":[],"default_left":[0,0,0,0,0,0,0],"id":58,"left_children":[1,3,5,-1,-1,-1,-1],"loss_changes":[1.9933773E0,1.1564342E0,3.482726E0,0E0,0E0,0E0,0E0],"parents":[2147483647,0,0,1,1,2,2],"right_children":[2,4,6,-1,-1,-1,-1],"split_conditions":[8.857725E0,2.462547E1,2.7093567E1,3.1950053E-2,-2.2403093E-1,3.9700795E-2,3.659193E-1],"split_indices":[1,0,0,0,0,0,0],"split_type":[0,0,0,0,0,0,0],"sum_hessian":[3.8E1,1E1,2.8E1,6E0,4E0,2.2E1,6E0],"tree_param":{"num_deleted":"0","num_feature":"2","num_nodes":"7","size_leaf_vector":"1"}},{"base_weights":[-1.5831575E-1,-2.2944522E-1,2.711372E-1,-2.4116266E-1,1.2182018E-2,2.5403675E-1,-3.0972716E-1],"categories":[],"categories_nodes":[],"categories_segments":[],"categories_sizes":[],"default_left":[0,0,0,0,0,0,0],"id":59,"left_children":[1,3,5,-1,-1,-1,-1],"loss_changes":[1.2535349E0,3.3184943E0,2.7747524E0,0E0,0E0,0E0,0E0],"parents":[2147483647,0,0,1,1,2,2],"right_children":[2,4,6,-1,-1,-1,-1],"split_conditions":[3.149442E1,6.819956E0,9.034968E0,-2.4116266E-1,1.2182018E-2,2.5403675E-1,-3.0972716E-1],"split_indices":[1,0,0,0,0,0,0],"split_type":[0,0,0,0,0,0,0],"sum_hessian":[3.8E1,3.3E1,5E0,1.3E1,2E1,4E0,1E0],"tree_param":{"num_deleted":"0","num_feature":"2","num_nodes":"7","size_leaf_vector":"1"}},{"base_weights":[1.5325768E-2,-3.2591622E-2,2.2760598E-2,4.858176E-2,2.8469104E-3],"categories":[],"categories_nodes":[],"categories_segments":[],"categories_sizes":[],"default_left":[0,0,0,0,0],"id":60,"left_children":[1,-1,3,-1,-1],"loss_changes":[2.9923879E-2,0E0,5.625983E-2,0E0,0E0],"parents":[2147483647,0,0,2,2],"right_children":[2,-1,4,-1,-1],"split_conditions":[2.883655E-1,-3.2591622E-2,5.6203904E0,4.858176E-2,2.8469104E-3],"split_indices":[1,0,1,0,0],"split_type":[0,0,0,0,0],"sum_hessian":[3.8E1,2E0,3.6E1,4E0,3.2E1],"tree_param":{"num_deleted":"0","num_feature":"2","num_nodes":"5","size_leaf_vector":"1"}},{"base_weights":[1.3469563E-2,2.1401875E-2,-4.4750534E-2,2.4811951E-3,4.4541843E-2,-5.8611115E-3,-2.3972578E-2],"categories":[],"categories_nodes":[],"categories_segments":[],"categories_sizes":[],"default_left":[0,0,0,0,0,0,0],"id":61,"left_children":[1,3,5,-1,-1,-1,-1],"loss_changes":[1.8968726E-2,4.7160618E-2,1.4063949E-3,0E0,0E0,0E0,0E0],"parents":[2147483647,0,0,1,1,2,2],"right_children":[2,4,6,-1,-1,-1,-1],"split_conditions":[3.0792906E1,2.7822056E1,6.266857E0,2.4811951E-3,4.4541843E-2,-5.8611115E-3,-2.3972578E-2],"split_indices":[0,0,1,0,0,0,0],"split_type":[0,0,0,0,0,0,0],"sum_hessian":[3.8E1,3.4E1,4E0,3E1,4E0,2E0,2E0],"tree_param":{"num_deleted":"0","num_feature":"2","num_nodes":"7","size_leaf_vector":"1"}},{"base_weights":[2.1515176E-2,2.992463E-2,1.14771295E-2,-1.833935E-2,8.259524E-3],"categories":[],"categories_nodes":[],"categories_segments":[],"categories_sizes":[],"default_left":[0,0,0,0,0],"id":62,"left_children":[1,-1,3,-1,-1],"loss_changes":[2.0006053E-2,0E0,1.8822934E-2,0E0,0E0],"parents":[2147483647,0,0,2,2],"right_children":[2,-1,4,-1,-1],"split_conditions":[3.224669E0,2.992463E-2,4.429133E0,-1.833935E-2,8.259524E-3],"split_indices":[0,0,0,0,0],"split_type":[0,0,0,0,0],"sum_hessian":[3.8E1,5E0,3.3E1,4E0,2.9E1],"tree_param":{"num_deleted":"0","num_feature":"2","num_nodes":"5","size_leaf_vector":"1"}},{"base_weights":[1.3997165E-2,3.82442E-2,6.5061813E-3,2.862756E-3,2.1038016E-2,-7.191922E-3,7.6089427E-3],"categories":[],"categories_nodes":[],"categories_segments":[],"categories_sizes":[],"default_left":[0,0,0,0,0,0,0],"id":63,"left_children":[1,3,5,-1,-1,-1,-1],"loss_changes":[6.834908E-3,3.6387434E-3,9.8426165E-3,0E0,0E0,0E0,0E0],"parents":[2147483647,0,0,1,1,2,2],"right_children":[2,4,6,-1,-1,-1,-1],"split_conditions":[6.812804E0,6.8420875E-1,5.678785E0,2.862756E-3,2.1038016E-2,-7.191922E-3,7.6089427E-3],"split_indices":[1,1,0,0,0,0,0],"split_type":[0,0,0,0,0,0,0],"sum_hessian":[3.8E1,8E0,3E1,3E0,5E0,1E1,2E1],"tree_param":{"num_deleted":"0","num_feature":"2","num_nodes":"7","size_leaf_vector":"1"}},{"base_weights":[-1.18815936E-1,-4.8200768E-1,-2.4305E-2,-4.408619E-1,-3.663982E-2,3.5267007E-2,-1.2861246E-1],"categories":[],"categories_nodes":[],"categories_segments":[],"categories_sizes":[],"default_left":[0,0,0,0,0,0,0],"id":64,"left_children":[1,3,5,-1,-1,-1,-1],"loss_changes":[1.326983E0,1.8359269E0,1.0981013E0,0E0,0E0,0E0,0E0],"parents":[2147483647,0,0,1,1,2,2],"right_children":[2,4,6,-1,-1,-1,-1],"split_conditions":[6.266857E0,4.6046233E0,2.462547E1,-4.408619E-1,-3.663982E-2,3.5267007E-2,-1.2861246E-1],"split_indices":[1,0,0,0,0,0,0],"split_type":[0,0,0,0,0,0,0],"sum_hessian":[3.8E1,7E0,3.1E1,2E0,5E0,2.3E1,8E0],"tree_param":{"num_deleted":"0","num_feature":"2","num_nodes":"7","size_leaf_vector":"1"}},{"base_weights":[2.4596376E-2,-1.2890853E-1,1.2590814E-1,1.1276757E-2,-4.97083E-1,7.9031155E-2,-1.1273401E-1],"categories":[],"categories_nodes":[],"categories_segments":[],"categories_sizes":[],"default_left":[0,0,0,0,0,0,0],"id":65,"left_children":[1,3,5,-1,-1,-1,-1],"loss_changes":[6.227529E-1,2.8346868E0,7.5703263E-1,0E0,0E0,0E0,0E0],"parents":[2147483647,0,0,1,1,2,2],"right_children":[2,4,6,-1,-1,-1,-1],"split_conditions":[6.0739536E0,5.9171853E0,3.1045898E1,1.1276757E-2,-4.97083E-1,7.9031155E-2,-1.1273401E-1],"split_indices":[0,0,0,0,0,0,0],"split_type":[0,0,0,0,0,0,0],"sum_hessian":[3.8E1,1.5E1,2.3E1,1.4E1,1E0,2E1,3E0],"tree_param":{"num_deleted":"0","num_feature":"2","num_nodes":"7","size_leaf_vector":"1"}},{"base_weights":[1.0463112E-1,2.849322E-1,3.420255E-2,-4.3284472E-2,7.9894476E-2],"categories":[],"categories_nodes":[],"categories_segments":[],"categories_sizes":[],"default_left":[0,0,0,0,0],"id":66,"left_children":[1,-1,3,-1,-1],"loss_changes":[1.644813E0,0E0,8.702872E-1,0E0,0E0],"parents":[2147483647,0,0,2,2],"right_children":[2,-1,4,-1,-1],"split_conditions":[1.9782723E0,2.849322E-1,1.4645004E1,-4.3284472E-2,7.9894476E-2],"split_indices":[0,0,0,0,0],"split_type":[0,0,0,0,0],"sum_hessian":[3.8E1,3E0,3.5E1,1.9E1,1.6E1],"tree_param":{"num_deleted":"0","num_feature":"2","num_nodes":"5","size_leaf_vector":"1"}},{"base_weights":[-1.02288745E-1,-4.707126E-1,-2.1038575E-2,-7.89392E-2,-2.5055963E-1,9.2710234E-2,-9.783739E-2],"categories":[],"categories_nodes":[],"categories_segments":[],"categories_sizes":[],"default_left":[0,0,0,0,0,0,0],"id":67,"left_children":[1,3,5,-1,-1,-1,-1],"loss_changes":[1.1575423E0,1.7429566E-1,1.9217796E0,0E0,0E0,0E0,0E0],"parents":[2147483647,0,0,1,1,2,2],"right_children":[2,4,6,-1,-1,-1,-1],"split_conditions":[5.6203904E0,6.8420875E-1,2.1989948E1,-7.89392E-2,-2.5055963E-1,9.2710234E-2,-9.783739E-2],"split_indices":[1,1,1,0,0,0,0],"split_type":[0,0,0,0,0,0,0],"sum_hessian":[3.8E1,6E0,3.2E1,3E0,3E0,1.5E1,1.7E1],"tree_param":{"num_deleted":"0","num_feature":"2","num_nodes":"7","size_leaf_vector":"1"}},{"base_weights":[9.678467E-3,-2.169054E-2,3.490409E-2,1.3353775E-2,-2.0804027E-2,4.6712644E-2,6.3318643E-3],"categories":[],"categories_nodes":[],"categories_segments":[],"categories_sizes":[],"default_left":[0,0,0,0,0,0,0],"id":68,"left_children":[1,3,5,-1,-1,-1,-1],"loss_changes":[3.1617895E-2,3.179358E-2,3.2510262E-2,0E0,0E0,0E0,0E0],"parents":[2147483647,0,0,1,1,2,2],"right_children":[2,4,6,-1,-1,-1,-1],"split_conditions":[1.761487E1,5.6203904E0,2.0737679E1,1.3353775E-2,-2.0804027E-2,4.6712644E-2,6.3318643E-3],"split_indices":[1,1,1,0,0,0,0],"split_type":[0,0,0,0,0,0,0],"sum_hessian":[3.8E1,1.7E1,2.1E1,6E0,1.1E1,3E0,1.8E1],"tree_param":{"num_deleted":"0","num_feature":"2","num_nodes":"7","size_leaf_vector":"1"}},{"base_weights":[8.522493E-3,-3.3253793E-2,1.8700236E-2,-2.8023599E-2,-7.1949917E-3,1.566059E-2,-4.1563E-3],"categories":[],"categories_nodes":[],"categories_segments":[],"categories_sizes":[],"default_left":[0,0,0,0,0,0,0],"id":69,"left_children":[1,3,5,-1,-1,-1,-1],"loss_changes":[1.7204197E-2,3.234854E-3,1.944511E-2,0E0,0E0,0E0,0E0],"parents":[2147483647,0,0,1,1,2,2],"right_children":[2,4,6,-1,-1,-1,-1],"split_conditions":[6.266857E0,1.9334394E-1,2.4179403E1,-2.8023599E-2,-7.1949917E-3,1.566059E-2,-4.1563E-3],"split_indices":[1,1,1,0,0,0,0],"split_type":[0,0,0,0,0,0,0],"sum_hessian":[3.8E1,7E0,3.1E1,1E0,6E0,1.8E1,1.3E1],"tree_param":{"num_deleted":"0","num_feature":"2","num_nodes":"7","size_leaf_vector":"1"}},{"base_weights":[1.3417938E-2,-1.9687248E-2,2.000478E-2,4.7065716E-2,3.0244228E-3],"categories":[],"categories_nodes":[],"categories_segments":[],"categories_sizes":[],"default_left":[0,0,0,0,0],"id":70,"left_children":[1,-1,3,-1,-1],"loss_changes":[1.7074972E-2,0E0,4.2859256E-2,0E0,0E0],"parents":[2147483647,0,0,2,2],"right_children":[2,-1,4,-1,-1],"split_conditions":[6.8420875E-1,-1.9687248E-2,5.6203904E0,4.7065716E-2,3.0244228E-3],"split_indices":[1,0,1,0,0],"split_type":[0,0,0,0,0],"sum_hessian":[3.8E1,3E0,3.5E1,3E0,3.2E1],"tree_param":{"num_deleted":"0","num_feature":"2","num_nodes":"5","size_leaf_vector":"1"}},{"base_weights":[9.021829E-3,2.4111463E-2,6.0866848E-3,-1.1581267E-3,1.0315586E-2],"categories":[],"categories_nodes":[],"categories_segments":[],"categories_sizes":[],"default_left":[0,0,0,0,0],"id":71,"left_children":[1,-1,3,-1,-1],"loss_changes":[5.5005034E-3,0E0,6.7993724E-3,0E0,0E0],"parents":[2147483647,0,0,2,2],"right_children":[2,-1,4,-1,-1],"split_conditions":[1.3034351E0,2.4111463E-2,2.462547E1,-1.1581267E-3,1.0315586E-2],"split_indices":[0,0,0,0,0],"split_type":[0,0,0,0,0],"sum_hessian":[3.8E1,1E0,3.7E1,2.6E1,1.1E1],"tree_param":{"num_deleted":"0","num_feature":"2","num_nodes":"5","size_leaf_vector":"1"}},{"base_weights":[-8.5926674E-2,-3.4889233E-1,-1.7500054E-2,4.2993546E-2,-2.5768593E-1,-1.2071009E-1,3.593292E-2],"categories":[],"categories_nodes":[],"categories_segments":[],"categories_sizes":[],"default_left":[0,0,0,0,0,0,0],"id":72,"left_children":[1,3,5,-1,-1,-1,-1],"loss_changes":[6.956546E-1,1.1474681E0,1.0034907E0,0E0,0E0,0E0,0E0],"parents":[2147483647,0,0,1,1,2,2],"right_children":[2,4,6,-1,-1,-1,-1],"split_conditions":[6.266857E0,6.8420875E-1,4.429133E0,4.2993546E-2,-2.5768593E-1,-1.2071009E-1,3.593292E-2],"split_indices":[1,1,0,0,0,0,0],"split_type":[0,0,0,0,0,0,0],"sum_hessian":[3.8E1,7E0,3.1E1,3E0,4E0,8E0,2.3E1],"tree_param":{"num_deleted":"0","num_feature":"2","num_nodes":"7","size_leaf_vector":"1"}},{"base_weights":[1.4370966E-3,-1.7671093E-1,7.773493E-2,3.4328147E-3,-2.1977697E-1,4.220143E-1,9.852833E-4],"categories":[],"categories_nodes":[],"categories_segments":[],"categories_sizes":[],"default_left":[0,0,0,0,0,0,0],"id":73,"left_children":[1,3,5,-1,-1,-1,-1],"loss_changes":[5.438367E-1,8.3348954E-1,2.0571685E0,0E0,0E0,0E0,0E0],"parents":[2147483647,0,0,1,1,2,2],"right_children":[2,4,6,-1,-1,-1,-1],"split_conditions":[4.6046233E0,2.8134628E1,5.678785E0,3.4328147E-3,-2.1977697E-1,4.220143E-1,9.852833E-4],"split_indices":[0,1,0,0,0,0,0],"split_type":[0,0,0,0,0,0,0],"sum_hessian":[3.8E1,1.1E1,2.7E1,8E0,3E0,1E0,2.6E1],"tree_param":{"num_deleted":"0","num_feature":"2","num_nodes":"7","size_leaf_vector":"1"}},{"base_weights":[7.102331E-2,-3.8222802E-1,1.194117E-1,-3.5578538E-2,-1.8013594E-1,1.4400452E-2,1.6273943E-1],"categories":[],"categories_nodes":[],"categories_segments":[],"categories_sizes":[],"default_left":[0,0,0,0,0,0,0],"id":74,"left_children":[1,3,5,-1,-1,-1,-1],"loss_changes":[9.009944E-1,3.9847612E-2,8.484627E-1,0E0,0E0,0E0,0E0],"parents":[2147483647,0,0,1,1,2,2],"right_children":[2,4,6,-1,-1,-1,-1],"split_conditions":[6.8420875E-1,1.174397E1,2.7093567E1,-3.5578538E-2,-1.8013594E-1,1.4400452E-2,1.6273943E-1],"split_indices":[1,0,0,0,0,0,0],"split_type":[0,0,0,0,0,0,0],"sum_hessian":[3.8E1,3E0,3.5E1,1E0,2E0,2.8E1,7E0],"tree_param":{"num_deleted":"0","num_feature":"2","num_nodes":"7","size_leaf_vector":"1"}},{"base_weights":[-6.995336E-2,-2.2203472E-1,7.097517E-2,-2.2233397E-2,-6.436314E-1,5.350422E-1,-5.310185E-2],"categories":[],"categories_nodes":[],"categories_segments":[],"categories_sizes":[],"default_left":[0,0,0,0,0,0,0],"id":75,"left_children":[1,3,5,-1,-1,-1,-1],"loss_changes":[8.516304E-1,4.297189E0,5.5966306E0,0E0,0E0,0E0,0E0],"parents":[2147483647,0,0,1,1,2,2],"right_children":[2,4,6,-1,-1,-1,-1],"split_conditions":[1.7841156E1,1.761487E1,2.0737679E1,-2.2233397E-2,-6.436314E-1,5.350422E-1,-5.310185E-2],"split_indices":[1,1,1,0,0,0,0],"split_type":[0,0,0,0,0,0,0],"sum_hessian":[3.8E1,1.8E1,2E1,1.7E1,1E0,2E0,1.8E1],"tree_param":{"num_deleted":"0","num_feature":"2","num_nodes":"7","size_leaf_vector":"1"}},{"base_weights":[6.976169E-3,2.0061988E-2,-4.623913E-2,1.5167674E-3,1.0488683E-1,-3.1533454E-2,-8.894143E-3],"categories":[],"categories_nodes":[],"categories_segments":[],"categories_sizes":[],"default_left":[0,0,0,0,0,0,0],"id":76,"left_children":[1,3,5,-1,-1,-1,-1],"loss_changes":[2.8085912E-2,1.2508187E-1,4.506232E-3,0E0,0E0,0E0,0E0],"parents":[2147483647,0,0,1,1,2,2],"right_children":[2,4,6,-1,-1,-1,-1],"split_conditions":[2.98648E1,2.7822056E1,6.8420875E-1,1.5167674E-3,1.0488683E-1,-3.1533454E-2,-8.894143E-3],"split_indices":[0,0,1,0,0,0,0],"split_type":[0,0,0,0,0,0,0],"sum_hessian":[3.8E1,3.1E1,7E0,3E1,1E0,2E0,5E0],"tree_param":{"num_deleted":"0","num_feature":"2","num_nodes":"7","size_leaf_vector":"1"}},{"base_weights":[4.5054406E-3,-2.5867068E-3,6.720841E-2,4.0983795E-3,-2.2885708E-2,3.7714448E-2,1.0701521E-2],"categories":[],"categories_nodes":[],"categories_segments":[],"categories_sizes":[],"default_left":[0,0,0,0,0,0,0],"id":77,"left_children":[1,3,5,-1,-1,-1,-1],"loss_changes":[1.7517097E-2,2.5822815E-2,1.8591601E-3,0E0,0E0,0E0,0E0],"parents":[2147483647,0,0,1,1,2,2],"right_children":[2,4,6,-1,-1,-1,-1],"split_conditions":[3.267199E1,2.6784803E1,1.3034351E0,4.0983795E-3,-2.2885708E-2,3.7714448E-2,1.0701521E-2],"split_indices":[1,1,0,0,0,0,0],"split_type":[0,0,0,0,0,0,0],"sum_hessian":[3.8E1,3.5E1,3E0,2.9E1,6E0,1E0,2E0],"tree_param":{"num_deleted":"0","num_feature":"2","num_nodes":"7","size_leaf_vector":"1"}},{"base_weights":[8.830337E-3,2.9786783E-3,2.3715073E-2,4.454301E-3,-1.2962294E-2],"categories":[],"categories_nodes":[],"categories_segments":[],"categories_sizes":[],"default_left":[0,0,0,0,0],"id":78,"left_children":[1,3,-1,-1,-1],"loss_changes":[1.1338509E-2,1.0751659E-2,0E0,0E0,0E0],"parents":[2147483647,0,0,1,1],"right_children":[2,4,-1,-1,-1],"split_conditions":[3.267199E1,2.6784803E1,2.3715073E-2,4.454301E-3,-1.2962294E-2],"split_indices":[1,1,0,0,0],"split_type":[0,0,0,0,0],"sum_hessian":[3.8E1,3.5E1,3E0,2.9E1,6E0],"tree_param":{"num_deleted":"0","num_feature":"2","num_nodes":"5","size_leaf_vector":"1"}},{"base_weights":[6.2661483E-3,1.9289171E-2,3.892998E-3,4.144951E-3,-5.171368E-3],"categories":[],"categories_nodes":[],"categories_segments":[],"categories_sizes":[],"default_left":[0,0,0,0,0],"id":79,"left_children":[1,-1,3,-1,-1],"loss_changes":[3.6954887E-3,0E0,4.2692856E-3,0E0,0E0],"parents":[2147483647,0,0,2,2],"right_children":[2,-1,4,-1,-1],"split_conditions":[1.3034351E0,1.9289171E-2,2.4622833E1,4.144951E-3,-5.171368E-3],"split_indices":[0,0,1,0,0],"split_type":[0,0,0,0,0],"sum_hessian":[3.8E1,1E0,3.7E1,2.7E1,1E1],"tree_param":{"num_deleted":"0","num_feature":"2","num_nodes":"5","size_leaf_vector":"1"}},{"base_weights":[-5.9234805E-2,-1.03348665E-1,2.006162E-1,-8.627871E-3,-2.2934115E-1,1.9444393E-1,-2.4537034E-1],"categories":[],"categories_nodes":[],"categories_segments":[],"categories_sizes":[],"default_left":[0,0,0,0,0,0,0],"id":80,"left_children":[1,3,5,-1,-1,-1,-1],"loss_changes":[4.6779168E-1,1.2944729E0,1.6926149E0,0E0,0E0,0E0,0E0],"parents":[2147483647,0,0,1,1,2,2],"right_children":[2,4,6,-1,-1,-1,-1],"split_conditions":[3.149442E1,2.6784803E1,9.034968E0,-8.627871E-3,-2.2934115E-1,1.9444393E-1,-2.4537034E-1],"split_indices":[1,1,0,0,0,0,0],"split_type":[0,0,0,0,0,0,0],"sum_hessian":[3.8E1,3.3E1,5E0,2.9E1,4E0,4E0,1E0],"tree_param":{"num_deleted":"0","num_feature":"2","num_nodes":"7","size_leaf_vector":"1"}},{"base_weights":[6.1611E-3,-1.2576427E-1,3.198689E-2,1.0400815E-1,-1.5954051E-2],"categories":[],"categories_nodes":[],"categories_segments":[],"categories_sizes":[],"default_left":[0,0,0,0,0],"id":81,"left_children":[1,-1,3,-1,-1],"loss_changes":[3.3293873E-1,0E0,6.167724E-1,0E0,0E0],"parents":[2147483647,0,0,2,2],"right_children":[2,-1,4,-1,-1],"split_conditions":[2.883655E-1,-1.2576427E-1,8.857725E0,1.0400815E-1,-1.5954051E-2],"split_indices":[1,0,1,0,0],"split_type":[0,0,0,0,0],"sum_hessian":[3.8E1,2E0,3.6E1,8E0,2.8E1],"tree_param":{"num_deleted":"0","num_feature":"2","num_nodes":"5","size_leaf_vector":"1"}},{"base_weights":[4.1624893E-2,1.951324E-1,-9.10981E-3,1.5513688E-2,-1.2552385E-1],"categories":[],"categories_nodes":[],"categories_segments":[],"categories_sizes":[],"default_left":[0,0,0,0,0],"id":82,"left_children":[1,-1,3,-1,-1],"loss_changes":[8.8733125E-1,0E0,5.375298E-1,0E0,0E0],"parents":[2147483647,0,0,2,2],"right_children":[2,-1,4,-1,-1],"split_conditions":[1.9782723E0,1.951324E-1,3.0792906E1,1.5513688E-2,-1.2552385E-1],"split_indices":[0,0,0,0,0],"split_type":[0,0,0,0,0],"sum_hessian":[3.8E1,3E0,3.5E1,3.1E1,4E0],"tree_param":{"num_deleted":"0","num_feature":"2","num_nodes":"5","size_leaf_vector":"1"}},{"base_weights":[-4.6688043E-2,-1.0282158E-1,2.7918333E-1,3.0802886E-3,-2.9815644E-1,4.3199968E-1,-3.8791876E-2],"categories":[],"categories_nodes":[],"categories_segments":[],"categories_sizes":[],"default_left":[0,0,0,0,0,0,0],"id":83,"left_children":[1,3,5,-1,-1,-1,-1],"loss_changes":[7.421062E-1,2.4203608E0,1.9121618E0,0E0,0E0,0E0,0E0],"parents":[2147483647,0,0,1,1,2,2],"right_children":[2,4,6,-1,-1,-1,-1],"split_conditions":[3.149442E1,2.6784803E1,3.2509575E1,3.0802886E-3,-2.9815644E-1,4.3199968E-1,-3.8791876E-2],"split_indices":[1,1,1,0,0,0,0],"split_type":[0,0,0,0,0,0,0],"sum_hessian":[3.8E1,3.3E1,5E0,2.9E1,4E0,1E0,4E0],"tree_param":{"num_deleted":"0","num_feature":"2","num_nodes":"7","size_leaf_vector":"1"}},{"base_weights":[5.877393E-3,4.809407E-2,-2.9610586E-4,-2.1082107E-2,2.2807892E-3],"categories":[],"categories_nodes":[],"categories_segments":[],"categories_sizes":[],"default_left":[0,0,0,0,0],"id":84,"left_children":[1,-1,3,-1,-1],"loss_changes":[2.756912E-2,0E0,1.2245987E-2,0E0,0E0],"parents":[2147483647,0,0,2,2],"right_children":[2,-1,4,-1,-1],"split_conditions":[1.3034351E0,4.809407E-2,6.8420875E-1,-2.1082107E-2,2.2807892E-3],"split_indices":[0,0,1,0,0],"split_type":[0,0,0,0,0],"sum_hessian":[3.8E1,1E0,3.7E1,3E0,3.4E1],"tree_param":{"num_deleted":"0","num_feature":"2","num_nodes":"5","size_leaf_vector":"1"}},{"base_weights":[3.46297E-3,-1.7385446E-2,2.216092E-2,-2.3238555E-2,-4.75846E-3,5.1520832E-2,1.6625908E-3],"categories":[],"categories_nodes":[],"categories_segments":[],"categories_sizes":[],"default_left":[0,0,0,0,0,0,0],"id":85,"left_children":[1,3,5,-1,-1,-1,-1],"loss_changes":[1.5588359E-2,3.55489E-3,3.9784946E-2,0E0,0E0,0E0,0E0],"parents":[2147483647,0,0,1,1,2,2],"right_children":[2,4,6,-1,-1,-1,-1],"split_conditions":[1.7841156E1,1.9334394E-1,2.0737679E1,-2.3238555E-2,-4.75846E-3,5.1520832E-2,1.6625908E-3],"split_indices":[1,1,1,0,0,0,0],"split_type":[0,0,0,0,0,0,0],"sum_hessian":[3.8E1,1.8E1,2E1,1E0,1.7E1,2E0,1.8E1],"tree_param":{"num_deleted":"0","num_feature":"2","num_nodes":"7","size_leaf_vector":"1"}},{"base_weights":[5.688115E-3,-1.3331321E-2,2.2625312E-2,1.4157988E-2,-1.54172275E-2,2.3986564E-3,2.527902E-2],"categories":[],"categories_nodes":[],"categories_segments":[],"categories_sizes":[],"default_left":[0,0,0,0,0,0,0],"id":86,"left_children":[1,3,5,-1,-1,-1,-1],"loss_changes":[1.2864927E-2,2.4705255E-2,1.3788939E-2,0E0,0E0,0E0,0E0],"parents":[2147483647,0,0,1,1,2,2],"right_children":[2,4,6,-1,-1,-1,-1],"split_conditions":[1.7841156E1,5.9171853E0,2.009659E1,1.4157988E-2,-1.54172275E-2,2.3986564E-3,2.527902E-2],"split_indices":[1,0,0,0,0,0,0],"split_type":[0,0,0,0,0,0,0],"sum_hessian":[3.8E1,1.8E1,2E1,6E0,1.2E1,1.5E1,5E0],"tree_param":{"num_deleted":"0","num_feature":"2","num_nodes":"7","size_leaf_vector":"1"}},{"base_weights":[4.227969E-3,1.7962091E-3,1.312414E-2,-7.203275E-3,3.152185E-3],"categories":[],"categories_nodes":[],"categories_segments":[],"categories_sizes":[],"default_left":[0,0,0,0,0],"id":87,"left_children":[1,3,-1,-1,-1],"loss_changes":[2.6517797E-3,4.6002264E-3,0E0,0E0,0E0],"parents":[2147483647,0,0,1,1],"right_children":[2,4,-1,-1,-1],"split_conditions":[3.2684284E1,4.5427623E0,1.312414E-2,-7.203275E-3,3.152185E-3],"split_indices":[1,0,0,0,0],"split_type":[0,0,0,0,0],"sum_hessian":[3.8E1,3.6E1,2E0,8E0,2.8E1],"tree_param":{"num_deleted":"0","num_feature":"2","num_nodes":"5","size_leaf_vector":"1"}},{"base_weights":[-4.294845E-2,-6.4007407E-3,-3.6114073E-1,-6.499448E-2,5.6722622E-2,-2.0384426E-1,1.685381E-2],"categories":[],"categories_nodes":[],"categories_segments":[],"categories_sizes":[],"default_left":[0,0,0,0,0,0,0],"id":88,"left_children":[1,3,5,-1,-1,-1,-1],"loss_changes":[4.512272E-1,8.5582966E-1,2.6096922E-1,0E0,0E0,0E0,0E0],"parents":[2147483647,0,0,1,1,2,2],"right_children":[2,4,6,-1,-1,-1,-1],"split_conditions":[3.1045898E1,1.7841156E1,3.4077023E1,-6.499448E-2,5.6722622E-2,-2.0384426E-1,1.685381E-2],"split_indices":[0,1,0,0,0,0,0],"split_type":[0,0,0,0,0,0,0],"sum_hessian":[3.8E1,3.5E1,3E0,1.7E1,1.8E1,2E0,1E0],"tree_param":{"num_deleted":"0","num_feature":"2","num_nodes":"7","size_leaf_vector":"1"}},{"base_weights":[2.7297067E-3,-2.0703015E-1,4.7141504E-2,-9.777406E-2,3.4799816E-3,1.8125004E-1,-9.7924955E-3],"categories":[],"categories_nodes":[],"categories_segments":[],"categories_sizes":[],"default_left":[0,0,0,0,0,0,0],"id":89,"left_children":[1,3,5,-1,-1,-1,-1],"loss_changes":[3.7307638E-1,5.8612257E-2,9.706558E-1,0E0,0E0,0E0,0E0],"parents":[2147483647,0,0,1,1,2,2],"right_children":[2,4,6,-1,-1,-1,-1],"split_conditions":[5.6203904E0,3.0154072E1,8.857725E0,-9.777406E-2,3.4799816E-3,1.8125004E-1,-9.7924955E-3],"split_indices":[1,0,1,0,0,0,0],"split_type":[0,0,0,0,0,0,0],"sum_hessian":[3.8E1,6E0,3.2E1,5E0,1E0,4E0,2.8E1],"tree_param":{"num_deleted":"0","num_feature":"2","num_nodes":"7","size_leaf_vector":"1"}},{"base_weights":[2.7157549E-2,-2.8429106E-2,2.8532928E-1,1.8577447E-2,-2.331469E-1,1.931964E-1,6.5340996E-3],"categories":[],"categories_nodes":[],"categories_segments":[],"categories_sizes":[],"default_left":[0,0,0,0,0,0,0],"id":90,"left_children":[1,3,5,-1,-1,-1,-1],"loss_changes":[5.677968E-1,1.3969762E0,3.6429894E-1,0E0,0E0,0E0,0E0],"parents":[2147483647,0,0,1,1,2,2],"right_children":[2,4,6,-1,-1,-1,-1],"split_conditions":[2.8975248E1,2.6784803E1,5.678785E0,1.8577447E-2,-2.331469E-1,1.931964E-1,6.5340996E-3],"split_indices":[1,1,0,0,0,0,0],"split_type":[0,0,0,0,0,0,0],"sum_hessian":[3.8E1,3.2E1,6E0,2.9E1,3E0,3E0,3E0],"tree_param":{"num_deleted":"0","num_feature":"2","num_nodes":"7","size_leaf_vector":"1"}},{"base_weights":[-2.5496654E-2,-1.7118458E-1,1.07530355E-1,-1.49978055E-2,-5.1552117E-1,3.9154282E-1,-1.4282814E-2],"categories":[],"categories_nodes":[],"categories_segments":[],"categories_sizes":[],"default_left":[0,0,0,0,0,0,0],"id":91,"left_children":[1,3,5,-1,-1,-1,-1],"loss_changes":[7.742443E-1,2.7905517E0,2.6558897E0,0E0,0E0,0E0,0E0],"parents":[2147483647,0,0,1,1,2,2],"right_children":[2,4,6,-1,-1,-1,-1],"split_conditions":[1.7841156E1,1.761487E1,2.0737679E1,-1.49978055E-2,-5.1552117E-1,3.9154282E-1,-1.4282814E-2],"split_indices":[1,1,1,0,0,0,0],"split_type":[0,0,0,0,0,0,0],"sum_hessian":[3.8E1,1.8E1,2E1,1.7E1,1E0,2E0,1.8E1],"tree_param":{"num_deleted":"0","num_feature":"2","num_nodes":"7","size_leaf_vector":"1"}},{"base_weights":[4.2775297E-3,-3.191822E-3,7.0432305E-2,3.2966894E-3,-2.0694701E-2,3.8475253E-2,1.1913731E-2],"categories":[],"categories_nodes":[],"categories_segments":[],"categories_sizes":[],"default_left":[0,0,0,0,0,0,0],"id":92,"left_children":[1,3,5,-1,-1,-1,-1],"loss_changes":[1.9496007E-2,2.0407863E-2,1.3227891E-3,0E0,0E0,0E0,0E0],"parents":[2147483647,0,0,1,1,2,2],"right_children":[2,4,6,-1,-1,-1,-1],"split_conditions":[3.267199E1,2.6784803E1,1.3034351E0,3.2966894E-3,-2.0694701E-2,3.8475253E-2,1.1913731E-2],"split_indices":[1,1,0,0,0,0,0],"split_type":[0,0,0,0,0,0,0],"sum_hessian":[3.8E1,3.5E1,3E0,2.9E1,6E0,1E0,2E0],"tree_param":{"num_deleted":"0","num_feature":"2","num_nodes":"7","size_leaf_vector":"1"}},{"base_weights":[2.7235886E-3,2.9839039E-2,-1.1309274E-3,1.6153196E-3,-1.843157E-2],"categories":[],"categories_nodes":[],"categories_segments":[],"categories_sizes":[],"default_left":[0,0,0,0,0],"id":93,"left_children":[1,-1,3,-1,-1],"loss_changes":[1.0888905E-2,0E0,9.015242E-3,0E0,0E0],"parents":[2147483647,0,0,2,2],"right_children":[2,-1,4,-1,-1],"split_conditions":[1.3034351E0,2.9839039E-2,3.1045898E1,1.6153196E-3,-1.843157E-2],"split_indices":[0,0,0,0,0],"split_type":[0,0,0,0,0],"sum_hessian":[3.8E1,1E0,3.7E1,3.4E1,3E0],"tree_param":{"num_deleted":"0","num_feature":"2","num_nodes":"5","size_leaf_vector":"1"}},{"base_weights":[4.090253E-3,1.9393666E-2,3.801987E-4,1.1330067E-2,-2.376888E-3],"categories":[],"categories_nodes":[],"categories_segments":[],"categories_sizes":[],"default_left":[0,0,0,0,0],"id":94,"left_children":[1,-1,3,-1,-1],"loss_changes":[6.4050155E-3,0E0,6.7054657E-3,0E0,0E0],"parents":[2147483647,0,0,2,2],"right_children":[2,-1,4,-1,-1],"split_conditions":[1.9704185E0,1.9393666E-2,5.6203904E0,1.1330067E-2,-2.376888E-3],"split_indices":[0,0,1,0,0],"split_type":[0,0,0,0,0],"sum_hessian":[3.8E1,2E0,3.6E1,6E0,3E1],"tree_param":{"num_deleted":"0","num_feature":"2","num_nodes":"5","size_leaf_vector":"1"}},{"base_weights":[2.7694204E-3,1.7471295E-2,-1.5882021E-3,1.6954804E-2,-8.2042516E-4,-4.892105E-3,3.6612481E-3],"categories":[],"categories_nodes":[],"categories_segments":[],"categories_sizes":[],"default_left":[0,0,0,0,0,0,0],"id":95,"left_children":[1,3,5,-1,-1,-1,-1],"loss_changes":[2.5262912E-3,4.46466E-3,3.6555487E-3,0E0,0E0,0E0,0E0],"parents":[2147483647,0,0,1,1,2,2],"right_children":[2,4,6,-1,-1,-1,-1],"split_conditions":[6.812804E0,8.674453E0,2.3204157E1,1.6954804E-2,-8.2042516E-4,-4.892105E-3,3.6612481E-3],"split_indices":[1,0,1,0,0,0,0],"split_type":[0,0,0,0,0,0,0],"sum_hessian":[3.8E1,8E0,3E1,3E0,5E0,1.5E1,1.5E1],"tree_param":{"num_deleted":"0","num_feature":"2","num_nodes":"7","size_leaf_vector":"1"}},{"base_weights":[-3.07758E-2,2.7356597E-2,-1.8123613E-1,-1.386901E-2,3.528344E-1,-1.9254036E-1,2.3608971E-2],"categories":[],"categories_nodes":[],"categories_segments":[],"categories_sizes":[],"default_left":[0,0,0,0,0,0,0],"id":96,"left_children":[1,3,5,-1,-1,-1,-1],"loss_changes":[3.460762E-1,1.5681094E0,8.2156706E-1,0E0,0E0,0E0,0E0],"parents":[2147483647,0,0,1,1,2,2],"right_children":[2,4,6,-1,-1,-1,-1],"split_conditions":[2.6105385E1,2.4622833E1,4.429133E0,-1.386901E-2,3.528344E-1,-1.9254036E-1,2.3608971E-2],"split_indices":[1,1,0,0,0,0,0],"split_type":[0,0,0,0,0,0,0],"sum_hessian":[3.8E1,2.8E1,1E1,2.7E1,1E0,4E0,6E0],"tree_param":{"num_deleted":"0","num_feature":"2","num_nodes":"7","size_leaf_vector":"1"}},{"base_weights":[3.616383E-3,-1.5363766E-1,4.2816885E-2,-1.16472855E-1,-2.370366E-2,1.14418164E-1,-9.725808E-3],"categories":[],"categories_nodes":[],"categories_segments":[],"categories_sizes":[],"default_left":[0,0,0,0,0,0,0],"id":97,"left_children":[1,3,5,-1,-1,-1,-1],"loss_changes":[2.4699135E-1,8.6594746E-2,5.294597E-1,0E0,0E0,0E0,0E0],"parents":[2147483647,0,0,1,1,2,2],"right_children":[2,4,6,-1,-1,-1,-1],"split_conditions":[3.651018E0,1.1133441E1,5.811631E0,-1.16472855E-1,-2.370366E-2,1.14418164E-1,-9.725808E-3],"split_indices":[0,1,0,0,0,0,0],"split_type":[0,0,0,0,0,0,0],"sum_hessian":[3.8E1,7E0,3.1E1,2E0,5E0,6E0,2.5E1],"tree_param":{"num_deleted":"0","num_feature":"2","num_nodes":"7","size_leaf_vector":"1"}},{"base_weights":[1.5914036E-2,-1.05695166E-1,1.251836E-1,9.530663E-2,-1.1310997E-1,2.9407802E-1,-6.9316598E-3],"categories":[],"categories_nodes":[],"categories_segments":[],"categories_sizes":[],"default_left":[0,0,0,0,0,0,0],"id":98,"left_children":[1,3,5,-1,-1,-1,-1],"loss_changes":[5.314705E-1,1.2246404E0,1.8383627E0,0E0,0E0,0E0,0E0],"parents":[2147483647,0,0,1,1,2,2],"right_children":[2,4,6,-1,-1,-1,-1],"split_conditions":[1.7841156E1,5.9171853E0,2.1989948E1,9.530663E-2,-1.1310997E-1,2.9407802E-1,-6.9316598E-3],"split_indices":[1,0,1,0,0,0,0],"split_type":[0,0,0,0,0,0,0],"sum_hessian":[3.8E1,1.8E1,2E1,6E0,1.2E1,3E0,1.7E1],"tree_param":{"num_deleted":"0","num_feature":"2","num_nodes":"7","size_leaf_vector":"1"}},{"base_weights":[-1.9227747E-2,-2.8624016E-1,4.8126224E-2,-1.920896E-1,-5.6616623E-2,1.351115E-1,-1.859505E-2],"categories":[],"categories_nodes":[],"categories_segments":[],"categories_sizes":[],"default_left":[0,0,0,0,0,0,0],"id":99,"left_children":[1,3,5,-1,-1,-1,-1],"loss_changes":[7.151652E-1,1.5658182E-1,8.926669E-1,0E0,0E0,0E0,0E0],"parents":[2147483647,0,0,1,1,2,2],"right_children":[2,4,6,-1,-1,-1,-1],"split_conditions":[6.266857E0,4.6046233E0,1.2339165E1,-1.920896E-1,-5.6616623E-2,1.351115E-1,-1.859505E-2],"split_indices":[1,0,1,0,0,0,0],"split_type":[0,0,0,0,0,0,0],"sum_hessian":[3.8E1,7E0,3.1E1,2E0,5E0,7E0,2.4E1],"tree_param":{"num_deleted":"0","num_feature":"2","num_nodes":"7","size_leaf_vector":"1"}},{"base_weights":[3.4124372E-3,9.264728E-3,-5.0111286E-2,-6.475373E-4,2.5580956E-2,-2.4447234E-2,-3.4181774E-3],"categories":[],"categories_nodes":[],"categories_segments":[],"categories_sizes":[],"default_left":[0,0,0,0,0,0,0],"id":100,"left_children":[1,3,5,-1,-1,-1,-1],"loss_changes":[1.2680486E-2,2.1530623E-2,1.3077464E-3,0E0,0E0,0E0,0E0],"parents":[2147483647,0,0,1,1,2,2],"right_children":[2,4,6,-1,-1,-1,-1],"split_conditions":[3.1045898E1,2.7822056E1,3.4077023E1,-6.475373E-4,2.5580956E-2,-2.4447234E-2,-3.4181774E-3],"split_indices":[0,0,0,0,0,0,0],"split_type":[0,0,0,0,0,0,0],"sum_hessian":[3.8E1,3.5E1,3E0,3E1,5E0,2E0,1E0],"tree_param":{"num_deleted":"0","num_feature":"2","num_nodes":"7","size_leaf_vector":"1"}},{"base_weights":[1.9680746E-3,-2.636218E-3,4.291469E-2,2.5059902E-3,-1.6163034E-2,2.3871232E-2,6.97368E-3],"categories":[],"categories_nodes":[],"categories_segments":[],"categories_sizes":[],"default_left":[0,0,0,0,0,0,0],"id":101,"left_children":[1,3,5,-1,-1,-1,-1],"loss_changes":[7.4658096E-3,1.2356721E-2,6.6811824E-4,0E0,0E0,0E0,0E0],"parents":[2147483647,0,0,1,1,2,2],"right_children":[2,4,6,-1,-1,-1,-1],"split_conditions":[3.267199E1,2.6784803E1,1.3034351E0,2.5059902E-3,-1.6163034E-2,2.3871232E-2,6.97368E-3],"split_indices":[1,1,0,0,0,0,0],"split_type":[0,0,0,0,0,0,0],"sum_hessian":[3.8E1,3.5E1,3E0,2.9E1,6E0,1E0,2E0],"tree_param":{"num_deleted":"0","num_feature":"2","num_nodes":"7","size_leaf_vector":"1"}},{"base_weights":[3.1810098E-3,-1.3891227E-2,7.3047676E-3,2.6920801E-2,-7.559242E-5],"categories":[],"categories_nodes":[],"categories_segments":[],"categories_sizes":[],"default_left":[0,0,0,0,0],"id":102,"left_children":[1,-1,3,-1,-1],"loss_changes":[6.350467E-3,0E0,1.6198471E-2,0E0,0E0],"parents":[2147483647,0,0,2,2],"right_children":[2,-1,4,-1,-1],"split_conditions":[6.8420875E-1,-1.3891227E-2,5.6203904E0,2.6920801E-2,-7.559242E-5],"split_indices":[1,0,1,0,0],"split_type":[0,0,0,0,0],"sum_hessian":[3.8E1,3E0,3.5E1,3E0,3.2E1],"tree_param":{"num_deleted":"0","num_feature":"2","num_nodes":"5","size_leaf_vector":"1"}},{"base_weights":[2.0437972E-3,1.1282887E-2,-1.3279894E-4,4.3827076E-3,-2.943741E-3],"categories":[],"categories_nodes":[],"categories_segments":[],"categories_sizes":[],"default_left":[0,0,0,0,0],"id":103,"left_children":[1,-1,3,-1,-1],"loss_changes":[2.2246868E-3,0E0,3.0457906E-3,0E0,0E0],"parents":[2147483647,0,0,2,2],"right_children":[2,-1,4,-1,-1],"split_conditions":[1.9704185E0,1.1282887E-2,1.2339165E1,4.3827076E-3,-2.943741E-3],"split_indices":[0,0,1,0,0],"split_type":[0,0,0,0,0],"sum_hessian":[3.8E1,2E0,3.6E1,1.4E1,2.2E1],"tree_param":{"num_deleted":"0","num_feature":"2","num_nodes":"5","size_leaf_vector":"1"}},{"base_weights":[-1.4105647E-2,-2.0762035E-1,2.7370369E-2,-2.312514E-1,2.2483444E-2,9.616574E-2,-3.0284096E-2],"categories":[],"categories_nodes":[],"categories_segments":[],"categories_sizes":[],"default_left":[0,0,0,0,0,0,0],"id":104,"left_children":[1,3,5,-1,-1,-1,-1],"loss_changes":[3.187052E-1,7.167512E-1,7.429051E-1,0E0,0E0,0E0,0E0],"parents":[2147483647,0,0,1,1,2,2],"right_children":[2,4,6,-1,-1,-1,-1],"split_conditions":[5.6203904E0,4.6046233E0,5.678785E0,-2.312514E-1,2.2483444E-2,9.616574E-2,-3.0284096E-2],"split_indices":[1,0,0,0,0,0,0],"split_type":[0,0,0,0,0,0,0],"sum_hessian":[3.8E1,6E0,3.2E1,2E0,4E0,1E1,2.2E1],"tree_param":{"num_deleted":"0","num_feature":"2","num_nodes":"7","size_leaf_vector":"1"}},{"base_weights":[1.2599257E-3,-9.4361685E-2,6.495517E-2,1.1841549E-2,-3.90769E-1,5.7837702E-2,-7.9224445E-2],"categories":[],"categories_nodes":[],"categories_segments":[],"categories_sizes":[],"default_left":[0,0,0,0,0,0,0],"id":105,"left_children":[1,3,5,-1,-1,-1,-1],"loss_changes":[2.4366431E-1,1.7794349E0,5.313515E-1,0E0,0E0,0E0,0E0],"parents":[2147483647,0,0,1,1,2,2],"right_children":[2,4,6,-1,-1,-1,-1],"split_conditions":[6.0739536E0,5.9171853E0,2.6105385E1,1.1841549E-2,-3.90769E-1,5.7837702E-2,-7.9224445E-2],"split_indices":[0,0,1,0,0,0,0],"split_type":[0,0,0,0,0,0,0],"sum_hessian":[3.8E1,1.5E1,2.3E1,1.4E1,1E0,1.8E1,5E0],"tree_param":{"num_deleted":"0","num_feature":"2","num_nodes":"7","size_leaf_vector":"1"}},{"base_weights":[1.6454684E-2,-6.1045412E-2,1.2033983E-1,-6.0810443E-2,1.1875611E-1,-6.315116E-2,1.540746E-1],"categories":[],"categories_nodes":[],"categories_segments":[],"categories_sizes":[],"default_left":[0,0,0,0,0,0,0],"id":106,"left_children":[1,3,5,-1,-1,-1,-1],"loss_changes":[3.2133946E-1,7.941354E-1,1.3134578E0,0E0,0E0,0E0,0E0],"parents":[2147483647,0,0,1,1,2,2],"right_children":[2,4,6,-1,-1,-1,-1],"split_conditions":[1.4645004E1,2.8975248E1,1.2979599E1,-6.0810443E-2,1.1875611E-1,-6.315116E-2,1.540746E-1],"split_indices":[0,1,1,0,0,0,0],"split_type":[0,0,0,0,0,0,0],"sum_hessian":[3.8E1,2.2E1,1.6E1,1.8E1,4E0,8E0,8E0],"tree_param":{"num_deleted":"0","num_feature":"2","num_nodes":"7","size_leaf_vector":"1"}},{"base_weights":[-1.4926073E-2,-1.9569138E-1,7.266189E-2,-1.8795392E-2,-2.7028197E-1,3.5703728E-1,-1.1454538E-2],"categories":[],"categories_nodes":[],"categories_segments":[],"categories_sizes":[],"default_left":[0,0,0,0,0,0,0],"id":107,"left_children":[1,3,5,-1,-1,-1,-1],"loss_changes":[6.31701E-1,8.9618194E-1,2.2681155E0,0E0,0E0,0E0,0E0],"parents":[2147483647,0,0,1,1,2,2],"right_children":[2,4,6,-1,-1,-1,-1],"split_conditions":[1.1133441E1,8.857725E0,1.2339165E1,-1.8795392E-2,-2.7028197E-1,3.5703728E-1,-1.1454538E-2],"split_indices":[1,1,1,0,0,0,0],"split_type":[0,0,0,0,0,0,0],"sum_hessian":[3.8E1,1.2E1,2.6E1,1E1,2E0,2E0,2.4E1],"tree_param":{"num_deleted":"0","num_feature":"2","num_nodes":"7","size_leaf_vector":"1"}},{"base_weights":[1.972283E-3,1.1175965E-2,-3.508898E-2,-3.968782E-4,7.767779E-2,-2.655832E-2,-5.434962E-3],"categories":[],"categories_nodes":[],"categories_segments":[],"categories_sizes":[],"default_left":[0,0,0,0,0,0,0],"id":108,"left_children":[1,3,5,-1,-1,-1,-1],"loss_changes":[1.3695055E-2,7.1456626E-2,4.483021E-3,0E0,0E0,0E0,0E0],"parents":[2147483647,0,0,1,1,2,2],"right_children":[2,4,6,-1,-1,-1,-1],"split_conditions":[2.98648E1,2.7822056E1,3.041754E1,-3.968782E-4,7.767779E-2,-2.655832E-2,-5.434962E-3],"split_indices":[0,0,0,0,0,0,0],"split_type":[0,0,0,0,0,0,0],"sum_hessian":[3.8E1,3.1E1,7E0,3E1,1E0,2E0,5E0],"tree_param":{"num_deleted":"0","num_feature":"2","num_nodes":"7","size_leaf_vector":"1"}},{"base_weights":[1.6215602E-3,-1.0843793E-2,2.2289045E-2,9.240644E-5,-2.7617717E-2,7.713438E-2,-1.4667488E-3],"categories":[],"categories_nodes":[],"categories_segments":[],"categories_sizes":[],"default_left":[0,0,0,0,0,0,0],"id":109,"left_children":[1,3,5,-1,-1,-1,-1],"loss_changes":[1.0289171E-2,1.6129937E-2,6.710762E-2,0E0,0E0,0E0,0E0],"parents":[2147483647,0,0,1,1,2,2],"right_children":[2,4,6,-1,-1,-1,-1],"split_conditions":[2.3832922E1,2.1989948E1,2.4179403E1,9.240644E-5,-2.7617717E-2,7.713438E-2,-1.4667488E-3],"split_indices":[1,1,1,0,0,0,0],"split_type":[0,0,0,0,0,0,0],"sum_hessian":[3.8E1,2.4E1,1.4E1,2.1E1,3E0,1E0,1.3E1],"tree_param":{"num_deleted":"0","num_feature":"2","num_nodes":"7","size_leaf_vector":"1"}},{"base_weights":[2.240748E-3,-1.2151354E-2,1.5155472E-2,-6.9431664E-4,-3.9926298E-2,1.3303086E-3,1.7670171E-2],"categories":[],"categories_nodes":[],"categories_segments":[],"categories_sizes":[],"default_left":[0,0,0,0,0,0,0],"id":110,"left_children":[1,3,5,-1,-1,-1,-1],"loss_changes":[7.4330904E-3,1.7175144E-2,7.062327E-3,0E0,0E0,0E0,0E0],"parents":[2147483647,0,0,1,1,2,2],"right_children":[2,4,6,-1,-1,-1,-1],"split_conditions":[1.7841156E1,1.761487E1,2.009659E1,-6.9431664E-4,-3.9926298E-2,1.3303086E-3,1.7670171E-2],"split_indices":[1,1,0,0,0,0,0],"split_type":[0,0,0,0,0,0,0],"sum_hessian":[3.8E1,1.8E1,2E1,1.7E1,1E0,1.5E1,5E0],"tree_param":{"num_deleted":"0","num_feature":"2","num_nodes":"7","size_leaf_vector":"1"}},{"base_weights":[1.5524804E-3,-3.2880015E-3,1.2717565E-2,1.5045399E-3,-1.1905006E-2,3.297198E-4,1.9249039E-2],"categories":[],"categories_nodes":[],"categories_segments":[],"categories_sizes":[],"default_left":[0,0,0,0,0,0,0],"id":111,"left_children":[1,3,5,-1,-1,-1,-1],"loss_changes":[2.1495465E-3,5.3375345E-3,5.013309E-3,0E0,0E0,0E0,0E0],"parents":[2147483647,0,0,1,1,2,2],"right_children":[2,4,6,-1,-1,-1,-1],"split_conditions":[2.462547E1,1.4645004E1,2.3204157E1,1.5045399E-3,-1.1905006E-2,3.297198E-4,1.9249039E-2],"split_indices":[0,0,1,0,0,0,0],"split_type":[0,0,0,0,0,0,0],"sum_hessian":[3.8E1,2.7E1,1.1E1,2.2E1,5E0,9E0,2E0],"tree_param":{"num_deleted":"0","num_feature":"2","num_nodes":"7","size_leaf_vector":"1"}},{"base_weights":[-1.2127125E-2,4.212205E-2,-1.5404521E-1,1.485558E-1,-2.3968467E-2,-1.6170047E-1,1.8671907E-2],"categories":[],"categories_nodes":[],"categories_segments":[],"categories_sizes":[],"default_left":[0,0,0,0,0,0,0],"id":112,"left_children":[1,3,5,-1,-1,-1,-1],"loss_changes":[3.0674735E-1,9.966398E-1,5.7131875E-1,0E0,0E0,0E0,0E0],"parents":[2147483647,0,0,1,1,2,2],"right_children":[2,4,6,-1,-1,-1,-1],"split_conditions":[2.6105385E1,4.5427623E0,4.429133E0,1.485558E-1,-2.3968467E-2,-1.6170047E-1,1.8671907E-2],"split_indices":[1,0,0,0,0,0,0],"split_type":[0,0,0,0,0,0,0],"sum_hessian":[3.8E1,2.8E1,1E1,6E0,2.2E1,4E0,6E0],"tree_param":{"num_deleted":"0","num_feature":"2","num_nodes":"7","size_leaf_vector":"1"}},{"base_weights":[-9.508501E-3,2.1353226E-2,-2.2363889E-1,-7.7026333E-3,2.8041735E-1,-2.132821E-2,-1.2776439E-1],"categories":[],"categories_nodes":[],"categories_segments":[],"categories_sizes":[],"default_left":[0,0,0,0,0,0,0],"id":113,"left_children":[1,3,5,-1,-1,-1,-1],"loss_changes":[2.625043E-1,9.795728E-1,6.452757E-2,0E0,0E0,0E0,0E0],"parents":[2147483647,0,0,1,1,2,2],"right_children":[2,4,6,-1,-1,-1,-1],"split_conditions":[3.0792906E1,3.041754E1,6.266857E0,-7.7026333E-3,2.8041735E-1,-2.132821E-2,-1.2776439E-1],"split_indices":[0,0,1,0,0,0,0],"split_type":[0,0,0,0,0,0,0],"sum_hessian":[3.8E1,3.4E1,4E0,3.3E1,1E0,2E0,2E0],"tree_param":{"num_deleted":"0","num_feature":"2","num_nodes":"7","size_leaf_vector":"1"}},{"base_weights":[1.3689895E-2,4.6198063E-2,-8.66421E-2,-4.152352E-3,1.2855725E-1],"categories":[],"categories_nodes":[],"categories_segments":[],"categories_sizes":[],"default_left":[0,0,0,0,0],"id":114,"left_children":[1,3,-1,-1,-1],"loss_changes":[3.0197918E-1,5.482949E-1,0E0,0E0,0E0],"parents":[2147483647,0,0,1,1],"right_children":[2,4,-1,-1,-1],"split_conditions":[3.0792906E1,2.7093567E1,-8.66421E-2,-4.152352E-3,1.2855725E-1],"split_indices":[0,0,0,0,0],"split_type":[0,0,0,0,0],"sum_hessian":[3.8E1,3.4E1,4E0,2.9E1,5E0],"tree_param":{"num_deleted":"0","num_feature":"2","num_nodes":"5","size_leaf_vector":"1"}},{"base_weights":[-7.506777E-3,-1.382052E-1,1.1110164E-1,-2.6328957E-3,-3.352001E-1,2.9514465E-1,2.5168369E-3],"categories":[],"categories_nodes":[],"categories_segments":[],"categories_sizes":[],"default_left":[0,0,0,0,0,0,0],"id":115,"left_children":[1,3,5,-1,-1,-1,-1],"loss_changes":[6.1993027E-1,1.7445569E0,1.3748564E0,0E0,0E0,0E0,0E0],"parents":[2147483647,0,0,1,1,2,2],"right_children":[2,4,6,-1,-1,-1,-1],"split_conditions":[1.7841156E1,1.7354515E1,2.0737679E1,-2.6328957E-3,-3.352001E-1,2.9514465E-1,2.5168369E-3],"split_indices":[1,1,1,0,0,0,0],"split_type":[0,0,0,0,0,0,0],"sum_hessian":[3.8E1,1.8E1,2E1,1.6E1,2E0,2E0,1.8E1],"tree_param":{"num_deleted":"0","num_feature":"2","num_nodes":"7","size_leaf_vector":"1"}},{"base_weights":[2.3445913E-3,-3.642243E-3,5.5639952E-2,1.4925728E-2,-5.230946E-3,3.0989086E-2,9.01525E-3],"categories":[],"categories_nodes":[],"categories_segments":[],"categories_sizes":[],"default_left":[0,0,0,0,0,0,0],"id":116,"left_children":[1,3,5,-1,-1,-1,-1],"loss_changes":[1.2646403E-2,1.4399459E-2,1.1447277E-3,0E0,0E0,0E0,0E0],"parents":[2147483647,0,0,1,1,2,2],"right_children":[2,4,6,-1,-1,-1,-1],"split_conditions":[3.267199E1,5.6203904E0,1.3034351E0,1.4925728E-2,-5.230946E-3,3.0989086E-2,9.01525E-3],"split_indices":[1,1,0,0,0,0,0],"split_type":[0,0,0,0,0,0,0],"sum_hessian":[3.8E1,3.5E1,3E0,6E0,2.9E1,1E0,2E0],"tree_param":{"num_deleted":"0","num_feature":"2","num_nodes":"7","size_leaf_vector":"1"}},{"base_weights":[2.2073563E-3,-1.4841625E-2,1.7527513E-2,-1.9433586E-2,-4.107177E-3,3.6658287E-2,1.960855E-3],"categories":[],"categories_nodes":[],"categories_segments":[],"categories_sizes":[],"default_left":[0,0,0,0,0,0,0],"id":117,"left_children":[1,3,5,-1,-1,-1,-1],"loss_changes":[1.0446667E-2,2.4333512E-3,1.9201914E-2,0E0,0E0,0E0,0E0],"parents":[2147483647,0,0,1,1,2,2],"right_children":[2,4,6,-1,-1,-1,-1],"split_conditions":[1.7841156E1,1.9334394E-1,2.0737679E1,-1.9433586E-2,-4.107177E-3,3.6658287E-2,1.960855E-3],"split_indices":[1,1,1,0,0,0,0],"split_type":[0,0,0,0,0,0,0],"sum_hessian":[3.8E1,1.8E1,2E1,1E0,1.7E1,2E0,1.8E1],"tree_param":{"num_deleted":"0","num_feature":"2","num_nodes":"7","size_leaf_vector":"1"}},{"base_weights":[7.900901E-4,-3.0442195E-3,1.4040542E-2,1.1513837E-3,-1.11968955E-2],"categories":[],"categories_nodes":[],"categories_segments":[],"categories_sizes":[],"default_left":[0,0,0,0,0],"id":118,"left_children":[1,3,-1,-1,-1],"loss_changes":[5.2376967E-3,5.3999024E-3,0E0,0E0,0E0],"parents":[2147483647,0,0,1,1],"right_children":[2,4,-1,-1,-1],"split_conditions":[3.267199E1,2.6784803E1,1.4040542E-2,1.1513837E-3,-1.11968955E-2],"split_indices":[1,1,0,0,0],"split_type":[0,0,0,0,0],"sum_hessian":[3.8E1,3.5E1,3E0,2.9E1,6E0],"tree_param":{"num_deleted":"0","num_feature":"2","num_nodes":"5","size_leaf_vector":"1"}},{"base_weights":[1.1668272E-3,8.457198E-3,-3.2540685E-3,1.0687619E-3,1.2283095E-2,-7.1159727E-3,3.0490013E-3],"categories":[],"categories_nodes":[],"categories_segments":[],"categories_sizes":[],"default_left":[0,0,0,0,0,0,0],"id":119,"left_children":[1,3,5,-1,-1,-1,-1],"loss_changes":[1.2844891E-3,1.8488403E-3,4.0881126E-3,0E0,0E0,0E0,0E0],"parents":[2147483647,0,0,1,1,2,2],"right_children":[2,4,6,-1,-1,-1,-1],"split_conditions":[1.2339165E1,1.1133441E1,6.0739536E0,1.0687619E-3,1.2283095E-2,-7.1159727E-3,3.0490013E-3],"split_indices":[1,1,0,0,0,0,0],"split_type":[0,0,0,0,0,0,0],"sum_hessian":[3.8E1,1.4E1,2.4E1,1.2E1,2E0,1E1,1.4E1],"tree_param":{"num_deleted":"0","num_feature":"2","num_nodes":"7","size_leaf_vector":"1"}},{"base_weights":[-7.7490592E-3,-1.6047727E-1,4.3418646E-2,-2.2424767E-3,-1.5655294E-1,3.8774213E-1,-8.774499E-3],"categories":[],"categories_nodes":[],"categories_segments":[],"categories_sizes":[],"default_left":[0,0,0,0,0,0,0],"id":120,"left_children":[1,3,5,-1,-1,-1,-1],"loss_changes":[3.1174305E-1,3.55411E-1,1.8366987E0,0E0,0E0,0E0,0E0],"parents":[2147483647,0,0,1,1,2,2],"right_children":[2,4,6,-1,-1,-1,-1],"split_conditions":[4.429133E0,3.6209865E0,4.5427623E0,-2.2424767E-3,-1.5655294E-1,3.8774213E-1,-8.774499E-3],"split_indices":[0,0,0,0,0,0,0],"split_type":[0,0,0,0,0,0,0],"sum_hessian":[3.8E1,9E0,2.9E1,6E0,3E0,1E0,2.8E1],"tree_param":{"num_deleted":"0","num_feature":"2","num_nodes":"7","size_leaf_vector":"1"}},{"base_weights":[-2.53529E-3,-1.18429124E-1,4.722404E-2,5.3100926E-3,-1.5406266E-1,3.1904933E-1,-4.044051E-3],"categories":[],"categories_nodes":[],"categories_segments":[],"categories_sizes":[],"default_left":[0,0,0,0,0,0,0],"id":121,"left_children":[1,3,5,-1,-1,-1,-1],"loss_changes":[2.3049787E-1,4.2666316E-1,1.2127224E0,0E0,0E0,0E0,0E0],"parents":[2147483647,0,0,1,1,2,2],"right_children":[2,4,6,-1,-1,-1,-1],"split_conditions":[4.6046233E0,2.8134628E1,5.678785E0,5.3100926E-3,-1.5406266E-1,3.1904933E-1,-4.044051E-3],"split_indices":[0,1,0,0,0,0,0],"split_type":[0,0,0,0,0,0,0],"sum_hessian":[3.8E1,1.1E1,2.7E1,8E0,3E0,1E0,2.6E1],"tree_param":{"num_deleted":"0","num_feature":"2","num_nodes":"7","size_leaf_vector":"1"}},{"base_weights":[9.1821905E-3,1.1595191E-1,-4.2565536E-2,-1.9389406E-2,1.99211E-1,-1.5930681E-1,1.4644622E-2],"categories":[],"categories_nodes":[],"categories_segments":[],"categories_sizes":[],"default_left":[0,0,0,0,0,0,0],"id":122,"left_children":[1,3,5,-1,-1,-1,-1],"loss_changes":[2.2041409E-1,8.408394E-1,7.749932E-1,0E0,0E0,0E0,0E0],"parents":[2147483647,0,0,1,1,2,2],"right_children":[2,4,6,-1,-1,-1,-1],"split_conditions":[5.678785E0,4.429133E0,6.819956E0,-1.9389406E-2,1.99211E-1,-1.5930681E-1,1.4644622E-2],"split_indices":[0,0,0,0,0,0,0],"split_type":[0,0,0,0,0,0,0],"sum_hessian":[3.8E1,1.2E1,2.6E1,9E0,3E0,4E0,2.2E1],"tree_param":{"num_deleted":"0","num_feature":"2","num_nodes":"7","size_leaf_vector":"1"}},{"base_weights":[-5.534056E-3,-5.3622767E-2,2.67891E-1,-1.10013306E-1,3.8615078E-2,2.0917664E-1,-2.0147239E-1],"categories":[],"categories_nodes":[],"categories_segments":[],"categories_sizes":[],"default_left":[0,0,0,0,0,0,0],"id":123,"left_children":[1,3,5,-1,-1,-1,-1],"loss_changes":[5.2716273E-1,1.1569525E0,1.444135E0,0E0,0E0,0E0,0E0],"parents":[2147483647,0,0,1,1,2,2],"right_children":[2,4,6,-1,-1,-1,-1],"split_conditions":[3.149442E1,6.819956E0,9.034968E0,-1.10013306E-1,3.8615078E-2,2.0917664E-1,-2.0147239E-1],"split_indices":[1,0,0,0,0,0,0],"split_type":[0,0,0,0,0,0,0],"sum_hessian":[3.8E1,3.3E1,5E0,1.3E1,2E1,4E0,1E0],"tree_param":{"num_deleted":"0","num_feature":"2","num_nodes":"7","size_leaf_vector":"1"}},{"base_weights":[2.6810905E-3,-4.7841772E-2,8.2202675E-3,-2.694413E-2,-7.5528584E-3,3.63013E-2,-8.1313186E-4],"categories":[],"categories_nodes":[],"categories_segments":[],"categories_sizes":[],"default_left":[0,0,0,0,0,0,0],"id":124,"left_children":[1,3,5,-1,-1,-1,-1],"loss_changes":[1.13076195E-2,9.890934E-4,3.0648356E-2,0E0,0E0,0E0,0E0],"parents":[2147483647,0,0,1,1,2,2],"right_children":[2,4,6,-1,-1,-1,-1],"split_conditions":[6.8420875E-1,1.9334394E-1,5.6203904E0,-2.694413E-2,-7.5528584E-3,3.63013E-2,-8.1313186E-4],"split_indices":[1,1,1,0,0,0,0],"split_type":[0,0,0,0,0,0,0],"sum_hessian":[3.8E1,3E0,3.5E1,1E0,2E0,3E0,3.2E1],"tree_param":{"num_deleted":"0","num_feature":"2","num_nodes":"7","size_leaf_vector":"1"}},{"base_weights":[1.7110378E-3,-7.283462E-3,1.6587803E-2,3.1127306E-4,-1.9920658E-2,6.1315324E-2,-1.6502737E-3],"categories":[],"categories_nodes":[],"categories_segments":[],"categories_sizes":[],"default_left":[0,0,0,0,0,0,0],"id":125,"left_children":[1,3,5,-1,-1,-1,-1],"loss_changes":[5.33937E-3,8.6079165E-3,4.310558E-2,0E0,0E0,0E0,0E0],"parents":[2147483647,0,0,1,1,2,2],"right_children":[2,4,6,-1,-1,-1,-1],"split_conditions":[2.3832922E1,2.1989948E1,2.4179403E1,3.1127306E-4,-1.9920658E-2,6.1315324E-2,-1.6502737E-3],"split_indices":[1,1,1,0,0,0,0],"split_type":[0,0,0,0,0,0,0],"sum_hessian":[3.8E1,2.4E1,1.4E1,2.1E1,3E0,1E0,1.3E1],"tree_param":{"num_deleted":"0","num_feature":"2","num_nodes":"7","size_leaf_vector":"1"}},{"base_weights":[5.7649304E-4,-1.0519514E-2,1.05882855E-2,7.01426E-4,-2.279278E-2,-6.1016637E-3,7.846974E-3],"categories":[],"categories_nodes":[],"categories_segments":[],"categories_sizes":[],"default_left":[0,0,0,0,0,0,0],"id":126,"left_children":[1,3,5,-1,-1,-1,-1],"loss_changes":[4.4439295E-3,1.0934427E-2,5.1992885E-3,0E0,0E0,0E0,0E0],"parents":[2147483647,0,0,1,1,2,2],"right_children":[2,4,6,-1,-1,-1,-1],"split_conditions":[1.7841156E1,1.2979599E1,4.429133E0,7.01426E-4,-2.279278E-2,-6.1016637E-3,7.846974E-3],"split_indices":[1,1,0,0,0,0,0],"split_type":[0,0,0,0,0,0,0],"sum_hessian":[3.8E1,1.8E1,2E1,1.5E1,3E0,5E0,1.5E1],"tree_param":{"num_deleted":"0","num_feature":"2","num_nodes":"7","size_leaf_vector":"1"}},{"base_weights":[9.381674E-4,1.7552873E-2,-2.0214326E-3,9.770497E-3,3.203851E-3,-9.691372E-3,1.0571291E-3],"categories":[],"categories_nodes":[],"categories_segments":[],"categories_sizes":[],"default_left":[0,0,0,0,0,0,0],"id":127,"left_children":[1,3,5,-1,-1,-1,-1],"loss_changes":[1.9532242E-3,1.9792037E-4,3.5857204E-3,0E0,0E0,0E0,0E0],"parents":[2147483647,0,0,1,1,2,2],"right_children":[2,4,6,-1,-1,-1,-1],"split_conditions":[3.224669E0,1.9704185E0,4.5427623E0,9.770497E-3,3.203851E-3,-9.691372E-3,1.0571291E-3],"split_indices":[0,0,0,0,0,0,0],"split_type":[0,0,0,0,0,0,0],"sum_hessian":[3.8E1,5E0,3.3E1,2E0,3E0,5E0,2.8E1],"tree_param":{"num_deleted":"0","num_feature":"2","num_nodes":"7","size_leaf_vector":"1"}},{"base_weights":[9.959752E-4,2.5406953E-2,-2.1895182E-1,-6.957274E-3,9.6922606E-2,-1.2898013E-1,1.8308735E-2],"categories":[],"categories_nodes":[],"categories_segments":[],"categories_sizes":[],"default_left":[0,0,0,0,0,0,0],"id":128,"left_children":[1,3,5,-1,-1,-1,-1],"loss_changes":[2.149594E-1,3.3841437E-1,1.24353155E-1,0E0,0E0,0E0,0E0],"parents":[2147483647,0,0,1,1,2,2],"right_children":[2,4,6,-1,-1,-1,-1],"split_conditions":[3.1045898E1,2.7822056E1,3.4077023E1,-6.957274E-3,9.6922606E-2,-1.2898013E-1,1.8308735E-2],"split_indices":[0,0,0,0,0,0,0],"split_type":[0,0,0,0,0,0,0],"sum_hessian":[3.8E1,3.5E1,3E0,3E1,5E0,2E0,1E0],"tree_param":{"num_deleted":"0","num_feature":"2","num_nodes":"7","size_leaf_vector":"1"}},{"base_weights":[2.7417303E-3,-1.5161209E-1,4.1244507E-2,-6.8804406E-2,-1.7639399E-3,1.5091877E-1,-2.6119107E-3],"categories":[],"categories_nodes":[],"categories_segments":[],"categories_sizes":[],"default_left":[0,0,0,0,0,0,0],"id":129,"left_children":[1,3,5,-1,-1,-1,-1],"loss_changes":[2.3803213E-1,2.3263574E-2,5.162129E-1,0E0,0E0,0E0,0E0],"parents":[2147483647,0,0,1,1,2,2],"right_children":[2,4,6,-1,-1,-1,-1],"split_conditions":[6.266857E0,3.1045898E1,8.857725E0,-6.8804406E-2,-1.7639399E-3,1.5091877E-1,-2.6119107E-3],"split_indices":[1,0,1,0,0,0,0],"split_type":[0,0,0,0,0,0,0],"sum_hessian":[3.8E1,7E0,3.1E1,6E0,1E0,3E0,2.8E1],"tree_param":{"num_deleted":"0","num_feature":"2","num_nodes":"7","size_leaf_vector":"1"}},{"base_weights":[6.4108404E-3,5.1392306E-2,-1.1275946E-1,1.096341E-1,-7.4473047E-3,-1.2677781E-1,1.9678198E-2],"categories":[],"categories_nodes":[],"categories_segments":[],"categories_sizes":[],"default_left":[0,0,0,0,0,0,0],"id":130,"left_children":[1,3,5,-1,-1,-1,-1],"loss_changes":[2.1485269E-1,4.5723793E-1,3.793488E-1,0E0,0E0,0E0,0E0],"parents":[2147483647,0,0,1,1,2,2],"right_children":[2,4,6,-1,-1,-1,-1],"split_conditions":[2.6105385E1,4.5427623E0,2.8975248E1,1.096341E-1,-7.4473047E-3,-1.2677781E-1,1.9678198E-2],"split_indices":[1,0,1,0,0,0,0],"split_type":[0,0,0,0,0,0,0],"sum_hessian":[3.8E1,2.8E1,1E1,6E0,2.2E1,4E0,6E0],"tree_param":{"num_deleted":"0","num_feature":"2","num_nodes":"7","size_leaf_vector":"1"}},{"base_weights":[-4.9536214E-3,3.5319973E-2,-3.6617756E-1,-1.2576996E-1,3.0657193E-2,-1.8018983E-1,-2.26573E-2],"categories":[],"categories_nodes":[],"categories_segments":[],"categories_sizes":[],"default_left":[0,0,0,0,0,0,0],"id":131,"left_children":[1,3,5,-1,-1,-1,-1],"loss_changes":[5.80297E-1,5.4438883E-1,7.885498E-2,0E0,0E0,0E0,0E0],"parents":[2147483647,0,0,1,1,2,2],"right_children":[2,4,6,-1,-1,-1,-1],"split_conditions":[3.1045898E1,2.4091444E0,3.4077023E1,-1.2576996E-1,3.0657193E-2,-1.8018983E-1,-2.26573E-2],"split_indices":[0,1,0,0,0,0,0],"split_type":[0,0,0,0,0,0,0],"sum_hessian":[3.8E1,3.5E1,3E0,3E0,3.2E1,2E0,1E0],"tree_param":{"num_deleted":"0","num_feature":"2","num_nodes":"7","size_leaf_vector":"1"}},{"base_weights":[1.6340661E-3,-1.7713197E-2,1.906092E-2,4.8825676E-3,-1.4473403E-2,4.685533E-2,1.028723E-3],"categories":[],"categories_nodes":[],"categories_segments":[],"categories_sizes":[],"default_left":[0,0,0,0,0,0,0],"id":132,"left_children":[1,3,5,-1,-1,-1,-1],"loss_changes":[1.3486944E-2,1.0941539E-2,3.366014E-2,0E0,0E0,0E0,0E0],"parents":[2147483647,0,0,1,1,2,2],"right_children":[2,4,6,-1,-1,-1,-1],"split_conditions":[1.7841156E1,6.266857E0,2.0737679E1,4.8825676E-3,-1.4473403E-2,4.685533E-2,1.028723E-3],"split_indices":[1,1,1,0,0,0,0],"split_type":[0,0,0,0,0,0,0],"sum_hessian":[3.8E1,1.8E1,2E1,7E0,1.1E1,2E0,1.8E1],"tree_param":{"num_deleted":"0","num_feature":"2","num_nodes":"7","size_leaf_vector":"1"}},{"base_weights":[2.0536927E-3,-1.0438849E-2,1.3258674E-2,-1.5609122E-2,-2.6731675E-3,2.6799737E-2,1.6301925E-3],"categories":[],"categories_nodes":[],"categories_segments":[],"categories_sizes":[],"default_left":[0,0,0,0,0,0,0],"id":133,"left_children":[1,3,5,-1,-1,-1,-1],"loss_changes":[5.5975746E-3,1.7790417E-3,1.0090674E-2,0E0,0E0,0E0,0E0],"parents":[2147483647,0,0,1,1,2,2],"right_children":[2,4,6,-1,-1,-1,-1],"split_conditions":[1.7841156E1,1.9334394E-1,2.0737679E1,-1.5609122E-2,-2.6731675E-3,2.6799737E-2,1.6301925E-3],"split_indices":[1,1,1,0,0,0,0],"split_type":[0,0,0,0,0,0,0],"sum_hessian":[3.8E1,1.8E1,2E1,1E0,1.7E1,2E0,1.8E1],"tree_param":{"num_deleted":"0","num_feature":"2","num_nodes":"7","size_leaf_vector":"1"}},{"base_weights":[-1.7578862E-4,3.6541638E-3,-1.3840565E-2,-1.5764114E-3,1.4273186E-2],"categories":[],"categories_nodes":[],"categories_segments":[],"categories_sizes":[],"default_left":[0,0,0,0,0],"id":134,"left_children":[1,3,-1,-1,-1],"loss_changes":[5.268531E-3,8.898163E-3,0E0,0E0,0E0],"parents":[2147483647,0,0,1,1],"right_children":[2,4,-1,-1,-1],"split_conditions":[3.1045898E1,2.7093567E1,-1.3840565E-2,-1.5764114E-3,1.4273186E-2],"split_indices":[0,0,0,0,0],"split_type":[0,0,0,0,0],"sum_hessian":[3.8E1,3.5E1,3E0,2.9E1,6E0],"tree_param":{"num_deleted":"0","num_feature":"2","num_nodes":"5","size_leaf_vector":"1"}},{"base_weights":[6.7418796E-4,1.5894514E-2,-1.0356868E-3,8.985871E-3,2.4864932E-3,1.101802E-3,-8.178293E-3],"categories":[],"categories_nodes":[],"categories_segments":[],"categories_sizes":[],"default_left":[0,0,0,0,0,0,0],"id":135,"left_children":[1,3,5,-1,-1,-1,-1],"loss_changes":[1.0314309E-3,1.1470588E-4,2.7047584E-3,0E0,0E0,0E0,0E0],"parents":[2147483647,0,0,1,1,2,2],"right_children":[2,4,6,-1,-1,-1,-1],"split_conditions":[1.9782723E0,1.3034351E0,2.8736597E1,8.985871E-3,2.4864932E-3,1.101802E-3,-8.178293E-3],"split_indices":[0,0,1,0,0,0,0],"split_type":[0,0,0,0,0,0,0],"sum_hessian":[3.8E1,3E0,3.5E1,1E0,2E0,3E1,5E0],"tree_param":{"num_deleted":"0","num_feature":"2","num_nodes":"7","size_leaf_vector":"1"}},{"base_weights":[6.65952E-5,-1.6439621E-1,3.495063E-2,4.040847E-2,-1.5548582E-1,-4.8408944E-2,3.588115E-2],"categories":[],"categories_nodes":[],"categories_segments":[],"categories_sizes":[],"default_left":[0,0,0,0,0,0,0],"id":136,"left_children":[1,3,5,-1,-1,-1,-1],"loss_changes":[2.2949366E-1,4.560343E-1,2.926718E-1,0E0,0E0,0E0,0E0],"parents":[2147483647,0,0,1,1,2,2],"right_children":[2,4,6,-1,-1,-1,-1],"split_conditions":[5.6203904E0,6.8420875E-1,4.429133E0,4.040847E-2,-1.5548582E-1,-4.8408944E-2,3.588115E-2],"split_indices":[1,1,0,0,0,0,0],"split_type":[0,0,0,0,0,0,0],"sum_hessian":[3.8E1,6E0,3.2E1,3E0,3E0,8E0,2.4E1],"tree_param":{"num_deleted":"0","num_feature":"2","num_nodes":"7","size_leaf_vector":"1"}},{"base_weights":[3.6383222E-3,-2.6010996E-2,1.7104474E-1,8.871145E-3,-2.1254206E-1,2.5576192E-1,-2.020329E-2],"categories":[],"categories_nodes":[],"categories_segments":[],"categories_sizes":[],"default_left":[0,0,0,0,0,0,0],"id":137,"left_children":[1,3,5,-1,-1,-1,-1],"loss_changes":[1.98025E-1,8.397508E-1,6.548945E-1,0E0,0E0,0E0,0E0],"parents":[2147483647,0,0,1,1,2,2],"right_children":[2,4,6,-1,-1,-1,-1],"split_conditions":[3.149442E1,2.8736597E1,3.2509575E1,8.871145E-3,-2.1254206E-1,2.5576192E-1,-2.020329E-2],"split_indices":[1,1,1,0,0,0,0],"split_type":[0,0,0,0,0,0,0],"sum_hessian":[3.8E1,3.3E1,5E0,3.1E1,2E0,1E0,4E0],"tree_param":{"num_deleted":"0","num_feature":"2","num_nodes":"7","size_leaf_vector":"1"}},{"base_weights":[3.720548E-3,-1.0357463E-1,1.7446699E-2,4.823483E-2,-1.6403912E-2],"categories":[],"categories_nodes":[],"categories_segments":[],"categories_sizes":[],"default_left":[0,0,0,0,0],"id":138,"left_children":[1,-1,3,-1,-1],"loss_changes":[1.4512317E-1,0E0,2.3405571E-1,0E0,0E0],"parents":[2147483647,0,0,2,2],"right_children":[2,-1,4,-1,-1],"split_conditions":[1.9334394E-1,-1.0357463E-1,1.2339165E1,4.823483E-2,-1.6403912E-2],"split_indices":[1,0,1,0,0],"split_type":[0,0,0,0,0],"sum_hessian":[3.8E1,1E0,3.7E1,1.3E1,2.4E1],"tree_param":{"num_deleted":"0","num_feature":"2","num_nodes":"5","size_leaf_vector":"1"}},{"base_weights":[-1.0612183E-2,4.9486224E-2,-1.6808869E-1,-1.4539644E-2,4.9057513E-1,-1.7785344E-1,5.458839E-2],"categories":[],"categories_nodes":[],"categories_segments":[],"categories_sizes":[],"default_left":[0,0,0,0,0,0,0],"id":139,"left_children":[1,3,5,-1,-1,-1,-1],"loss_changes":[3.7741747E-1,2.9742768E0,9.871481E-1,0E0,0E0,0E0,0E0],"parents":[2147483647,0,0,1,1,2,2],"right_children":[2,4,6,-1,-1,-1,-1],"split_conditions":[2.6105385E1,2.4622833E1,3.149442E1,-1.4539644E-2,4.9057513E-1,-1.7785344E-1,5.458839E-2],"split_indices":[1,1,1,0,0,0,0],"split_type":[0,0,0,0,0,0,0],"sum_hessian":[3.8E1,2.8E1,1E1,2.7E1,1E0,5E0,5E0],"tree_param":{"num_deleted":"0","num_feature":"2","num_nodes":"7","size_leaf_vector":"1"}},{"base_weights":[1.9623204E-3,9.58357E-3,-2.8767968E-2,-1.1680366E-4,6.31453E-2,-2.253182E-2,-6.7134085E-3],"categories":[],"categories_nodes":[],"categories_segments":[],"categories_sizes":[],"default_left":[0,0,0,0,0,0,0],"id":140,"left_children":[1,3,5,-1,-1,-1,-1],"loss_changes":[9.409624E-3,4.6905227E-2,1.6970746E-3,0E0,0E0,0E0,0E0],"parents":[2147483647,0,0,1,1,2,2],"right_children":[2,4,6,-1,-1,-1,-1],"split_conditions":[2.98648E1,2.7822056E1,3.0154072E1,-1.1680366E-4,6.31453E-2,-2.253182E-2,-6.7134085E-3],"split_indices":[0,0,0,0,0,0,0],"split_type":[0,0,0,0,0,0,0],"sum_hessian":[3.8E1,3.1E1,7E0,3E1,1E0,1E0,6E0],"tree_param":{"num_deleted":"0","num_feature":"2","num_nodes":"7","size_leaf_vector":"1"}},{"base_weights":[1.4924122E-3,1.9002175E-2,-9.686E-4,-9.530641E-3,2.368435E-3],"categories":[],"categories_nodes":[],"categories_segments":[],"categories_sizes":[],"default_left":[0,0,0,0,0],"id":141,"left_children":[1,-1,3,-1,-1],"loss_changes":[4.46232E-3,0E0,6.1254906E-3,0E0,0E0],"parents":[2147483647,0,0,2,2],"right_children":[2,-1,4,-1,-1],"split_conditions":[1.3034351E0,1.9002175E-2,4.429133E0,-9.530641E-3,2.368435E-3],"split_indices":[0,0,0,0,0],"split_type":[0,0,0,0,0],"sum_hessian":[3.8E1,1E0,3.7E1,8E0,2.9E1],"tree_param":{"num_deleted":"0","num_feature":"2","num_nodes":"5","size_leaf_vector":"1"}},{"base_weights":[-1.3479132E-4,1.3909324E-2,-2.961535E-3,-9.356332E-3,3.8460232E-4],"categories":[],"categories_nodes":[],"categories_segments":[],"categories_sizes":[],"default_left":[0,0,0,0,0],"id":142,"left_children":[1,-1,3,-1,-1],"loss_changes":[3.951356E-3,0E0,2.9878537E-3,0E0,0E0],"parents":[2147483647,0,0,2,2],"right_children":[2,-1,4,-1,-1],"split_conditions":[1.9704185E0,1.3909324E-2,3.651018E0,-9.356332E-3,3.8460232E-4],"split_indices":[0,0,0,0,0],"split_type":[0,0,0,0,0],"sum_hessian":[3.8E1,2E0,3.6E1,5E0,3.1E1],"tree_param":{"num_deleted":"0","num_feature":"2","num_nodes":"5","size_leaf_vector":"1"}},{"base_weights":[5.172287E-4,-4.1954275E-3,7.553886E-3,1.4641036E-3,-9.518567E-3,1.8398253E-2,-4.892777E-4],"categories":[],"categories_nodes":[],"categories_segments":[],"categories_sizes":[],"default_left":[0,0,0,0,0,0,0],"id":143,"left_children":[1,3,5,-1,-1,-1,-1],"loss_changes":[1.3249844E-3,3.7826025E-3,5.454762E-3,0E0,0E0,0E0,0E0],"parents":[2147483647,0,0,1,1,2,2],"right_children":[2,4,6,-1,-1,-1,-1],"split_conditions":[2.3204157E1,1.761487E1,2.4179403E1,1.4641036E-3,-9.518567E-3,1.8398253E-2,-4.892777E-4],"split_indices":[1,1,1,0,0,0,0],"split_type":[0,0,0,0,0,0,0],"sum_hessian":[3.8E1,2.3E1,1.5E1,1.7E1,6E0,2E0,1.3E1],"tree_param":{"num_deleted":"0","num_feature":"2","num_nodes":"7","size_leaf_vector":"1"}},{"base_weights":[-3.2319045E-3,-1.9267006E-1,2.392303E-2,-2.4924183E-1,2.8285885E-2,7.469602E-2,-2.3392908E-2],"categories":[],"categories_nodes":[],"categories_segments":[],"categories_sizes":[],"default_left":[0,0,0,0,0,0,0],"id":144,"left_children":[1,3,5,-1,-1,-1,-1],"loss_changes":[2.0523229E-1,6.109122E-1,4.8051545E-1,0E0,0E0,0E0,0E0],"parents":[2147483647,0,0,1,1,2,2],"right_children":[2,4,6,-1,-1,-1,-1],"split_conditions":[2.4091444E0,4.6046233E0,5.678785E0,-2.4924183E-1,2.8285885E-2,7.469602E-2,-2.3392908E-2],